{"version":"0.5.4","metadata":{"date":{"year":2026,"month":4,"day":24,"hour":13,"minute":33,"second":39},"loudness":-19.498918533325195,"gain":0.8634475668293169,"name":"TK ROY 67 Dimed SCP CAB","modeled_by":"amalgamaudio","gear_type":"amp_cab","gear_make":"tz-make","gear_model":"tz-model","tone_type":"overdrive","input_level_dbu":15,"output_level_dbu":14,"training":{"settings":{"ignore_checks":false},"data":{"latency":{"manual":null,"calibration":{"algorithm_version":1,"delays":[684],"safety_factor":1,"recommended":683,"warnings":{"matches_lookahead":false,"disagreement_too_high":false,"not_detected":false}}},"checks":{"version":3,"passed":true}},"validation_esr":0.004661035892926524}},"architecture":"WaveNet","config":{"layers":[{"input_size":1,"condition_size":1,"head_size":8,"channels":16,"kernel_size":3,"dilations":[1,2,4,8,16,32,64,128,256,512],"activation":"Tanh","gated":false,"head_bias":false},{"input_size":16,"condition_size":1,"head_size":1,"channels":8,"kernel_size":3,"dilations":[1,2,4,8,16,32,64,128,256,512],"activation":"Tanh","gated":false,"head_bias":true}],"head":null,"head_scale":0.02},"weights":[-0.004810349550098181,0.5044254064559937,-0.9612981081008911,-0.8711878061294556,-0.5616227388381958,0.3973442018032074,-0.10415077954530716,0.8835291862487793,-0.09821631759405136,0.3121844530105591,-0.24993473291397095,-0.25845712423324585,-1.0581303834915161,-0.6983593106269836,-0.5741152763366699,0.3541758060455322,0.1494312584400177,0.18504121899604797,0.02630615234375,-0.13021911680698395,-0.08658664673566818,0.04832008108496666,0.03641650825738907,0.24268846213817596,0.05635740980505943,0.08050545305013657,0.26487916707992554,-0.0560055673122406,-0.029849441722035408,0.09529874473810196,0.01855780929327011,0.07016979902982712,-0.21405866742134094,-0.13811656832695007,-0.03857581689953804,-0.03815985843539238,-0.03293953463435173,0.058242425322532654,-0.07067098468542099,-0.008697360754013062,0.05280136689543724,0.018259814009070396,0.06185701861977577,-0.19007615745067596,-0.22331292927265167,-0.13958384096622467,0.1436084806919098,0.1972997635602951,-0.004132565576583147,0.04491673409938812,0.20295175909996033,0.20056480169296265,0.12431271374225616,0.15569303929805756,0.1765337884426117,-0.019773373380303383,0.16119785606861115,-0.03320107236504555,-0.03765278309583664,0.05549444630742073,0.14501549303531647,0.015544534660875797,-0.15607395768165588,-0.04047407954931259,-0.0028157092165201902,-0.12869839370250702,-0.16656072437763214,0.0494115836918354,-0.055297110229730606,0.3103124499320984,-0.12871205806732178,0.09266342967748642,-0.12726089358329773,0.10347075760364532,0.2715275287628174,-0.05418967828154564,0.013660271652042866,0.023216208443045616,-0.17186792194843292,-0.0799700990319252,-0.2861006259918213,0.3039225935935974,0.08450375497341156,-0.0013078759657219052,-0.14670395851135254,-0.0086471913382411,-0.17010420560836792,0.1139746680855751,0.07811915874481201,0.08912298083305359,-0.06200806424021721,0.0776815265417099,-0.05272288993000984,0.21966850757598877,-0.14990392327308655,0.05556156486272812,-0.08635317534208298,0.029617536813020706,0.04859886318445206,-0.23663915693759918,0.1205398291349411,0.24412325024604797,-0.24204044044017792,-0.05070944130420685,0.008771620690822601,-0.181661456823349,-0.12392137944698334,0.037122197449207306,-0.19123892486095428,0.04320424795150757,-0.21438714861869812,0.29170721769332886,-0.0005144768510945141,0.11372632533311844,0.17217564582824707,-0.2858020067214966,0.09334055334329605,0.10583684593439102,0.18957364559173584,-0.0992843508720398,-0.05494486540555954,0.17935197055339813,-0.20161445438861847,-0.03554477170109749,0.04509251192212105,-0.21138417720794678,-0.1353178471326828,-0.25046002864837646,0.0675610825419426,-0.028831031173467636,0.16937953233718872,-0.06539065390825272,-0.10458150506019592,-0.1767018437385559,0.23406602442264557,0.08807545155286789,0.20724007487297058,-0.06239621713757515,0.028713855892419815,-0.08687498420476913,0.24709388613700867,0.17390525341033936,0.30918827652931213,-0.116332046687603,-0.20375345647335052,0.10702227056026459,-0.0125417560338974,-0.0761742815375328,0.0958467423915863,-0.24249966442584991,-0.2409517616033554,0.049364883452653885,-0.15719406306743622,-0.023739000782370567,0.25516554713249207,-0.2651752531528473,-0.013228020630776882,-0.3466847240924835,0.02923036739230156,0.030258672311902046,-0.147800475358963,-0.013271464966237545,-0.1785733848810196,-0.3426954746246338,-0.06477759033441544,0.13164332509040833,0.16537049412727356,0.0938364565372467,-0.2509784400463104,0.21861878037452698,0.16833437979221344,-0.18239903450012207,0.3515610992908478,0.08458205312490463,-0.2641046643257141,-0.12733735144138336,-0.04125579446554184,0.07483991980552673,0.3046106994152069,-0.13781778514385223,-0.2130243480205536,-0.259508341550827,0.061270613223314285,0.16386309266090393,0.24102626740932465,0.035909365862607956,-0.2231784611940384,-0.24341538548469543,-0.14078885316848755,0.22048558294773102,0.3228021264076233,0.12268956750631332,-0.2416672706604004,0.21089380979537964,-0.08750057965517044,-0.23530052602291107,0.1447562426328659,0.0913282111287117,-0.20794236660003662,0.22135472297668457,0.04510986804962158,-0.030545176938176155,0.11371366679668427,-0.06879792362451553,-0.21256627142429352,-0.08639948815107346,0.031008124351501465,0.2987363636493683,0.012883567251265049,0.04108158499002457,-0.1095389872789383,-0.27249184250831604,0.057562943547964096,0.059737835079431534,0.2571047246456146,-0.02078687772154808,-0.1965923309326172,0.18141336739063263,0.07978256791830063,-0.20263682305812836,0.24246497452259064,0.09977170079946518,-0.038890939205884933,-0.24465064704418182,-0.07878496497869492,0.16465537250041962,0.10578404366970062,-0.1245785504579544,-0.19781433045864105,-0.27763858437538147,0.03882769122719765,0.20571169257164001,0.2345466911792755,0.06798973679542542,-0.03215006738901138,-0.3325906991958618,0.1167394295334816,-0.0010238788090646267,0.18306481838226318,0.0032369312830269337,-0.04393874853849411,0.33709225058555603,-0.10301114618778229,-0.10998059064149857,0.32966873049736023,-0.17787005007266998,0.017957283183932304,0.1358938068151474,-0.03603150695562363,-0.10948441177606583,0.17609933018684387,-0.027061844244599342,0.029518628492951393,-0.2274111658334732,0.08619991689920425,0.09590510278940201,-0.07833617180585861,-0.0008657249854877591,-0.0019230680773034692,-0.2226065993309021,0.07123592495918274,0.26212257146835327,0.2064415067434311,-0.047136593610048294,-0.14197328686714172,0.08325114846229553,-0.19654744863510132,-0.14523059129714966,0.2622544467449188,-0.11351773887872696,-0.25243282318115234,-0.20721323788166046,0.0018621336203068495,0.20446674525737762,0.0797029584646225,-0.23857538402080536,0.04083913937211037,-0.22375580668449402,0.13854314386844635,0.22814784944057465,0.16905814409255981,-0.1653555929660797,-0.1950496882200241,-0.02289687469601631,0.15668168663978577,0.2863214612007141,0.08436693996191025,-0.08341529220342636,-0.18874165415763855,0.12923112511634827,-0.2163490206003189,-0.10743194818496704,0.17459256947040558,-0.15934984385967255,-0.22155000269412994,0.04346033185720444,-0.05291403830051422,-0.2938840985298157,0.19744062423706055,-0.1983274668455124,-0.25656142830848694,-0.15868714451789856,0.0041372873820364475,0.2099543958902359,-0.02012835629284382,-0.3123820424079895,0.006980661302804947,-0.03701295703649521,0.31877705454826355,0.1378721445798874,-0.016364049166440964,-0.28986629843711853,-0.11904016882181168,0.05179280415177345,-0.2106206864118576,-0.06406097859144211,0.038546111434698105,-0.2654525339603424,-0.10078810155391693,-0.10379905253648758,0.2644324004650116,0.1665063053369522,0.003694721031934023,-0.25113368034362793,0.014368679374456406,0.024573300033807755,0.3470441401004791,0.1777406930923462,0.21607251465320587,-0.24121733009815216,-0.1805676817893982,-0.24157480895519257,0.3837186396121979,0.23014642298221588,0.01251246314495802,-0.1725914031267166,-0.02295112796127796,0.25684526562690735,-0.11448025703430176,-0.02393629401922226,0.0701325312256813,-0.3141598105430603,-0.042965367436409,0.18574653565883636,-0.34869131445884705,-0.030714405700564384,0.17829713225364685,-0.18503203988075256,-0.25504550337791443,-0.11531233787536621,0.16280527412891388,0.27382731437683105,0.044184230268001556,0.12338516861200333,0.07683000713586807,0.09575986862182617,0.033136799931526184,0.16327959299087524,-0.13832904398441315,-0.04668193310499191,-0.2018694132566452,-0.18021029233932495,-0.19748608767986298,0.008928981609642506,0.047610968351364136,0.06238996610045433,0.018399743363261223,-0.10027191787958145,-0.02840903215110302,0.07609768211841583,-0.09404566138982773,0.07519605755805969,-0.1537230908870697,-0.030240362510085106,-0.0551733672618866,0.02531822957098484,0.09481331706047058,0.053872350603342056,0.031396932899951935,0.1425439566373825,0.20193643867969513,0.06071523576974869,0.031479306519031525,0.05186671018600464,-0.04475633054971695,0.12299200892448425,0.009014598093926907,0.005936086177825928,-0.09009648114442825,-0.014630536548793316,-0.08988433331251144,-0.0711725652217865,-0.16239731013774872,-0.18434590101242065,-0.14200986921787262,0.025005649775266647,0.00249015842564404,-0.041677795350551605,-0.10785797983407974,0.18635810911655426,0.10831418633460999,-0.03642444685101509,-0.030725976452231407,0.06675851345062256,0.23520365357398987,-0.03234701231122017,0.20778504014015198,-0.07090422511100769,-0.14271284639835358,0.15209321677684784,-0.2605942487716675,-0.10612478107213974,0.20396646857261658,-0.16773109138011932,-0.18029631674289703,-0.12992475926876068,0.12682846188545227,0.041584450751543045,0.09469836950302124,-0.01598111167550087,0.004664915148168802,-0.1593063622713089,0.18610531091690063,0.15218350291252136,0.16902276873588562,-0.23808375000953674,-0.013864696025848389,-0.18603214621543884,0.09988219290971756,0.11654438823461533,-0.027850152924656868,-0.10089817643165588,0.0678613930940628,0.0872584655880928,-0.2543579339981079,-0.1051434576511383,0.10001275688409805,-0.2899167239665985,-0.014042594470083714,-0.058950264006853104,-0.3142583966255188,-0.22249847650527954,0.048445068299770355,-0.0759977176785469,-0.21813000738620758,-0.002151460386812687,0.06507804244756699,0.11826980113983154,0.1248922348022461,-0.21279557049274445,0.16060228645801544,0.2510885000228882,0.2108955830335617,-0.03568090498447418,-0.2849133312702179,0.0523352175951004,0.10910263657569885,-0.11898944526910782,-0.18523822724819183,0.062389932572841644,-0.32585224509239197,-0.1272139549255371,0.13612867891788483,0.07155562937259674,0.10163713246583939,-0.03442678228020668,-0.09743277728557587,-0.11335103213787079,0.07698705792427063,0.1437271535396576,0.1301155686378479,0.037426918745040894,-0.051430702209472656,-0.04413335397839546,0.1906770020723343,0.03799402713775635,-0.07015979290008545,-0.046637162566185,-0.25295838713645935,0.01940861903131008,0.009141745045781136,-0.23899568617343903,-0.16073402762413025,0.19779537618160248,-0.2021881341934204,0.04382241144776344,0.19313296675682068,-0.10530470311641693,-0.06291413307189941,0.058381177484989166,-0.2170047163963318,-0.043832872062921524,0.17640100419521332,0.08411860466003418,0.11993048340082169,-0.1446095108985901,-0.04827383533120155,-0.056150030344724655,0.1871471405029297,0.2917199432849884,-0.09586898982524872,0.045005396008491516,-0.09782230854034424,0.04475715383887291,0.17196331918239594,-0.24718953669071198,0.002346184803172946,0.10930400341749191,-0.20889973640441895,0.009503763169050217,0.013683653436601162,0.25171348452568054,-0.004782555624842644,-0.11244326084852219,-0.06420066207647324,0.0731152817606926,0.04920678213238716,0.18149326741695404,0.12687577307224274,-0.06541283428668976,-0.10349660366773605,-0.05943498760461807,0.11514118313789368,0.052964143455028534,-0.055222272872924805,-0.13702842593193054,-0.027384178712964058,-0.07571069896221161,0.05373503267765045,-0.2145317941904068,0.12037505954504013,0.21275968849658966,-0.2762642800807953,-0.1583954393863678,-0.05793071910738945,-0.16827408969402313,-0.07777687162160873,-0.04401656240224838,-0.2146114706993103,-0.0075150360353291035,-0.018940355628728867,0.13520298898220062,-0.11146926879882812,-0.19949227571487427,-0.023606356233358383,0.1384105384349823,-0.048192765563726425,0.15889395773410797,-0.06898955255746841,-0.17444847524166107,-0.29083624482154846,-0.12205000966787338,0.4705143868923187,-0.24841828644275665,0.04085217043757439,0.31099188327789307,-0.19428399205207825,-0.024814875796437263,0.41267383098602295,0.16857264935970306,-0.14087152481079102,-0.39268019795417786,-0.23532791435718536,0.023660436272621155,0.1473338007926941,0.2918718457221985,-0.04601573944091797,-0.34824708104133606,-0.07712876796722412,0.019391248002648354,0.34081655740737915,0.24765221774578094,-0.041377149522304535,-0.39774131774902344,-0.17211492359638214,0.11596423387527466,0.23950715363025665,-0.2944040298461914,0.056221190840005875,0.43291833996772766,-0.1971282958984375,-0.10502518713474274,0.192352294921875,-0.12421131879091263,-0.0008935468504205346,0.2459617704153061,-0.13356250524520874,0.06176547333598137,0.43490269780158997,0.2968265116214752,0.031974535435438156,-0.42448949813842773,-0.22438791394233704,0.2008543759584427,0.1804414689540863,-0.04457581788301468,0.12734416127204895,-0.009551296941936016,0.2495713233947754,-0.1283065676689148,0.025058554485440254,0.05987294390797615,-0.3535477817058563,0.28953421115875244,0.05068761482834816,-0.3274769186973572,0.22429293394088745,-0.18216046690940857,0.1879022866487503,-0.16272875666618347,0.08824935555458069,-0.3825376331806183,0.2613796293735504,-0.1807537078857422,0.3040319085121155,-0.02837083488702774,0.15666422247886658,-0.2331407070159912,0.2500251829624176,-0.09617377072572708,0.18443138897418976,-0.015339168719947338,0.14241929352283478,-0.3886702358722687,0.10395436733961105,0.009279711171984673,-0.13673631846904755,0.11653947085142136,-0.016691148281097412,-0.262608140707016,0.24212399125099182,0.14894580841064453,-0.2087184190750122,0.1632814258337021,0.16467513144016266,-0.29758065938949585,0.08827293664216995,-0.2852180004119873,0.14351685345172882,-0.0820481926202774,-0.1491910219192505,0.025942238047719002,0.0022974221501499414,0.013440650887787342,-0.20306091010570526,0.13238553702831268,-0.08561655879020691,0.2301279455423355,-0.0997285395860672,-0.03826139494776726,0.18865448236465454,-0.04727274551987648,0.10774914920330048,0.0023206996265798807,-0.11970575898885727,-0.05319317430257797,-0.07586667686700821,0.1332213431596756,-0.08951172977685928,0.1204756498336792,-0.09836584329605103,-0.030125737190246582,-0.006310758646577597,-0.12512341141700745,-0.015309998765587807,0.194908007979393,-0.07879690080881119,0.12115085124969482,-0.1436784714460373,0.11667662858963013,-0.14880260825157166,0.07554258406162262,-0.033951908349990845,0.033768124878406525,0.15015244483947754,0.09542029350996017,-0.021862680092453957,0.10749784857034683,0.11388355493545532,-0.04371760040521622,0.23485596477985382,-0.08508715033531189,-0.024798884987831116,0.09578288346529007,0.07134489715099335,0.1457035392522812,-0.06882265955209732,-0.11260100454092026,0.14629818499088287,-0.008652565069496632,0.13696277141571045,0.016219137236475945,0.039885591715574265,0.1480407565832138,-0.10733635723590851,-0.08266910165548325,0.07264719903469086,-0.22571465373039246,0.08288007974624634,-0.004355134442448616,-0.17755816876888275,0.10979362577199936,-0.1473752111196518,0.14514602720737457,-0.15345823764801025,-0.0013609499437734485,-0.05169794708490372,0.2235223650932312,0.0016087769763544202,0.21353068947792053,-0.06645117700099945,-0.04230749234557152,-0.21071982383728027,-0.05972128361463547,0.17299264669418335,0.07347992062568665,-0.05420917645096779,0.050802603363990784,-0.015073093585669994,0.17405439913272858,0.10757993906736374,-0.2014521211385727,0.05125366151332855,-0.07075929641723633,-0.20138055086135864,0.0840301588177681,0.10990920662879944,-0.23149536550045013,0.13876338303089142,-0.09828121960163116,-0.1394585520029068,0.1775951087474823,-0.051475752145051956,0.07401450723409653,-0.2752014100551605,0.12189200520515442,-0.030881622806191444,-0.28144970536231995,0.04308845102787018,0.12781010568141937,-0.21967992186546326,-0.03306709975004196,-0.1284714788198471,0.07116449624300003,0.10445808619260788,-0.11930935829877853,0.20297519862651825,-0.04218657314777374,-0.2570984363555908,0.06728438287973404,-0.0748390257358551,0.23724070191383362,-0.011087686754763126,0.0841749757528305,-0.16533145308494568,0.20192129909992218,0.04937766492366791,0.3529450297355652,-0.16682139039039612,-0.13203907012939453,-0.18433071672916412,0.1944132000207901,-0.08398061245679855,0.3659369647502899,-0.0613851398229599,-0.1373538076877594,-0.26466357707977295,0.2273109406232834,-0.0849783793091774,-0.2617998421192169,0.17097970843315125,-0.08100996166467667,-0.16380509734153748,0.18217000365257263,0.12222445011138916,-0.3335530161857605,0.25050830841064453,-0.052646785974502563,-0.09502869844436646,-0.020374251529574394,-0.08859691023826599,0.29278722405433655,-0.22064533829689026,-0.0993867889046669,0.030780205503106117,-0.024918848648667336,-0.009359043091535568,-0.09857669472694397,0.034342627972364426,-0.01894952543079853,-0.05491310730576515,-0.0766633003950119,0.03143664076924324,-0.0034343968145549297,-0.04559769108891487,0.002616000594571233,-0.024525171145796776,0.00049772480269894,-0.05998653918504715,-0.05888799950480461,0.36181947588920593,-0.2434604912996292,0.9103948473930359,-0.5878258347511292,0.08409568667411804,1.095321774482727,1.1621794700622559,-0.4698803126811981,0.27055835723876953,0.018687570467591286,-0.5153738260269165,-0.6762139797210693,0.11761487275362015,-0.7159810066223145,0.1966647356748581,0.402073472738266,-0.007459875196218491,0.1702709048986435,0.06173316761851311,0.28054875135421753,0.5020678639411926,0.050120677798986435,0.1734655350446701,-0.12354984879493713,-0.07376790046691895,-0.12445028871297836,-0.18436692655086517,-0.36490747332572937,0.011639033444225788,0.08083517849445343,0.0022700002882629633,-0.04004538059234619,0.07442336529493332,-0.06902074813842773,-0.49640387296676636,0.09779614210128784,-0.062014658004045486,-0.44892191886901855,-0.336631178855896,0.04740266129374504,-0.23800209164619446,0.13507671654224396,0.09011489897966385,0.5281879305839539,-0.01713940128684044,0.06984862685203552,0.06372909992933273,0.10885415226221085,0.11364462971687317,0.12823373079299927,-0.03771986812353134,0.26341870427131653,0.052679091691970825,-0.24925071001052856,0.03730874881148338,-0.2825944423675537,-0.07746937870979309,-0.24595443904399872,0.0579662062227726,-0.08167552947998047,0.14149914681911469,0.31579434871673584,-0.03348948806524277,-0.16610805690288544,0.1260187178850174,-0.04365314170718193,-0.06798142194747925,-0.14469720423221588,-0.030220896005630493,0.012681642547249794,0.020787907764315605,0.08273052424192429,-0.23647260665893555,-0.024775594472885132,-0.007973273284733295,0.054029036313295364,0.12699897587299347,0.22101688385009766,-0.1512993574142456,-0.07479002326726913,-0.030350638553500175,-0.18737836182117462,-0.25463277101516724,0.22213508188724518,0.2683115303516388,0.05435368791222572,0.2254420667886734,-0.2827008366584778,-0.0390569306910038,0.12694726884365082,-0.2636716365814209,0.3799072802066803,-0.08777020126581192,0.20187798142433167,-0.16783922910690308,-0.024088799953460693,-0.14907637238502502,-0.0162898488342762,0.21951021254062653,0.07062263041734695,0.26296383142471313,0.4409567415714264,0.29646939039230347,-0.006047538947314024,0.2559337913990021,0.019413283094763756,-0.24874673783779144,-0.32992225885391235,-0.24005477130413055,-0.16791707277297974,0.059598926454782486,0.09934811294078827,0.10751775652170181,0.004707183688879013,0.15288196504116058,0.17696033418178558,-0.022861074656248093,-0.28320565819740295,0.1216282770037651,-0.003756831167265773,0.06441421061754227,-0.30189135670661926,-0.271851122379303,0.3296578526496887,0.1114463061094284,-0.13750441372394562,-0.004301582928746939,-0.3140822947025299,0.325003445148468,0.013169815763831139,0.2246433049440384,-0.19311894476413727,-0.19150015711784363,0.20391733944416046,0.23130342364311218,-0.004199972376227379,0.10195332020521164,-0.23277226090431213,0.09225108474493027,-0.2647475302219391,-0.10230642557144165,-0.07666425406932831,-0.14236494898796082,0.06176067516207695,-0.2784750163555145,-0.10112211853265762,-0.27261999249458313,-0.43092817068099976,-0.2009168565273285,-0.20210400223731995,-0.19950677454471588,0.19567625224590302,-0.13581505417823792,0.03516138717532158,0.4144871234893799,0.3673486113548279,0.18130625784397125,-0.23536081612110138,0.2817501127719879,0.2116420567035675,-0.1986311972141266,0.0839080959558487,0.24704419076442719,-0.232426255941391,-0.3351953327655792,0.06363051384687424,0.2269538938999176,-0.048926159739494324,0.06329049915075302,0.17301557958126068,0.2044695019721985,0.05426851660013199,0.02339767850935459,0.14998941123485565,0.024406569078564644,0.05493513122200966,0.017262689769268036,0.31424087285995483,-0.3298397660255432,0.04248008877038956,-0.24231967329978943,-0.29199376702308655,0.1674327403306961,0.1645144820213318,-0.007101892493665218,-0.098118856549263,-0.019269758835434914,0.0889773964881897,-0.45918533205986023,0.12656089663505554,0.19862128794193268,0.39092984795570374,0.09047562628984451,-0.26873889565467834,0.18100544810295105,0.029842045158147812,0.2445870339870453,-0.04282691702246666,-0.004584891255944967,-0.18047845363616943,-0.0091588469222188,-0.22116591036319733,-0.11953960359096527,-0.27257075905799866,0.2756524384021759,0.15382932126522064,-0.4079418182373047,-0.3262517750263214,-0.20939907431602478,-0.11931818723678589,0.15333610773086548,0.009424662217497826,0.07070918381214142,-0.15232662856578827,0.03226545453071594,0.19711829721927643,0.3239324986934662,0.07004605978727341,-0.018528934568166733,0.04957803338766098,0.8211054801940918,-0.23395691812038422,-0.12056925147771835,-0.0627896711230278,-0.05620906874537468,-0.15082697570323944,-0.14118267595767975,0.2174273133277893,-0.07618293166160583,0.1821410059928894,0.23923954367637634,0.13609398901462555,-0.028866838663816452,-0.09676714986562729,-0.02458752691745758,-0.011104976758360863,-0.05531414598226547,-0.0319167897105217,-0.06589353829622269,0.10554149001836777,-0.04248637706041336,0.18474052846431732,-0.06823024153709412,-0.06781546771526337,0.2786744236946106,0.021840164437890053,0.3048234283924103,-0.0009104783530347049,-0.27568259835243225,0.0687645897269249,-0.15261346101760864,0.025574123486876488,0.2113208770751953,0.2561988830566406,-0.2576550245285034,-0.11956235021352768,0.16640645265579224,0.3014412820339203,0.35168713331222534,0.03637249767780304,0.0574222058057785,0.314971923828125,-0.09185530245304108,0.2254074662923813,-0.029421214014291763,-0.268105685710907,-0.12998029589653015,-0.684337317943573,0.08758115023374557,0.07199665904045105,0.012600901536643505,-0.053352151066064835,0.05999092012643814,-0.10045098513364792,0.2292802333831787,-0.10073298960924149,-0.12833084166049957,-0.08453230559825897,0.23825694620609283,-0.02156597003340721,0.05946015939116478,-0.29330453276634216,0.09746655076742172,0.08208650350570679,0.023208461701869965,0.06779289990663528,0.10562394559383392,-0.1586124449968338,-0.22727860510349274,0.024676483124494553,-0.14456245303153992,0.07985571771860123,-0.24634042382240295,0.19476407766342163,-0.3559253215789795,-0.23200413584709167,0.22375014424324036,-0.16527022421360016,-0.027611562982201576,0.23019370436668396,-0.10891328006982803,-0.1888885349035263,0.17298687994480133,0.2990477979183197,0.10956846922636032,-0.2697252035140991,-0.34180787205696106,-0.24838787317276,0.16217853128910065,0.17274409532546997,0.08768611401319504,-0.49232345819473267,0.07283471524715424,-0.18802012503147125,0.11682919412851334,0.14118541777133942,0.271323025226593,-0.20281217992305756,-0.18361833691596985,-0.2595200836658478,0.37483254075050354,-0.3350179195404053,-0.2669965326786041,0.17331144213676453,-0.38648802042007446,-0.17251019179821014,0.026350194588303566,-0.16201089322566986,0.04937535151839256,-0.10432765632867813,-0.33146610856056213,-0.08206399530172348,0.10549241304397583,0.23079991340637207,0.19099266827106476,-0.18767192959785461,0.11835364997386932,-0.19195137917995453,0.40690991282463074,-0.38984015583992004,-0.07251160591840744,-0.018910212442278862,-0.24914486706256866,0.04435478150844574,0.11894529312849045,-0.3953486979007721,0.04449153691530228,-0.17939944565296173,-0.17724581062793732,-0.21783916652202606,-0.04787297174334526,0.11732383072376251,-0.24790948629379272,0.023273896425962448,-0.01757439412176609,0.11888983100652695,-0.1129014790058136,0.33467957377433777,-0.17228847742080688,0.03120645135641098,-0.1839078813791275,0.28774648904800415,-0.01166986208409071,0.22138088941574097,-0.018709000200033188,-0.28746023774147034,-0.08020085841417313,0.09198294579982758,-0.17254863679409027,-0.15909622609615326,-0.13429708778858185,0.37962788343429565,-0.2666164040565491,0.4274004101753235,0.3347572088241577,-0.016570398584008217,0.11257530003786087,-0.19266921281814575,-0.17814043164253235,-0.10263675451278687,-0.04381265863776207,0.03557960316538811,-0.16639147698879242,-0.05625476315617561,0.035487085580825806,-0.152821347117424,-0.043157946318387985,0.10747499763965607,0.16327734291553497,0.00021592325356323272,-0.18202893435955048,0.009650732390582561,0.11825824528932571,-0.05071699991822243,-0.08780533820390701,-0.04781080782413483,-0.039104338735342026,-0.20631489157676697,0.03697574883699417,0.134054034948349,0.1186046451330185,0.026373472064733505,0.05481790378689766,-0.11662615090608597,-0.04496200010180473,0.1152203157544136,-0.02944036014378071,0.039740923792123795,-0.07985065877437592,-0.0382852740585804,0.10010603815317154,0.0019879715982824564,0.06719748675823212,-0.2513423562049866,-0.27074259519577026,-0.12257070094347,0.22232383489608765,0.024950537830591202,-0.144832044839859,0.21694888174533844,-0.3135288655757904,-0.2438487559556961,-0.004841372836381197,-0.24999037384986877,-0.13114136457443237,0.14956307411193848,-0.35294875502586365,-0.1658593714237213,0.0664750412106514,0.05280167609453201,0.2059147208929062,0.13441875576972961,-0.021851401776075363,-0.20450431108474731,-0.178937166929245,-0.0892055556178093,0.18394631147384644,0.09466913342475891,0.07158422470092773,-0.24046780169010162,-0.32798370718955994,0.09092925488948822,0.07334758341312408,-0.23086147010326385,-0.07248266041278839,-0.043079886585474014,-0.04435640573501587,-0.18251052498817444,0.07991790026426315,0.11719860136508942,-0.03745199367403984,-0.031185325235128403,0.05324656516313553,-0.2118874490261078,0.06325846165418625,0.22432821989059448,-0.02071339078247547,-0.20322123169898987,-0.047908030450344086,0.10686619579792023,-0.040674906224012375,0.2193412035703659,0.24722498655319214,-0.1480139046907425,-0.09573005139827728,0.08464676141738892,0.03145192936062813,-0.10905223339796066,-0.23034143447875977,0.13218912482261658,-0.18876859545707703,0.20225442945957184,-0.1261729598045349,-0.14929944276809692,-0.10369350761175156,-0.028767555952072144,-0.001119262888096273,0.13669131696224213,-0.040098611265420914,-0.01632997952401638,-0.31747162342071533,-0.13535986840724945,-0.024793775752186775,0.05732036381959915,0.14328747987747192,0.0968904122710228,-0.1638140082359314,0.054701291024684906,-0.01876842975616455,-0.1376340240240097,0.055724453181028366,0.11697744578123093,-0.12247814238071442,-0.10278339684009552,-0.12767294049263,-0.05149099975824356,0.09528890997171402,-0.12341804057359695,0.06747695803642273,-0.12477829307317734,0.027137283235788345,0.09154664725065231,0.13931694626808167,0.07692761719226837,0.102147676050663,0.06127786636352539,0.043703023344278336,0.0467807836830616,-0.08592365682125092,-0.09523537755012512,0.050851862877607346,0.0006225166725926101,0.1569206565618515,-0.2526404559612274,-0.007810227107256651,0.24059800803661346,-0.1823635697364807,-0.43669039011001587,0.06020709499716759,0.043265536427497864,-0.05138900876045227,0.11385829746723175,-0.14590883255004883,-0.22562089562416077,-0.10865511000156403,0.11024469882249832,0.14256222546100616,0.05356469750404358,-0.202871635556221,0.03241226077079773,-0.20673204958438873,-0.24224795401096344,0.02302776463329792,0.21250857412815094,-0.324184775352478,-0.0559447817504406,0.2837875485420227,-0.07865777611732483,0.1384689062833786,0.31678956747055054,-0.18613053858280182,0.03041057102382183,0.22708161175251007,0.3031894266605377,-0.08782201260328293,-0.31117013096809387,-0.11967276781797409,-0.1839260756969452,0.15990935266017914,0.2754032611846924,-0.1475273221731186,-0.1538911610841751,0.08299923688173294,0.07525978237390518,0.17891880869865417,0.3436961770057678,0.04126816987991333,-0.12771987915039062,-0.025375500321388245,-0.0009100557654164732,0.35347071290016174,0.017661765217781067,-0.11335702985525131,0.17992651462554932,-0.05061103031039238,0.32298535108566284,0.22025500237941742,0.07612588256597519,-0.07027886062860489,0.11437494307756424,-0.2539275884628296,0.1204652339220047,0.04844144731760025,0.16176088154315948,0.07101083546876907,-0.22146925330162048,0.07296133786439896,0.20928312838077545,0.21841935813426971,-0.11878786236047745,-0.07733435928821564,-0.05587329342961311,-0.014058589935302734,0.002496580360457301,0.2097829431295395,0.06311081349849701,-0.0714612752199173,-0.09673241525888443,-0.12399578094482422,0.058412179350852966,-0.04300922527909279,0.2615762948989868,0.2576351463794708,0.13230881094932556,0.1667896807193756,0.038381192833185196,0.11110562831163406,0.026623645797371864,0.17502570152282715,-0.023839691653847694,0.00969349592924118,-0.2029285728931427,-0.03201381862163544,0.15090429782867432,0.0817122608423233,-0.16837279498577118,-0.3239290118217468,-0.3981700837612152,0.2206466943025589,-0.15659017860889435,0.012435472570359707,0.1533578485250473,1.0548601150512695,0.9177890419960022,-0.06364987045526505,0.17927344143390656,0.2950107753276825,0.030083749443292618,0.036696657538414,0.1950761079788208,0.07722675055265427,-0.2702488601207733,-0.03745117038488388,-0.004244388081133366,0.01169725600630045,0.02836695872247219,0.17678186297416687,0.09811405092477798,-0.04624902084469795,-0.044790782034397125,-0.1779521256685257,-0.024643251672387123,0.07572077214717865,-0.14713804423809052,-0.11050638556480408,-0.08994913846254349,-0.12009134888648987,-0.2857252061367035,-0.22105225920677185,0.20700646936893463,-0.0634877160191536,-0.010885135270655155,-0.06197511404752731,-0.030956823378801346,0.011513670906424522,0.11742636561393738,-0.05741175264120102,-0.00044372325646691024,-0.05347437784075737,0.006296818144619465,0.22562427818775177,0.08558996766805649,0.04945669323205948,-0.1853918582201004,0.1532800942659378,-0.04569321125745773,0.015964627265930176,0.10810773074626923,-0.007874730043113232,0.25118711590766907,-0.6449616551399231,-0.1036330908536911,0.0006669670110568404,-0.28877347707748413,-0.07773864269256592,-0.17449933290481567,-0.021476026624441147,-0.028561903163790703,0.05679795518517494,0.1528988629579544,0.06765363365411758,0.14710675179958344,0.15644574165344238,0.6087177991867065,-0.14687637984752655,-0.09184112399816513,-0.4048914313316345,-0.045115791261196136,0.1499290019273758,-0.00946810469031334,0.31477898359298706,0.13252414762973785,-0.1124902069568634,0.026983162388205528,0.14238595962524414,-0.059452105313539505,0.057723045349121094,-0.05276826396584511,0.38008031249046326,-0.21024106442928314,0.09104009717702866,-0.014882701449096203,0.16877788305282593,-0.12262377142906189,0.11054220795631409,-0.14201904833316803,0.05897039920091629,-0.6379913091659546,0.4145969748497009,-0.056924089789390564,0.19188059866428375,-0.24011249840259552,0.11464807391166687,-0.3050059974193573,0.1754399687051773,0.07573659718036652,0.0009621910285204649,0.2590567469596863,-0.07391873002052307,-0.23444528877735138,0.2692403197288513,0.005054006818681955,-0.1348647177219391,-0.07772786915302277,0.17539319396018982,-0.08777616918087006,0.1479150503873825,-0.08564304560422897,0.3180413544178009,-0.2730746865272522,0.04141898453235626,0.27464738488197327,-0.0157540924847126,-0.05200214311480522,0.12111525237560272,0.08469697088003159,-0.09385685622692108,-0.08944263309240341,-0.1712179332971573,-0.036267466843128204,0.026744863018393517,-0.1828291118144989,0.07366086542606354,0.007086858153343201,-0.10192002356052399,-0.19715994596481323,0.014643983915448189,0.18951205909252167,0.16022618114948273,-0.053195200860500336,0.1066836416721344,-0.177033931016922,0.16412341594696045,0.32418158650398254,0.1621740162372589,-0.04086390882730484,-0.08869668841362,-0.09686989337205887,-0.1342909187078476,0.1350189745426178,-0.06337472796440125,-0.0035841185599565506,-0.011341341771185398,-0.08339832723140717,0.02642791159451008,-0.1363314986228943,0.34503334760665894,-0.571338951587677,-0.25783976912498474,-0.04037000611424446,0.043983131647109985,0.027307329699397087,-0.009475430473685265,-0.12961500883102417,-0.004787623882293701,-0.25851041078567505,0.06830263882875443,-0.06298330426216125,0.1349414736032486,0.14952684938907623,-0.07959675043821335,-0.08209490031003952,-0.031424082815647125,-0.2252238243818283,0.3045959174633026,0.1523221880197525,0.09511754661798477,-0.13960784673690796,-0.06898929923772812,-0.08961793035268784,0.06971374899148941,0.00027389006572775543,-0.15237201750278473,-0.09388578683137894,-0.04360589012503624,0.06598743796348572,0.25288254022598267,0.22434790432453156,0.15637879073619843,-0.17501802742481232,-0.010805545374751091,0.1419384479522705,0.06564439833164215,0.31864306330680847,0.2361554354429245,-0.4980493485927582,-0.3251277804374695,-0.0512458011507988,0.23563359677791595,0.08848068863153458,-0.10363425314426422,0.3471411466598511,-0.027296151965856552,-0.2929379642009735,0.24611960351467133,0.1966162472963333,-0.07540779560804367,0.17359422147274017,0.09888366609811783,0.09109577536582947,0.40557974576950073,0.29036566615104675,0.0816567987203598,-0.3145802617073059,-0.518193244934082,-0.24666941165924072,-0.0871599018573761,-0.030502166599035263,-0.1705782562494278,0.038167212158441544,-0.2318548709154129,-0.03135811910033226,-0.3743484616279602,-0.035693779587745667,0.18083032965660095,-0.11769377440214157,-0.09316714853048325,0.023576557636260986,-0.12179214507341385,-0.20260989665985107,-0.13188129663467407,0.12562298774719238,0.33187630772590637,-0.09197481721639633,-0.14432348310947418,-0.13017503917217255,0.24575375020503998,0.28002530336380005,0.29992949962615967,-0.07175038754940033,0.4316198527812958,-0.059167247265577316,0.23127414286136627,-0.0783739686012268,0.21434682607650757,-0.23559552431106567,-0.01103131752461195,0.013203883543610573,0.15465041995048523,-0.329268217086792,-0.24141055345535278,0.14191122353076935,-0.281870037317276,-0.47120487689971924,0.18804660439491272,0.030142687261104584,0.13305306434631348,-0.010265088640153408,-0.04157666489481926,-0.09341371059417725,-0.0750628262758255,-0.2600628435611725,0.034017570316791534,-0.11680397391319275,0.16104957461357117,0.07476374506950378,-0.20681534707546234,0.2149105966091156,0.05937103554606438,0.02207718975841999,0.15207839012145996,-0.038745492696762085,-0.12324721366167068,-0.006573833059519529,-0.016067136079072952,-0.05322497710585594,0.2419969141483307,-0.04982100427150726,-0.08863784372806549,-0.14564701914787292,-0.059536710381507874,0.1320124715566635,0.016071900725364685,-0.22272390127182007,-0.013897659257054329,-0.1401878297328949,0.03182907775044441,0.13243542611598969,-0.5691888332366943,-0.11241111904382706,0.04545511305332184,-0.15597602725028992,0.12174224108457565,-0.024117469787597656,0.03213568031787872,-0.019858820363879204,0.0942181870341301,0.2805292010307312,-0.20326460897922516,-0.2167644053697586,-0.24525149166584015,-0.36623668670654297,-0.4069398045539856,-0.2109120786190033,-0.10667309910058975,-0.13289065659046173,0.03623270243406296,-0.13904067873954773,-0.08303610980510712,0.20672480762004852,0.10654450953006744,-0.07147978991270065,-0.07496631890535355,0.3692513704299927,-0.023618513718247414,0.11871876567602158,-0.2262783944606781,0.05819348618388176,0.1095932126045227,-0.2576761841773987,0.13865700364112854,-0.02848454937338829,-0.16526444256305695,0.0604398138821125,-0.006637136451900005,-0.18946968019008636,0.062180619686841965,-0.11341816931962967,0.31443217396736145,-0.20560632646083832,0.043323416262865067,0.023251507431268692,0.1140405535697937,0.0587444044649601,0.2561730742454529,-0.13181713223457336,0.3024798035621643,-0.5129704475402832,0.4211282730102539,-0.03423468396067619,0.016134459525346756,0.002150381915271282,0.15119677782058716,-0.2287215292453766,0.1367524415254593,0.10512103885412216,-0.02795650064945221,0.037237316370010376,0.027631331235170364,-0.2690613269805908,0.06369725614786148,0.10898012667894363,0.17273414134979248,-0.018208229914307594,0.20274996757507324,-0.06343673914670944,-0.048466477543115616,-0.24513669312000275,0.18178285658359528,-0.12902800738811493,-0.27626973390579224,-0.2804863452911377,-0.002520065288990736,-0.11448726058006287,0.2876502573490143,-0.04882105067372322,-0.27507445216178894,0.05801660567522049,-0.08073967695236206,-0.15081793069839478,-0.030809646472334862,-0.09590759128332138,-0.11529102176427841,0.11175384372472763,-0.06728588789701462,0.4029877483844757,-0.05279999226331711,0.09199077636003494,-0.10172349214553833,0.16743388772010803,0.04750979319214821,0.27794015407562256,0.0374373160302639,0.03820224851369858,0.04070279374718666,0.12287037819623947,-0.11972007155418396,0.17619290947914124,-0.04508471488952637,0.13585899770259857,-0.23101484775543213,0.2255234718322754,0.09399683773517609,-0.17455783486366272,-0.09390049427747726,0.019120940938591957,0.2989729344844818,0.1378282904624939,-0.052129391580820084,-0.11634278297424316,-0.06487848609685898,-0.06932687014341354,-0.3324353098869324,-0.10789521783590317,-0.2723332941532135,0.21389050781726837,-0.12434227764606476,0.241225466132164,-0.08745109289884567,0.165422722697258,-0.1807708740234375,0.031177029013633728,0.05920238420367241,0.1036730706691742,-0.04617463797330856,0.08835979551076889,0.15210331976413727,-0.027496250346302986,0.0587000846862793,-0.041703324764966965,-0.10855971276760101,-0.018247393891215324,0.05476146936416626,-0.0026789894327521324,-0.18674658238887787,-0.09569224715232849,-0.007976793684065342,0.13516217470169067,-0.103363536298275,0.10586728155612946,-0.18803735077381134,-0.2066589742898941,0.10322803258895874,0.008774273097515106,0.06895692646503448,-0.08667900413274765,0.07841978967189789,0.11882804334163666,0.0702500268816948,0.2585879862308502,-0.09122727811336517,-0.06270267069339752,-0.013252605684101582,0.04193427413702011,-0.07630807906389236,-0.34639278054237366,0.23163756728172302,0.03560958802700043,0.1697807013988495,-0.04645403102040291,-0.007436693180352449,-0.08085260540246964,0.14758449792861938,-0.010804975405335426,0.13516847789287567,-0.016804324463009834,-0.03492729365825653,0.1600814312696457,0.06650085747241974,0.12006618827581406,-0.08400051295757294,-0.04237372800707817,0.3403047025203705,0.10479719191789627,-0.05163118243217468,-0.03963293507695198,0.325110524892807,0.14557576179504395,0.08686584234237671,0.061273954808712006,0.012679724022746086,-0.07027629762887955,-0.8870469927787781,0.4098166227340698,0.2788689434528351,-0.29786956310272217,0.21156111359596252,-1.2884602546691895,-0.22477295994758606,-0.2706677317619324,0.49524858593940735,-0.5701457858085632,-0.5214295983314514,-1.0003365278244019,0.3135077655315399,-0.9179073572158813,0.5063737630844116,-0.9176748394966125,-0.34850433468818665,-0.04670698940753937,0.2675187289714813,0.2617768943309784,0.3403746485710144,-0.09970114380121231,-0.16894999146461487,0.01821041665971279,-0.16684192419052124,-0.31586965918540955,-0.01700018346309662,0.14163444936275482,0.2181020975112915,0.10176139324903488,-0.026424406096339226,0.08702189475297928,0.6623960137367249,0.14037565886974335,-0.04915890097618103,-0.4102223515510559,-0.23403218388557434,0.25666147470474243,-0.03757219761610031,-0.027369070798158646,0.2523195445537567,-0.09955409169197083,-0.18051697313785553,0.33153536915779114,-0.19227856397628784,0.44163790345191956,0.13097453117370605,0.2979657053947449,-0.2140113264322281,-0.2946748435497284,-0.16241350769996643,0.4538120627403259,-0.004829500801861286,0.15322114527225494,-0.19377189874649048,-0.14057868719100952,-0.21541932225227356,0.21785308420658112,-0.11501268297433853,-0.28283441066741943,0.13099226355552673,0.011218490079045296,0.08250708878040314,0.03684720769524574,0.13214907050132751,0.18178419768810272,-0.24335892498493195,-0.06034908816218376,-0.24598458409309387,-0.08766336739063263,-0.09905380010604858,-0.0439487062394619,-0.2853160500526428,-0.027585718780755997,0.08506657183170319,0.2200077325105667,0.11877977102994919,-0.23342172801494598,0.012920146808028221,-0.017307991161942482,0.1558355689048767,0.24827392399311066,-0.049368664622306824,-0.15073654055595398,0.1591188609600067,-0.001941534224897623,0.012675857171416283,0.2851291596889496,0.27759355306625366,0.033729277551174164,-0.3233132064342499,0.29616865515708923,0.01949355937540531,0.08251307904720306,-0.20889249444007874,-0.14757579565048218,-0.6121529936790466,-0.21464748680591583,-0.2812877297401428,-0.08049774914979935,-0.06303692609071732,-0.24118675291538239,-0.06933523714542389,-0.19550590217113495,-0.12988293170928955,0.04038116708397865,0.06832819432020187,-0.2994389235973358,-0.12474536150693893,-0.31862854957580566,0.022175975143909454,0.1286291778087616,0.4068657457828522,0.05965308099985123,0.12106766551733017,-0.2639537751674652,0.09733571857213974,0.388845831155777,-0.20846609771251678,-0.022002285346388817,-0.01821422390639782,0.08653286844491959,-0.24851363897323608,0.18349182605743408,-0.13313281536102295,-0.03219594806432724,-0.02053503878414631,0.1506131887435913,0.019637713208794594,0.020737290382385254,0.009559322148561478,-0.03947926312685013,0.1280200332403183,-0.09285605698823929,0.031354401260614395,0.08160161972045898,-0.05550451949238777,0.09268202632665634,-0.27092862129211426,0.031762924045324326,-0.1772477775812149,0.07439647614955902,0.11869572103023529,0.17063981294631958,0.07239648699760437,-0.06391491740942001,-0.20532970130443573,-0.031731557101011276,-0.20962795615196228,-0.18474161624908447,-0.13036160171031952,-0.2004200667142868,-0.04525115340948105,0.14771905541419983,0.4322509467601776,-0.17377173900604248,0.15221737325191498,0.04767538234591484,-0.1490086317062378,0.23485501110553741,-0.1090669110417366,0.04356458783149719,-0.017406471073627472,-0.01522199995815754,0.08269081264734268,-0.320173442363739,0.24370308220386505,0.04311612620949745,-0.017255792394280434,-0.03487695753574371,0.07258900254964828,0.22180528938770294,0.13176988065242767,0.1871575266122818,0.10988801717758179,-0.05379921570420265,0.06476857513189316,-0.3207785189151764,-0.14816820621490479,0.3899685740470886,0.10627111792564392,-0.36131152510643005,-0.14895470440387726,-0.08776489645242691,0.5115974545478821,0.6152070760726929,-0.12825126945972443,0.3627365231513977,0.5121886134147644,0.2978631556034088,-0.0795784741640091,-0.09277281910181046,0.18467187881469727,0.3511829376220703,-0.19166260957717896,-0.18883031606674194,-0.23630817234516144,0.16829141974449158,0.017340200021862984,0.06115208938717842,-0.27832257747650146,0.13804367184638977,0.18211719393730164,-0.20226497948169708,-0.0765170305967331,-0.31213945150375366,0.24366644024848938,0.013739368878304958,-0.17938922345638275,-0.33139315247535706,-0.2873137295246124,0.37267911434173584,-0.10195662081241608,-0.0033768960274755955,-0.25727251172065735,-0.03994818404316902,-0.1421004682779312,0.13549266755580902,0.08354761451482773,-0.23972424864768982,0.36951592564582825,-0.1708836406469345,-0.1203039214015007,-0.15146033465862274,0.05941183120012283,-0.21513321995735168,-0.178334042429924,0.3422819972038269,-0.1940329223871231,-0.32346677780151367,-0.08626439422369003,-0.11603298038244247,0.5436658263206482,-0.02555399015545845,0.08519056439399719,0.12579083442687988,0.3363043963909149,0.34108439087867737,-0.07496575266122818,-0.1620865762233734,0.057702336460351944,0.2867007553577423,0.08099135756492615,0.08781015872955322,0.08251426368951797,-0.16173484921455383,0.22531771659851074,0.17170429229736328,-0.25604844093322754,0.12920553982257843,-0.2748662233352661,0.21326042711734772,-0.11212725937366486,0.032488949596881866,0.4423585832118988,0.0617956779897213,0.10971082001924515,-0.10711757093667984,-0.280811607837677,0.13010303676128387,-0.3260313868522644,-0.008179242722690105,-0.30776071548461914,-0.17863261699676514,-0.1337999701499939,0.05582212656736374,0.384758859872818,0.0292392335832119,0.023059053346514702,0.06922696530818939,-0.23302100598812103,-0.04546581953763962,-0.1942370980978012,-0.01947091892361641,-0.08866796642541885,0.019387761130928993,-0.21232236921787262,0.014863601885735989,0.16555379331111908,0.13493171334266663,0.15952540934085846,0.004171522334218025,-0.020392099395394325,-0.1973041296005249,0.06570662558078766,-0.25020477175712585,-0.06486275047063828,-0.14173589646816254,0.2936790883541107,-0.0015337499789893627,-0.23756687343120575,-0.21937569975852966,-0.24468718469142914,0.04944062605500221,0.025575120002031326,-0.24918614327907562,-0.12297520041465759,-0.07649949193000793,-0.2749074399471283,0.007913801819086075,-0.005811246577650309,0.09970106184482574,0.04736984893679619,0.45052391290664673,0.1467413455247879,-0.11879538744688034,-0.37237510085105896,-0.15287673473358154,0.15122203528881073,-0.02609531581401825,0.17475055158138275,-0.19655053317546844,0.03674960508942604,0.04771093279123306,0.11400465667247772,0.09551278501749039,0.2485492080450058,-0.05256010591983795,0.4111907482147217,0.4082712233066559,0.02621450275182724,-0.5987321734428406,-0.4145946800708771,-0.12703917920589447,0.17059339582920074,-0.17002369463443756,0.0362849235534668,0.7263516187667847,0.5515826344490051,0.16900506615638733,-0.13180123269557953,0.021700823679566383,-0.12263697385787964,0.37550148367881775,-0.15079468488693237,0.1788017600774765,0.040117476135492325,0.16904644668102264,-0.014112560078501701,0.17100660502910614,-0.4186975955963135,-0.21189817786216736,0.29264259338378906,0.09211938083171844,0.016298729926347733,0.09885916858911514,-0.212671160697937,-0.016743745654821396,0.06938791275024414,-0.21157322824001312,0.13520346581935883,0.09309379756450653,0.33234038949012756,-0.33716467022895813,0.1909613013267517,-0.4463261365890503,0.030731776729226112,-0.21523016691207886,0.06414288282394409,0.06424735486507416,0.22184693813323975,-0.08741603791713715,-0.258952260017395,-0.09314492344856262,0.25266411900520325,0.1394500732421875,0.42948824167251587,0.3267321288585663,-0.07245498150587082,0.06825524568557739,-0.5674700736999512,0.17406567931175232,0.12570682168006897,0.1931343525648117,-0.22483381628990173,0.14592543244361877,0.3301183879375458,-0.21775665879249573,-0.22076016664505005,-0.04817098751664162,0.4815825819969177,0.29704082012176514,-0.028042079880833626,-0.16658857464790344,0.02592642605304718,0.08819179981946945,0.02316373586654663,-0.14206869900226593,-0.137027308344841,-0.043759237974882126,-0.0622241236269474,0.07012148946523666,0.24469409883022308,-0.33894869685173035,0.03290550038218498,0.21487325429916382,-0.010567772202193737,-0.24086371064186096,0.04021665081381798,0.24120043218135834,0.08083125948905945,-0.12500418722629547,-0.11544244736433029,0.05474698916077614,0.17389541864395142,0.22560349106788635,0.08863494545221329,-0.14530286192893982,-0.20148402452468872,-0.023450853303074837,0.14644083380699158,0.25478795170783997,0.13767866790294647,-0.23697936534881592,-0.5121325254440308,0.11204744130373001,0.21848972141742706,0.042272187769412994,0.1060275062918663,0.12984636425971985,-0.06588707864284515,0.1073562428355217,0.2406211793422699,-0.3969046175479889,-0.09331098943948746,0.35495737195014954,0.31188836693763733,-0.15426020324230194,-0.24206657707691193,-0.29598554968833923,-0.05160054564476013,0.3682974576950073,-0.3524002432823181,0.047022897750139236,0.14704923331737518,0.2615562081336975,0.04141668602824211,0.15335042774677277,0.22311842441558838,0.19304075837135315,-0.09453852474689484,0.295883446931839,0.04057227447628975,-0.017423879355192184,0.3688352704048157,0.01541098766028881,0.16728100180625916,-0.28418293595314026,0.08986970037221909,0.06769167631864548,0.413313627243042,0.04743020236492157,-0.028367631137371063,-0.07289372384548187,0.12614935636520386,0.15855790674686432,0.018754122778773308,-0.07078909873962402,-0.03298074007034302,-0.2385430932044983,-0.03251844644546509,-0.128901869058609,0.0425301268696785,0.15006674826145172,0.13682620227336884,0.5185245871543884,-0.24676449596881866,0.02762790024280548,0.07644391059875488,-0.0019120050128549337,-0.14510095119476318,-0.14738114178180695,-0.02215430699288845,0.1494981199502945,-0.09293391555547714,-0.07703780382871628,0.4546836018562317,0.04417726397514343,0.018866149708628654,0.08168129622936249,0.09102361649274826,-0.1124475821852684,-0.08718350529670715,-0.0532536655664444,0.02939632721245289,0.13903620839118958,0.04322314262390137,0.13186295330524445,-0.05046262592077255,-0.056875381618738174,-0.07723130285739899,-0.14062830805778503,-0.13038282096385956,-0.011341634206473827,0.09170898050069809,-0.027353061363101006,0.17517034709453583,-0.22745750844478607,-0.21367639303207397,-0.14832758903503418,0.14331285655498505,-0.045853227376937866,-0.053069017827510834,0.035864636301994324,-0.01197925116866827,-0.21055324375629425,0.05545860528945923,0.05520132556557655,0.04302540794014931,0.0682980865240097,-0.08579111844301224,-0.2146240770816803,0.18205377459526062,0.11867700517177582,0.15399661660194397,-0.3587743639945984,-0.06132519617676735,0.0530538447201252,-0.09285898506641388,0.013538080267608166,-0.21176733076572418,0.2489233762025833,-0.04691486805677414,-0.17488685250282288,0.19043348729610443,0.2069465070962906,-0.022865815088152885,-0.039042793214321136,0.05009164288640022,-0.1519671380519867,-0.3567538261413574,0.10888891667127609,0.07031912356615067,-0.03843022510409355,0.06104879081249237,0.028100235387682915,-0.16020841896533966,-0.007359874900430441,-0.10260472446680069,-0.05668006092309952,-0.17895469069480896,-0.03969084843993187,0.16778744757175446,-0.17468135058879852,-0.12780562043190002,0.07927074283361435,-0.07700802385807037,0.22453653812408447,-0.0036277936305850744,-0.25325533747673035,-0.07374530285596848,0.15644052624702454,0.2756352424621582,0.021358346566557884,-0.1573728621006012,-0.2878003418445587,-0.12138166278600693,0.05533392354846001,0.11315640062093735,-0.07164815068244934,-0.09205828607082367,0.3138364851474762,0.12274292856454849,-0.10171008110046387,0.15530365705490112,-0.0175642017275095,-0.22606131434440613,-0.10182047635316849,-0.06513752788305283,-0.1050088182091713,-0.10891897231340408,0.05562426894903183,0.15799783170223236,0.29971620440483093,0.000013436949302558787,-0.1852743923664093,-0.18976619839668274,-0.07454176247119904,0.060879819095134735,0.24761110544204712,-0.0926167443394661,-0.09502986818552017,0.042275864630937576,-0.031310006976127625,0.01721465401351452,0.022756578400731087,0.12251098453998566,0.09246990084648132,0.18129383027553558,-0.11970014870166779,-0.11798900365829468,-0.3662465512752533,0.25060656666755676,0.15092937648296356,0.27040836215019226,0.03486212342977524,-0.05724374204874039,0.1977131962776184,0.10516885668039322,-0.2064514011144638,-0.2189483940601349,-0.02106885425746441,0.2923780083656311,-0.09202149510383606,0.11159341037273407,-0.22027134895324707,-0.18707390129566193,0.006348231341689825,0.04361627995967865,-0.048565417528152466,-0.01691947691142559,0.009335679933428764,-0.28392308950424194,0.029655519872903824,0.32689979672431946,-0.31537309288978577,-0.2514808773994446,-0.14559540152549744,0.008411736227571964,0.03195541352033615,0.02263166941702366,-0.10319074243307114,-0.25311946868896484,-0.032394733279943466,0.2444441318511963,0.062482379376888275,-0.16065295040607452,0.15624433755874634,0.09512753039598465,0.01894458755850792,0.17569337785243988,0.3326612710952759,-0.10706868022680283,0.06940203160047531,-0.02618018537759781,0.07937023788690567,-0.1604849398136139,0.10596071928739548,0.17082086205482483,-0.044420771300792694,0.22763533890247345,-0.04127764329314232,-0.06857350468635559,0.020940545946359634,-0.03036295622587204,-0.19612765312194824,0.081830233335495,0.025623049587011337,0.0010895723244175315,-0.02331794612109661,-0.2532254159450531,-0.23276329040527344,-0.024460304528474808,-0.060472290962934494,0.4474272131919861,-0.4200516939163208,-0.01944875530898571,0.16612978279590607,0.13267308473587036,-0.08166036009788513,0.13987132906913757,0.22069647908210754,-0.04405718296766281,0.1774653196334839,-0.2387753129005432,0.045526981353759766,-0.09537505358457565,0.005889033433049917,0.20428745448589325,0.06489787250757217,-0.09333512932062149,-0.19385921955108643,0.20328111946582794,-0.5352100729942322,-0.08998683840036392,-0.5010532140731812,0.29295778274536133,-0.04089771956205368,0.05647968873381615,-0.04161311686038971,-0.1924654096364975,-0.18553707003593445,0.12859636545181274,-0.15661866962909698,-0.46332791447639465,-0.021705634891986847,-0.14646203815937042,0.7010201215744019,-0.325003057718277,0.022410258650779724,-0.28026607632637024,0.2584197223186493,0.0032393867149949074,0.08310305327177048,-0.10968416929244995,0.057444583624601364,0.1421806365251541,-0.02385019138455391,0.09999476373195648,0.058899957686662674,0.0058849528431892395,0.18133173882961273,0.29629892110824585,-0.48840081691741943,-0.18012143671512604,-0.30122533440589905,0.8063496351242065,-0.5215092301368713,0.031980086117982864,-0.0068581076338887215,-0.040549635887145996,0.45975154638290405,-0.43168115615844727,0.14141231775283813,0.13860957324504852,0.17251232266426086,-0.20659516751766205,0.11423535645008087,0.025208335369825363,-0.06557018309831619,-0.07003112882375717,-0.19069504737854004,-0.24582673609256744,-0.08912131190299988,0.11510110646486282,0.08588140457868576,-0.1104230210185051,-0.0547262579202652,0.15656223893165588,-0.10520200431346893,-0.09095760434865952,-0.13936954736709595,0.0009624054073356092,0.033497296273708344,-0.08193430304527283,-0.04757887125015259,0.00585285434499383,-0.24440377950668335,-0.16925160586833954,-0.012178932316601276,-0.03663470968604088,0.16522420942783356,-0.1153906062245369,-0.12124745547771454,-0.16048851609230042,-0.13812384009361267,0.17782193422317505,0.2413027137517929,-0.059942469000816345,-0.020772917196154594,0.20913410186767578,0.3107506036758423,0.1561795473098755,-0.14732998609542847,0.12338955700397491,-0.2459423840045929,-0.11639784276485443,0.005061025731265545,0.09835892170667648,0.05109775811433792,0.15094614028930664,0.17587123811244965,0.21408794820308685,0.09755118191242218,-0.2729889154434204,-0.14752762019634247,-0.11775469034910202,-0.16567637026309967,-0.32232117652893066,0.06954040378332138,-0.12894518673419952,0.4067113995552063,-0.16466812789440155,0.09621641784906387,0.03883877396583557,0.05514559522271156,-0.000882341933902353,0.21588477492332458,-0.11886999011039734,0.06253447383642197,0.19672895967960358,-0.18576562404632568,0.10130026191473007,-0.5498718619346619,0.16247889399528503,-0.07189469784498215,0.3045748174190521,-0.11841225624084473,-0.247319296002388,-0.09398479759693146,0.15051013231277466,0.07538998126983643,0.1193678081035614,0.08891335129737854,-0.04748645797371864,-0.17488713562488556,0.041132353246212006,0.07848035544157028,0.08411983400583267,0.40675947070121765,0.06362396478652954,0.34677717089653015,-0.545871913433075,0.0410151444375515,-0.02159183844923973,0.05150218307971954,-0.13243240118026733,-0.08451440930366516,0.2959241271018982,-0.34934672713279724,-0.16254310309886932,-0.07950067520141602,0.11278149485588074,0.01735304668545723,-0.09959696978330612,-0.19927763938903809,0.012136104516685009,-0.15162424743175507,0.2782996594905853,-0.23164349794387817,0.3009192943572998,0.09280763566493988,-0.12366682291030884,0.028305301442742348,0.2602193057537079,-0.19528523087501526,0.2363376021385193,0.09659046679735184,0.23583313822746277,0.21238501369953156,-0.09022682905197144,-0.09887580573558807,-0.5055700540542603,0.14896675944328308,-0.16545867919921875,0.33510780334472656,0.23126552999019623,0.2911931872367859,-0.16940313577651978,-0.23103640973567963,-0.39826691150665283,0.08670741319656372,-0.02113603986799717,0.10570140182971954,-0.11866063624620438,-0.23804675042629242,-0.20076487958431244,-0.01185704581439495,-0.06099950149655342,0.031174521893262863,-0.11316708475351334,0.3696599304676056,-0.21959668397903442,-0.060191910713911057,0.16723120212554932,-0.2658492624759674,0.004108566790819168,0.22706001996994019,0.2884778082370758,-0.037665825337171555,-0.19566212594509125,-0.18506315350532532,-0.08485126495361328,0.05415714159607887,-0.18419642746448517,0.09414424747228622,0.25803127884864807,0.13555125892162323,-0.24774901568889618,-0.04365416616201401,-0.21118277311325073,-0.15076977014541626,0.17343026399612427,-0.14086346328258514,-0.028492003679275513,0.21472199261188507,0.23515109717845917,0.04747873172163963,0.1440896987915039,-0.05634932219982147,0.35888242721557617,-0.13040371239185333,-0.1314002424478531,-0.11818663775920868,0.10717534273862839,0.11115270853042603,-0.07138929516077042,-0.15512892603874207,-0.015899404883384705,-0.18945232033729553,0.12612806260585785,0.06515520066022873,0.15160463750362396,-0.1751820594072342,-0.11435694247484207,-0.15106087923049927,0.09000491350889206,-0.2411929816007614,0.1200939491391182,0.2759489119052887,-0.11159367114305496,0.17497585713863373,0.11116614937782288,0.07903085649013519,-0.2005670815706253,0.18137779831886292,-0.02999516949057579,0.05304374545812607,-0.08969772607088089,0.0402987077832222,0.06446811556816101,0.28007441759109497,-0.07026958465576172,0.3502001464366913,0.08009777963161469,0.44451412558555603,-0.42993712425231934,-0.12595105171203613,0.20674890279769897,0.101276695728302,-0.1820475459098816,0.06592293828725815,-0.015116676688194275,0.19408780336380005,0.05990207940340042,0.0032202033326029778,0.2846353352069855,-0.5103368759155273,0.4506463408470154,-0.18403898179531097,0.21778957545757294,-0.2766501009464264,-0.19295652210712433,-0.06267116963863373,0.14257633686065674,0.0706166997551918,0.07633104175329208,-0.07841291278600693,-0.18705101311206818,-0.11377239227294922,0.0035807383246719837,0.23356306552886963,0.1010807454586029,-0.08090920001268387,0.030554141849279404,0.22305083274841309,0.11213164031505585,-0.0935467779636383,-0.02592981979250908,0.18053558468818665,-0.1589488387107849,-0.02447929047048092,0.10450103133916855,0.03919289633631706,-0.23511090874671936,-0.18905510008335114,0.20039796829223633,0.0473916120827198,0.024084754288196564,-0.08902670443058014,-0.10614338517189026,0.05927547439932823,-0.04017164930701256,0.06989073008298874,-0.4807835519313812,-0.02109784074127674,0.07505790889263153,-0.10793916136026382,-0.05428856238722801,-0.16953761875629425,-0.5080189108848572,0.12695355713367462,-0.1340414434671402,-0.2095979005098343,-0.16535288095474243,0.2274758368730545,0.17643915116786957,-0.2176581621170044,0.0607575848698616,-0.06168152764439583,-0.05881951376795769,-0.015497356653213501,0.1717449426651001,0.14264893531799316,0.2037651091814041,-0.16657915711402893,0.06334774941205978,0.025038117542862892,0.1476627141237259,0.17922885715961456,-0.2573409974575043,0.00946864951401949,0.19198212027549744,0.19528056681156158,-0.0017296827863901854,-0.20185400545597076,0.031931210309267044,-0.10001376271247864,-0.15324388444423676,-0.1830323040485382,-0.33391085267066956,0.16098064184188843,-0.24185416102409363,-0.24391953647136688,0.2461109757423401,0.16223402321338654,0.016472304239869118,-0.02554156817495823,0.3086565136909485,0.1945936679840088,0.3029446303844452,-0.08519740402698517,0.39683079719543457,0.06106971204280853,-0.10488127171993256,0.13954482972621918,0.15249106287956238,0.0395987369120121,0.4241406321525574,0.1297115683555603,0.20415595173835754,0.39909374713897705,0.10873502492904663,-0.04761440306901932,-0.3486365079879761,0.06595948338508606,-0.08652135729789734,0.08007178455591202,-0.06747318804264069,0.05777899548411369,-0.03902946040034294,0.07566538453102112,-0.14563682675361633,-0.06365940719842911,-0.07626300305128098,-0.031907904893159866,-0.04811627045273781,-0.01980535313487053,0.15814973413944244,0.007607335224747658,0.038184575736522675,-0.1536485105752945,0.00868953950703144,0.1116623654961586,-0.1925249844789505,0.12063952535390854,-0.011655464768409729,0.02369244396686554,0.32318103313446045,0.19276681542396545,0.3350695073604584,0.10932841897010803,-0.1802407205104828,-0.1995624601840973,-0.1055147647857666,0.23299703001976013,0.18575745820999146,0.01595124788582325,-0.015600870363414288,-0.22093702852725983,-0.0006867055199109018,0.13119104504585266,0.011297962628304958,-0.17668062448501587,0.26648885011672974,0.18460223078727722,0.13885807991027832,-0.07646838575601578,-0.1868484616279602,-0.09275420010089874,0.1148306131362915,-0.2113533616065979,-0.2883286476135254,-0.24618841707706451,0.5710974931716919,0.45534154772758484,-0.37374594807624817,0.23487737774848938,-0.37680527567863464,0.05167234688997269,0.4877769351005554,-0.9206863045692444,1.0675541162490845,0.3570014238357544,-0.23755423724651337,-0.1119508147239685,0.4373686611652374,-0.8059706091880798,0.09868799149990082,-0.0646844431757927,-0.27330973744392395,-0.02077043242752552,0.12750062346458435,0.18516011536121368,0.018520809710025787,0.020260639488697052,0.08361727744340897,0.18179135024547577,0.4215293526649475,-0.0010466546518728137,-0.5303648710250854,-0.07432174682617188,-0.13806915283203125,-0.11517543345689774,0.24685543775558472,-0.07381606101989746,0.3973631262779236,-0.12429656833410263,-0.02489762380719185,-0.3493862450122833,0.2590697109699249,-0.4156550168991089,-0.2701813876628876,0.226637601852417,0.06773065030574799,-0.1397530883550644,0.06670858711004257,0.0991169735789299,0.13890783488750458,0.028980212286114693,0.044255878776311874,-0.5230870246887207,0.35699400305747986,-0.5043203830718994,-0.027660368010401726,-0.23386752605438232,0.03416050970554352,-0.31613561511039734,-0.010849641636013985,0.23198170959949493,-0.12111273407936096,0.5145063400268555,0.3122130036354065,-0.334585577249527,-0.017464416101574898,0.20883166790008545,0.2879227101802826,0.1567622274160385,-0.2209143042564392,0.04186081141233444,-0.6191530227661133,0.08972315490245819,-0.4932956099510193,0.2651078999042511,0.321128249168396,-0.14918583631515503,-0.025019658729434013,0.2954217493534088,-0.02342997118830681,0.02093137986958027,0.14691583812236786,0.060053061693906784,0.099138543009758,-0.12605538964271545,0.0806499794125557,-0.216266468167305,-0.027822060510516167,-0.4133074879646301,0.177916020154953,-0.223014697432518,0.09584061056375504,0.050846222788095474,-0.04975472018122673,0.06814621388912201,-0.053144846111536026,-0.16856293380260468,0.20464293658733368,-0.09094861894845963,-0.0371275469660759,0.037467487156391144,0.466095507144928,-0.11087188869714737,0.058592651039361954,-0.17244692146778107,0.15782864391803741,-0.00909017026424408,-0.23353274166584015,0.09506076574325562,-0.07785941660404205,0.22762291133403778,0.10200157016515732,0.23228858411312103,0.19954706728458405,0.14348727464675903,0.1624680608510971,0.29501184821128845,-0.16912850737571716,-0.012859039939939976,0.030145931988954544,-0.25353020429611206,0.2059479057788849,-0.10481368750333786,-0.28378644585609436,0.2143881618976593,0.23587730526924133,-0.21023060381412506,-0.024143705144524574,0.22054320573806763,0.04242530092597008,0.13639958202838898,0.04851015657186508,0.043312449008226395,-0.9332876801490784,-0.22587837278842926,0.06774241477251053,-0.15854284167289734,-0.14775387942790985,0.020886147394776344,0.2053290754556656,0.08577953279018402,-0.06440871953964233,0.1577237993478775,-0.02178933098912239,-0.01651105284690857,-0.09691684693098068,-0.06781430542469025,-0.009299162775278091,0.18914197385311127,-0.34697243571281433,0.08582568913698196,0.03342843055725098,0.2464587539434433,-0.225184366106987,0.06633126735687256,-0.08085694164037704,-0.01292857713997364,0.030244270339608192,0.3243630826473236,-0.305742472410202,0.0701671689748764,-0.052951935678720474,0.0792175829410553,0.20460784435272217,0.04582531377673149,-0.4320068955421448,0.161675825715065,-0.041620202362537384,0.10627943277359009,-0.17903532087802887,-0.23235026001930237,-0.2387036681175232,-0.01850634627044201,-0.03827671706676483,-0.3947535455226898,-0.030640393495559692,0.046347569674253464,0.1807800680398941,-0.07740724831819534,0.2212238609790802,-0.4866558313369751,-0.2060663402080536,-0.20277604460716248,0.035910047590732574,-0.22006605565547943,0.1934485137462616,-0.07384302467107773,0.1528063714504242,0.13369089365005493,-0.06513001769781113,0.23815420269966125,0.03273829445242882,-0.2479938417673111,-0.03786395862698555,0.32341164350509644,0.20340026915073395,0.03258282691240311,0.22901757061481476,0.28927332162857056,0.25028935074806213,0.43361955881118774,0.08728410303592682,0.1821955293416977,0.09108112007379532,-0.18324986100196838,0.05697561055421829,0.24324145913124084,-0.39886754751205444,-0.17568866908550262,-0.011440680362284184,0.053965337574481964,-0.11123035848140717,-0.21906650066375732,0.16937723755836487,-0.03712966665625572,0.25557470321655273,0.21020370721817017,-0.34740322828292847,-0.0579371452331543,0.10094234347343445,-0.09038704633712769,-0.10207168757915497,0.13816848397254944,-0.015567468479275703,0.05381077155470848,-0.008944104425609112,-0.026587162166833878,-0.3039616048336029,0.2225511521100998,-0.7104014754295349,0.21990203857421875,0.18840867280960083,0.15609006583690643,0.19955794513225555,-0.05491461977362633,0.2625634968280792,-0.16810886561870575,0.1927655190229416,-0.4057110548019409,0.13269861042499542,0.05950057506561279,-0.20333918929100037,0.1867072731256485,-0.04863559082150459,0.044954992830753326,0.48919108510017395,-0.15572142601013184,-0.06567630916833878,-0.4325845539569855,0.14844661951065063,-0.301327645778656,0.05240704491734505,0.25665634870529175,0.10617343336343765,0.2741318643093109,-0.023207636550068855,-0.09636087715625763,-0.08850675076246262,-0.018312416970729828,-0.03732339292764664,-0.2570893466472626,-0.09382174909114838,-0.4286947548389435,-0.29164978861808777,-0.07023624330759048,0.12940101325511932,-0.3893331289291382,0.18545600771903992,0.14021353423595428,0.394985169172287,0.4037529528141022,-0.3477587401866913,-0.10736066848039627,-0.38434168696403503,0.38743939995765686,-0.09522417932748795,-0.0021889691706746817,0.05811790004372597,0.0542960986495018,-0.1996753066778183,0.2935233414173126,0.17448574304580688,-0.14769388735294342,0.019062379375100136,-0.37628209590911865,-0.06507226079702377,0.1270686686038971,0.16964904963970184,0.13937176764011383,0.0821266919374466,-0.11248516291379929,0.01914488896727562,-0.33833184838294983,-0.17559301853179932,-0.12776872515678406,-0.06762190908193588,0.21954365074634552,0.11662766337394714,-0.39083021879196167,-0.03882620856165886,0.12621068954467773,-0.09241604059934616,0.2650880217552185,-0.18018031120300293,-0.10794960707426071,-0.0456133596599102,-0.0524592287838459,0.3242422640323639,0.010257412679493427,0.03876178711652756,-0.00016790535300970078,-0.018992900848388672,-0.2798190116882324,0.16798678040504456,0.23338162899017334,0.18690866231918335,-0.24620316922664642,-0.18301215767860413,-0.19272688031196594,0.23919054865837097,0.041761014610528946,-0.35720622539520264,-0.4584692120552063,0.16218692064285278,0.24740557372570038,-0.25075748562812805,-0.14913730323314667,0.05367312952876091,-0.11209138482809067,-0.1828283965587616,0.08586383610963821,-0.08953534066677094,-0.22522898018360138,-0.33493906259536743,-0.05409715324640274,0.07670354843139648,0.05121764913201332,-0.5573084354400635,-0.07659243792295456,0.06574346870183945,0.0010633640922605991,-0.20609909296035767,-0.0038659449201077223,-0.07598873972892761,0.18024489283561707,0.0676727369427681,0.007811762858182192,0.12319770455360413,0.012370661832392216,-0.1416565477848053,-0.07404783368110657,-0.07793466001749039,-0.14602749049663544,0.2889144718647003,-0.10610157996416092,-0.15550242364406586,0.23634305596351624,-0.13470107316970825,0.24480892717838287,0.1358170509338379,-0.10657558590173721,-0.20025619864463806,-0.054638538509607315,0.10901068150997162,0.35811862349510193,-0.04816965386271477,-0.04373326152563095,-0.021091312170028687,0.150964617729187,-0.0002812830498442054,0.1684625744819641,0.035934217274188995,0.014396227896213531,0.09075314551591873,-0.39182722568511963,0.06278260797262192,0.0002795131877064705,-0.051690004765987396,0.016969453543424606,0.20687256753444672,-0.28811562061309814,-0.10292571038007736,0.024413244798779488,0.17435812950134277,-0.14139880239963531,0.2330915480852127,0.04819828271865845,-0.25476717948913574,-0.4674451947212219,-0.025460127741098404,-0.20454734563827515,-0.23165027797222137,-0.20602399110794067,-0.20452553033828735,-0.22717416286468506,-0.03085203468799591,-0.2501543164253235,-0.022690117359161377,0.0772528424859047,0.10536690801382065,-0.015332881361246109,-0.17244988679885864,0.00123222591355443,0.2406473159790039,-0.4207894206047058,-0.2401217520236969,0.1512010544538498,-0.04412825405597687,0.09840702265501022,0.002763374475762248,-0.11064369976520538,-0.1240910142660141,-0.14267927408218384,0.13975892961025238,0.0966186597943306,0.05274563655257225,-0.043163105845451355,-0.027765216305851936,-0.26125508546829224,-0.028342727571725845,-0.03362766280770302,-0.15783031284809113,0.14497224986553192,-0.06718874722719193,-0.0839902013540268,0.006370948161929846,-0.2559531033039093,-0.0461418442428112,0.10093550384044647,0.05029498413205147,-0.06583953648805618,-0.3212604820728302,0.01668759621679783,-0.3801460266113281,-0.05935198441147804,0.17429327964782715,0.0777272954583168,0.3545231521129608,0.04946228861808777,0.13655900955200195,0.25916507840156555,0.11055994033813477,0.07762329280376434,0.03137458860874176,0.0963292345404625,0.005982914939522743,-0.31341174244880676,-0.054983556270599365,0.10474983602762222,0.09571754932403564,-0.2823975086212158,-0.09417429566383362,0.09817647188901901,0.013171453028917313,0.030457355082035065,0.046836789697408676,-0.10709705203771591,0.03158159554004669,0.2190110683441162,0.15977394580841064,-0.1582016497850418,-0.1913943737745285,-0.2756049633026123,-0.1183035746216774,0.10212095826864243,-0.02094745635986328,0.10538129508495331,0.21800413727760315,0.02519308216869831,0.18455637991428375,-0.09882384538650513,0.10952495783567429,0.07363218069076538,-0.26306718587875366,0.21651555597782135,-0.18511325120925903,-0.3315708339214325,-0.4131907522678375,0.02119307592511177,0.17674748599529266,-0.14066824316978455,-0.023503145202994347,0.05284375324845314,-0.13307158648967743,-0.5559425354003906,0.1337776929140091,0.9230033755302429,-0.1557987928390503,-0.02522815205156803,0.0028089983388781548,0.11018811911344528,-0.03567357361316681,-0.08340399712324142,-0.23808132112026215,0.03293060138821602,0.3370993137359619,-0.2673158049583435,-0.09368150681257248,-0.4757007658481598,0.42441678047180176,0.040558379143476486,0.3391706943511963,0.28802070021629333,-0.09993699938058853,0.12024720013141632,-0.1627410501241684,-0.1967574656009674,-0.2401096224784851,0.2325868010520935,-0.05418890342116356,-0.0777960866689682,-0.20767642557621002,-0.017785951495170593,0.40472903847694397,-0.13672809302806854,-0.04334862157702446,-0.13226023316383362,-0.043313682079315186,0.018110917881131172,-0.24593551456928253,0.18122592568397522,0.023186612874269485,-0.31996530294418335,0.2593964636325836,-0.0700187236070633,0.14949068427085876,-0.19293704628944397,-0.11363551765680313,0.059375062584877014,-0.2274688184261322,-0.12952834367752075,-0.2802479565143585,-0.1069440022110939,-0.2569006383419037,0.2570027709007263,-0.25965607166290283,-0.015831995755434036,0.002959064207971096,0.4055386781692505,0.07903207093477249,-0.1995246559381485,-0.07648587226867676,-0.15429723262786865,0.3146209120750427,-0.21601396799087524,-0.0874059870839119,-0.12176700681447983,0.0760568380355835,0.022510137408971786,-0.04411653056740761,-0.3462876081466675,-0.32127392292022705,0.07785344868898392,-0.151876762509346,-0.13853371143341064,-0.2751944065093994,0.13430790603160858,-0.08631016314029694,0.06381949782371521,-0.06839006394147873,-0.024752411991357803,0.20688995718955994,0.05274958536028862,-0.14897266030311584,-0.0723804458975792,0.03759843111038208,0.08812914788722992,-0.0910700261592865,0.14469297230243683,-0.09144054353237152,-0.15601956844329834,0.09559819847345352,-0.16148275136947632,0.15960317850112915,0.017468515783548355,-0.11561796814203262,-0.02378271147608757,0.3520144820213318,-0.06180313229560852,0.2904259264469147,0.3049958348274231,-0.0016861907206475735,-0.1538161337375641,0.11661261320114136,-0.015039554797112942,0.2746163010597229,-0.022659944370388985,0.05404207110404968,-0.2957627475261688,-0.007959638722240925,-0.06893325597047806,-0.1945781111717224,0.17705264687538147,-0.00048080962733365595,-0.0038903343956917524,-0.25244760513305664,-0.04418855533003807,0.04289063438773155,-0.04436629265546799,-0.05987763777375221,0.04963861405849457,0.11230211704969406,0.0292672049254179,0.030659813433885574,-0.012753745540976524,-0.012701835483312607,-0.0776796042919159,0.2204774171113968,0.0639706626534462,-0.02540925145149231,0.04634559154510498,0.18758897483348846,0.06333637982606888,-0.2428802102804184,-0.12957046926021576,0.25937584042549133,-0.25344526767730713,-0.12161772698163986,-0.011911974288523197,-0.09598622471094131,0.039866067469120026,-0.25072768330574036,0.15589630603790283,0.07955175638198853,0.2634311318397522,-0.17781521379947662,-0.33827346563339233,0.3236294686794281,-0.3248988389968872,0.492008239030838,0.017003435641527176,-0.13379476964473724,0.02413128688931465,-0.03230379894375801,-0.1855577528476715,0.18531093001365662,-0.23462699353694916,0.013626588508486748,-0.16728252172470093,-0.1820366084575653,0.173074409365654,-0.0027864931616932154,-0.21229054033756256,0.102635957300663,-0.09753512591123581,0.06667427718639374,-0.2093431055545807,0.1547338366508484,-0.01769339106976986,0.0027356056962162256,-0.033394936472177505,0.12739527225494385,-0.027525339275598526,0.0012344695860520005,-0.16736720502376556,-0.10579277575016022,0.05423495173454285,0.1458175927400589,-0.0411689467728138,0.009505015797913074,0.16256551444530487,-0.08143562078475952,0.12380660325288773,0.18206876516342163,-0.0014561084099113941,-0.016713740304112434,0.10163753479719162,-0.4062299132347107,0.06887001544237137,-0.055357925593853,-0.17937976121902466,0.06697558611631393,-0.011372734792530537,-0.4369073510169983,0.036392610520124435,-0.18891996145248413,0.0618303082883358,-0.01347154751420021,0.3993004858493805,-0.25579118728637695,-0.03625432029366493,-0.00306593906134367,-0.3269599378108978,0.06839796900749207,0.0767003744840622,-0.33926984667778015,-0.05758398771286011,-0.2222733199596405,0.043260496109724045,0.031004365533590317,-0.3551700711250305,0.08217711001634598,0.0035912019666284323,0.05624283850193024,-0.2990727424621582,0.034807492047548294,-0.08562255650758743,-0.04707957059144974,-0.04261794313788414,0.10537108778953552,-0.08741571754217148,-0.10939975082874298,0.01706055924296379,0.23541563749313354,-0.03443944826722145,0.07482792437076569,-0.013756657019257545,-0.052079543471336365,0.1806364804506302,-0.16447748243808746,-0.14198854565620422,0.18673449754714966,-0.056567270308732986,-0.15593597292900085,-0.03330084681510925,0.2542765140533447,0.02982005476951599,-0.039417289197444916,0.0628892108798027,-0.045940276235342026,-0.06016324460506439,-0.6067787408828735,0.0842859297990799,-0.33487561345100403,0.08577323704957962,0.061005402356386185,0.3259904682636261,-0.29506587982177734,-0.06099235266447067,0.09444320946931839,0.01800723560154438,-0.03863059729337692,0.2291942983865738,0.2213859260082245,-0.03482668846845627,-0.061761341989040375,0.14540521800518036,0.14034320414066315,-0.35316595435142517,-0.09243093430995941,-0.2088245302438736,0.06219132989645004,-0.33705222606658936,-0.07405789941549301,-0.12433977425098419,0.17815788090229034,0.10305735468864441,0.19312182068824768,-0.060395389795303345,-0.06729736179113388,-0.200050950050354,0.11198124289512634,0.014731713570654392,-0.18739305436611176,0.3305622935295105,0.1615297496318817,-0.02869482710957527,-0.2159021496772766,-0.1579412966966629,0.19274938106536865,-0.10500236600637436,-0.10443654656410217,0.2526891231536865,0.016078609973192215,-0.02351522631943226,-0.175200954079628,0.06544289737939835,-0.14380787312984467,0.10170181095600128,-0.08813350647687912,-0.06304285675287247,0.09517760574817657,0.3804871737957001,-0.029184557497501373,-0.05173567682504654,-1.4377951622009277,0.08254720270633698,0.031228885054588318,-0.09621647000312805,-0.6656891107559204,0.4252444803714752,0.013384680263698101,0.16864249110221863,-0.22139255702495575,-0.3877246677875519,0.0753353014588356,0.06315349042415619,0.7023124098777771,0.06253895908594131,0.12140540778636932,-0.5698043704032898,0.14011892676353455,-0.07950198650360107,-0.05771669000387192,0.3049919903278351,0.0329197533428669,0.14642439782619476,-0.1580277681350708,-0.08494264632463455,-0.0514848567545414,0.428666889667511,0.13055318593978882,-0.2095949500799179,-0.4065057039260864,0.020832160487771034,0.15928314626216888,-0.20368127524852753,0.20341362059116364,0.14940477907657623,-0.17211440205574036,0.1862751543521881,0.3965662717819214,0.17141906917095184,-0.09101106226444244,0.01803467981517315,0.22625936567783356,0.03534809872508049,0.13900034129619598,-0.6226685643196106,0.12710872292518616,-0.3762955963611603,-0.23288285732269287,0.49747422337532043,0.2107662856578827,-0.00519268773496151,0.23908375203609467,-0.4235441982746124,0.10110638290643692,-0.09314098209142685,-0.3324296772480011,0.014973336830735207,-0.1919749230146408,-0.10675571858882904,0.06998810917139053,-0.23299890756607056,0.16816414892673492,-0.1336742639541626,0.27107733488082886,0.209555521607399,0.030712198466062546,-0.001847280072979629,0.04381123557686806,0.21122552454471588,0.004006918519735336,-0.15026840567588806,-0.016940053552389145,-0.2051902562379837,0.2928592562675476,0.1705472767353058,0.2673599123954773,-0.4232756495475769,0.049907974898815155,0.1875489205121994,-0.23728932440280914,-0.03445649892091751,0.1421041488647461,-0.02177918516099453,-0.1925528645515442,0.18211516737937927,0.05390641838312149,0.07539716362953186,-0.2024765908718109,-0.11853949725627899,-0.09647657722234726,0.2742897868156433,-0.3789920508861542,0.05854867771267891,0.09175180643796921,-0.061962202191352844,-0.5491681098937988,0.2029610574245453,-0.137238547205925,0.1471911519765854,0.08007033169269562,-0.11489525437355042,-0.01658240146934986,-0.02879289537668228,-0.4314471185207367,-0.21213316917419434,0.0009295128984376788,-0.04289001226425171,-0.11582590639591217,0.09975648671388626,-0.011957244016230106,0.01458132453262806,-0.030981790274381638,-0.09526660293340683,-0.02709941379725933,0.08969680219888687,0.10974518209695816,0.1790493130683899,-0.07993954420089722,0.1620914489030838,-0.12842392921447754,-0.01992449164390564,0.24821868538856506,0.030530041083693504,-0.09744296967983246,-0.02978617325425148,-0.2316991537809372,-0.16423183679580688,-0.04182661324739456,-0.01420514564961195,-0.018571387976408005,0.06419835984706879,0.0896594226360321,0.10247263312339783,0.1367899477481842,0.028944386169314384,-0.09121167659759521,-0.03677712008357048,-0.030149336904287338,-0.004337369464337826,0.20898211002349854,-0.02099400758743286,-0.27696603536605835,-0.15214397013187408,0.3405779004096985,0.07017825543880463,-0.156328946352005,-0.14099125564098358,-0.08693646639585495,-0.080216184258461,0.045102160423994064,0.029330888763070107,-0.020772764459252357,-0.10911234468221664,0.10917513072490692,-0.1985195279121399,0.09828188270330429,0.2705843448638916,0.31865358352661133,0.24778687953948975,0.20399068295955658,-0.05443171411752701,0.31249117851257324,-0.11125662922859192,-0.14209139347076416,-0.14724357426166534,-0.019290953874588013,0.14164219796657562,0.10882532596588135,0.02650626003742218,-0.11375866830348969,0.03246675059199333,0.04202410951256752,0.0349583774805069,0.1438056230545044,0.15882663428783417,-0.154756560921669,-0.019369816407561302,0.023174811154603958,0.01004233118146658,-0.10257440060377121,-0.021622434258461,0.15513910353183746,0.19068749248981476,-0.06074724718928337,-0.19013366103172302,0.09008938819169998,0.10430466383695602,-0.06180638074874878,0.044388726353645325,0.03936595469713211,0.15398968756198883,-0.07052946090698242,-0.045245781540870667,-0.14390182495117188,-0.03470123931765556,-0.13789209723472595,0.16397009789943695,0.05039886385202408,-0.16211895644664764,-0.17152728140354156,0.021955840289592743,0.17472410202026367,-0.08906809240579605,-0.09676477313041687,-0.14159294962882996,-0.28249359130859375,0.08046337217092514,0.023575356230139732,-0.060612753033638,-0.02800050936639309,0.10283513367176056,-0.0017925977008417249,-0.07883422076702118,-0.21285855770111084,0.09287363290786743,0.12365678697824478,0.09052769094705582,0.01886622980237007,0.00390740018337965,0.608078122138977,0.28419163823127747,-0.06914062052965164,-0.07908740639686584,-0.1509605497121811,-0.10181880742311478,-0.2859766185283661,0.12101422250270844,0.01897479221224785,-0.12455932050943375,0.3697627782821655,0.012979225255548954,0.10576155036687851,0.020055221393704414,-0.13573245704174042,-0.1849333494901657,0.248524472117424,-0.00015298931975848973,-0.10941900312900543,0.034940388053655624,-0.019525211304426193,-0.14281713962554932,-0.11694265156984329,-0.061815615743398666,-0.11864590644836426,-0.4181237816810608,-0.08429870009422302,0.14306306838989258,-0.07576850056648254,0.13532543182373047,-0.2000877410173416,0.13136783242225647,-0.07767146825790405,-0.2845268249511719,0.10169656574726105,-0.0865241140127182,0.048665810376405716,-0.038515593856573105,0.010200997814536095,-0.15442030131816864,0.21632197499275208,-0.108717180788517,0.24897456169128418,-0.11571932584047318,0.05804363265633583,-0.25040796399116516,0.06285776942968369,-0.009178386069834232,-0.2149704247713089,-0.14053109288215637,-0.11928918212652206,0.16314545273780823,-0.34117060899734497,0.03056551329791546,0.00935794785618782,-0.10647547990083694,0.10747671127319336,-0.09606941789388657,-0.05361441150307655,0.08850405365228653,-0.019560620188713074,0.15689048171043396,0.06529869884252548,-0.0015853936783969402,-0.4404071271419525,0.046601105481386185,0.10330019146203995,-0.016933243721723557,-0.03378894180059433,-0.047469984740018845,0.0726146399974823,0.06720203906297684,-0.1603398621082306,-0.1387404352426529,0.010430950671434402,0.021072788164019585,0.009373469278216362,-0.2368682473897934,0.05238037928938866,0.06876136362552643,-0.056186795234680176,0.23325875401496887,0.8305549025535583,0.36972805857658386,0.3941866159439087,-0.7292612791061401,-0.6205918192863464,0.03178068995475769,0.2318168729543686,-0.10217322409152985,0.513782799243927,0.4261162579059601,-0.47508618235588074,0.4239823520183563,-0.0966314896941185,-0.7645285725593567,-0.05302709341049194,-0.18749572336673737,-0.2934211492538452,-0.1072007417678833,0.042618539184331894,-0.32974010705947876,0.14036495983600616,0.2558360695838928,-0.08095400035381317,-0.2454945594072342,-0.4658467471599579,-0.17087605595588684,-0.20858635008335114,-0.12862417101860046,0.22537778317928314,-0.17301468551158905,0.19145002961158752,-0.22352327406406403,-0.15411116182804108,-0.7360127568244934,0.5332492589950562,-0.26938217878341675,0.23544646799564362,-0.17847183346748352,-0.143954798579216,0.049935489892959595,0.03254438564181328,-0.11418825387954712,-0.11078307777643204,0.026346780359745026,-0.4878358542919159,0.23092694580554962,-0.07176879048347473,0.4350888133049011,-0.11031690984964371,-0.038462407886981964,0.1500931978225708,-0.3994157016277313,-0.1766206920146942,-0.3674917221069336,0.16564849019050598,0.09512412548065186,0.2962685227394104,-0.04500946030020714,-0.2405940741300583,0.019557921215891838,0.3094449043273926,-0.04101099446415901,0.09902305155992508,0.24009567499160767,-0.027900375425815582,0.1532111018896103,-0.3235965669155121,0.1884358525276184,0.023836903274059296,0.10983099788427353,0.38656240701675415,0.030831359326839447,-0.11282453685998917,-0.10200025141239166,-0.07857538014650345,-0.15085771679878235,0.268943190574646,-0.00759974354878068,0.02910582348704338,-0.34125879406929016,0.24090243875980377,-0.09910275042057037,-0.3985685408115387,0.050346486270427704,-0.33320844173431396,-0.05387299880385399,0.34546077251434326,-0.31455227732658386,0.12765853106975555,0.17183756828308105,0.11318112909793854,0.0767357125878334,-0.0015831092605367303,-0.22597110271453857,-0.07206788659095764,-0.1488610804080963,-0.10112305730581284,-0.0381757989525795,0.4138696491718292,0.21991223096847534,-0.48763319849967957,-0.039268989115953445,0.13128161430358887,0.021123448386788368,0.10661662369966507,0.228104829788208,-0.16202682256698608,0.30621376633644104,-0.12146364897489548,0.08784014731645584,-0.46537116169929504,0.4332183003425598,-0.2502157688140869,-0.33727315068244934,-0.1785801202058792,-0.08416226506233215,-0.23263591527938843,-0.08905134350061417,0.3339633643627167,-0.1891373097896576,-0.6737352013587952,0.20053206384181976,0.05098249390721321,-0.3726394772529602,-0.10385318100452423,-0.28140273690223694,-0.286783903837204,0.12514033913612366,-0.40039297938346863,0.19129465520381927,0.01908090151846409,0.11937803775072098,0.49063336849212646,0.1322980374097824,-0.14806696772575378,0.0022421039175242186,0.2793647050857544,0.432280033826828,0.03447314351797104,-0.14523977041244507,-0.030096115544438362,0.07957804948091507,0.7583426833152771,-0.030180389061570168,-0.5128929018974304,-0.1319437026977539,0.3442256450653076,-0.0074597508646547794,0.20526379346847534,0.18274298310279846,-0.18539711833000183,-0.09237339347600937,-0.1716933697462082,-0.034368813037872314,-0.19033129513263702,-0.09869015961885452,-0.13947930932044983,0.2348467856645584,0.10085855424404144,0.060799434781074524,0.015322405844926834,0.23562154173851013,-0.06249403581023216,0.007356568239629269,-0.07364032417535782,0.14143803715705872,-0.3285383880138397,-0.004396175034344196,-0.25848791003227234,-0.03361854329705238,0.1959390789270401,-0.3028329610824585,0.18109971284866333,-0.2551252543926239,0.17214255034923553,0.042392708361148834,-0.27182167768478394,-0.019989022985100746,-0.1710544377565384,-0.4871262311935425,-0.13797876238822937,-0.1703421026468277,0.13582073152065277,-0.20740510523319244,-0.06256569176912308,-0.29744911193847656,-0.1294119656085968,-0.0032450202852487564,0.027241747826337814,-0.10312355309724808,-0.09489651769399643,-0.263164222240448,0.278575599193573,0.6941508650779724,-0.44499021768569946,0.18393108248710632,-0.44311872124671936,-0.27994364500045776,0.011024991981685162,-0.12548436224460602,-0.19032488763332367,0.011858387850224972,0.005725707858800888,0.05492414906620979,-0.05946410819888115,0.05496356263756752,-0.291850745677948,-0.1532863974571228,-0.07599853724241257,0.22886301577091217,0.3473190367221832,0.25683194398880005,-0.05312022939324379,0.046159375458955765,-0.044358521699905396,0.15681959688663483,0.06248961761593819,0.2343590259552002,-0.2038373053073883,-0.12934228777885437,-0.1631300151348114,0.27190878987312317,-0.0834415853023529,-0.10936146974563599,-0.002803399693220854,0.0979480892419815,-0.014705916866660118,0.3953949213027954,0.18761038780212402,0.08231277763843536,-0.28856155276298523,-0.018109863623976707,0.03827333822846413,0.04925107955932617,0.03551623970270157,-0.2060479074716568,-0.3172626495361328,-0.30678024888038635,-0.023622451350092888,-0.10583119094371796,0.28320351243019104,-0.38602039217948914,0.3585295081138611,0.07377884536981583,-0.09434027224779129,-0.21791912615299225,0.10577721893787384,0.14798113703727722,-0.1474892944097519,-0.0015721037052571774,-0.18122977018356323,0.09346844255924225,0.0032925212290138006,-0.038080040365457535,-0.037410300225019455,0.12550577521324158,0.011494072154164314,0.20761191844940186,-0.24522517621517181,-0.11006127297878265,-0.19378453493118286,-0.42311182618141174,0.1945306658744812,-0.13648079335689545,-0.06455542147159576,0.08416905999183655,-0.24914664030075073,0.12065495550632477,0.2900446951389313,-0.03983840346336365,0.09742432087659836,0.15473271906375885,-0.19991415739059448,-0.05335649102926254,0.07552026957273483,-0.044816095381975174,-0.07863818854093552,-0.03440438583493233,-0.19627566635608673,0.02306263893842697,0.02083619311451912,0.12696215510368347,0.07536447048187256,0.047495193779468536,0.12098198384046555,-0.17143745720386505,-0.15275216102600098,0.0036342102102935314,0.028179636225104332,-0.08440305292606354,0.20703285932540894,-0.07771609723567963,0.055264707654714584,0.0333915650844574,-0.07377738505601883,-0.42417922616004944,-0.08782031387090683,0.13176412880420685,0.05570552125573158,-0.02932633087038994,-0.03730142116546631,0.09088166803121567,-0.161857470870018,0.2295837551355362,0.2763105034828186,0.21065807342529297,0.00028946989914402366,-0.13972297310829163,0.4613693654537201,0.12649402022361755,0.05828327313065529,-0.07988850772380829,0.0372869148850441,-0.1575678139925003,0.06076279282569885,-0.02847239375114441,-0.04690435901284218,0.04347597062587738,-0.10773617029190063,0.005679727531969547,-0.05387867987155914,0.1647772490978241,-0.09651312232017517,-0.12263193726539612,0.07648289948701859,0.004538817331194878,0.07855398952960968,0.007570690009742975,0.011766847223043442,-0.04305068403482437,0.060994457453489304,-0.0399075485765934,0.09168144315481186,-0.12351386994123459,0.1207326278090477,0.3520665466785431,0.2590658366680145,-0.11477749049663544,0.1970241516828537,0.11844048649072647,-0.027946712449193,-0.23061592876911163,-0.09011818468570709,-0.013461283408105373,-0.2350052297115326,-0.17036348581314087,0.11459706723690033,0.21145015954971313,0.16799509525299072,0.015124849043786526,-0.21268297731876373,0.02036876790225506,0.017885392531752586,-0.22956645488739014,0.0421779528260231,-0.12170282006263733,0.090252585709095,0.017063086852431297,-0.06777754426002502,-0.29755741357803345,-0.11608436703681946,0.09238742291927338,0.2636902630329132,0.10660921037197113,0.04680836945772171,-0.039190735667943954,0.25574159622192383,-0.22057679295539856,-0.06994989514350891,-0.3271108865737915,-0.14724493026733398,0.11010801792144775,-0.10096824169158936,-0.16365332901477814,0.20435817539691925,-0.07536525279283524,-0.13042402267456055,0.14057378470897675,0.21510747075080872,0.027729328721761703,-0.24682077765464783,-0.08979614078998566,-0.029373204335570335,-0.08556146174669266,-0.03610267862677574,-0.03709212690591812,-0.12936517596244812,-0.04439419507980347,-0.15671737492084503,-0.41419726610183716,-0.03582238033413887,0.07409346848726273,-0.23430058360099792,-0.10098256170749664,0.15621541440486908,0.08490520715713501,0.013161214999854565,-0.163320392370224,-0.14967180788516998,0.1539681851863861,0.32554808259010315,0.050354428589344025,0.09577708691358566,0.15638771653175354,-0.40324628353118896,0.15392351150512695,0.29427292943000793,-0.3228916823863983,0.0372365266084671,-0.11971352994441986,-0.11647046357393265,-0.03687167167663574,-0.005751602817326784,0.08572428673505783,0.05264192074537277,-0.03881998732686043,-0.0969519391655922,0.06181279197335243,0.0036296197213232517,0.3157825767993927,-0.08077581226825714,0.007392126135528088,0.2534025013446808,-0.029155299067497253,-0.10301772505044937,0.09494546055793762,-0.024547621607780457,0.01526164636015892,0.11841094493865967,0.03211132436990738,-0.022860582917928696,-0.051942773163318634,-0.2508769929409027,0.025465594604611397,0.4440649151802063,-0.12961582839488983,-0.37283384799957275,-0.3323017954826355,-0.07577469199895859,-0.3570362329483032,-0.027553286403417587,0.1862296164035797,-0.09494882822036743,0.0031120292842388153,-0.08349761366844177,-0.01560539472848177,0.21763285994529724,-0.12751956284046173,0.15683169662952423,0.12695306539535522,0.039548952132463455,-0.18517285585403442,0.864668071269989,-0.0891522541642189,-0.0033841521944850683,-0.12973962724208832,0.17453952133655548,-0.026903361082077026,-0.10517577826976776,-0.3193197250366211,0.10003329813480377,0.12657399475574493,-0.08580432087182999,0.05226677656173706,0.31122565269470215,0.11888569593429565,0.03332167863845825,-0.0775647759437561,0.23020495474338531,0.08432622253894806,-0.15983548760414124,0.15345516800880432,0.16683045029640198,-0.14376704394817352,-0.08322512358427048,-0.09134186804294586,0.29242488741874695,0.059347398579120636,0.10214302688837051,0.4352654218673706,-0.1388876885175705,0.2479964941740036,0.7698957324028015,-0.08757983148097992,-0.06854960322380066,-0.28181809186935425,0.008235512301325798,-0.019495785236358643,-0.04127981513738632,0.03948984667658806,0.13758261501789093,0.08514966070652008,-0.09684151411056519,-0.05000235140323639,0.17420850694179535,0.01804828643798828,0.04808371514081955,-0.17591765522956848,-0.03867492824792862,-0.2510242164134979,-0.04746168851852417,0.09037917107343674,-0.25575950741767883,0.17622129619121552,0.17942579090595245,-0.008096111007034779,0.03940758481621742,-0.15956224501132965,0.1028531864285469,0.2617911398410797,-0.09503566473722458,0.18128927052021027,0.6215514540672302,0.21129463613033295,-0.08329034596681595,-0.24352724850177765,0.0377722829580307,0.05702924355864525,-0.09134429693222046,0.12071874737739563,0.07482541352510452,-0.10906937718391418,-0.17816714942455292,-0.12403217703104019,-0.023601608350872993,0.09551098942756653,0.02281033620238304,0.45931360125541687,0.06000382825732231,0.006986421998590231,-0.2595568597316742,-0.05933208018541336,0.05414270982146263,-0.1718417853116989,0.10111049562692642,0.029057618230581284,-0.15185922384262085,-0.1650271862745285,-0.004804213065654039,0.1082204133272171,-0.09664801508188248,-0.0027962159365415573,-0.1692754477262497,-0.11854027956724167,-0.11027155816555023,-0.17583924531936646,0.05108821392059326,-0.03208884969353676,-0.24922247231006622,-0.09851273894309998,-0.06438641995191574,-0.07928535342216492,-0.10116063803434372,-0.04448191449046135,0.1691685914993286,0.14466294646263123,0.1911855787038803,-0.16689930856227875,0.17793850600719452,0.16250480711460114,-0.07801516354084015,-0.19892501831054688,0.031034154817461967,0.3631119430065155,-0.12959736585617065,0.0862986221909523,0.09157326072454453,-0.23170140385627747,-0.033435188233852386,0.01735115610063076,0.07207540422677994,0.1297224462032318,-0.35535117983818054,-0.04061499983072281,0.0017892691539600492,-0.0035008478444069624,0.2593962252140045,-0.07326304167509079,0.10602498054504395,0.10725605487823486,-0.16900037229061127,-0.28430667519569397,0.006123412866145372,-0.155425563454628,0.13644297420978546,-0.17090000212192535,-0.09951101988554001,0.12289215624332428,0.1521214246749878,0.19561485946178436,-0.2725383937358856,0.13853800296783447,0.36685067415237427,0.03258971497416496,-0.03815612569451332,-0.1074211448431015,0.26522189378738403,0.039708781987428665,0.16332587599754333,-0.31781917810440063,-0.16427211463451385,-0.09618673473596573,0.27690616250038147,0.16521014273166656,0.1358778178691864,-0.13528478145599365,0.09949735552072525,-0.01078166626393795,-0.010278753004968166,-0.14144951105117798,-0.1871778815984726,0.19388894736766815,-0.21034468710422516,0.05912185460329056,0.2977394759654999,-0.03563296049833298,0.05785755068063736,0.15830908715724945,0.01815902255475521,-0.05438164621591568,-0.14647990465164185,0.062304265797138214,0.1371207982301712,0.14676015079021454,0.5880433320999146,0.6360083222389221,0.007176138460636139,0.747646689414978,0.08792494237422943,0.04014502093195915,0.07323147356510162,-0.4109257757663727,0.11026827245950699,-0.0670209527015686,0.27946045994758606,-0.028894303366541862,0.15996837615966797,-0.46736109256744385,0.05121554061770439,-0.3146631121635437,-0.537840723991394,0.1896769404411316,0.2573205232620239,-0.15611006319522858,-0.04493561014533043,-0.05672144889831543,-0.017561037093400955,0.0794558897614479,-0.23096436262130737,0.36644214391708374,0.13713118433952332,0.14667268097400665,0.02047032304108143,0.035311099141836166,0.40108534693717957,0.3055124282836914,-0.19589993357658386,-0.4805731475353241,-0.21448448300361633,0.122219979763031,-0.2814832627773285,0.08139411360025406,0.010683436878025532,-0.3544664680957794,0.33403480052948,-0.13091078400611877,0.12047189474105835,-0.5698390603065491,-0.1854735016822815,0.2548932433128357,-0.2558932304382324,-0.18087153136730194,-0.2804272770881653,-0.15565620362758636,-0.4863582253456116,0.02888176031410694,-0.10307881236076355,0.40767043828964233,-0.005331043619662523,0.023901907727122307,0.3246299624443054,-0.0010081697255373001,-0.05741186812520027,-0.44070199131965637,0.058738820254802704,-0.14879938960075378,0.49740588665008545,-0.01687132567167282,-0.09060566872358322,0.4952668249607086,0.0584702230989933,0.0021934271790087223,-0.013227380812168121,-0.05685369670391083,-0.09308305382728577,0.04043519124388695,0.18130923807621002,-0.02894868329167366,-0.29333969950675964,-0.16993671655654907,-0.10639730095863342,0.2783239483833313,-0.2206842452287674,-0.08833152055740356,-0.019168438389897346,0.14795242249965668,0.17851080000400543,-0.22869248688220978,0.28833672404289246,0.07645436376333237,-0.2848087251186371,0.07584381848573685,0.016327397897839546,-0.22666671872138977,-0.225975900888443,-0.07151802629232407,0.13919706642627716,-0.07699352502822876,0.07718037813901901,0.2024703323841095,0.38608333468437195,0.49640312790870667,-0.278629869222641,0.026417125016450882,0.07319317013025284,-0.11649980396032333,-0.10294060409069061,0.9386032223701477,-0.1809798926115036,-0.09959016740322113,-0.007675502449274063,0.06053779274225235,0.06875139474868774,-0.1877099871635437,-0.13485470414161682,0.15644851326942444,0.100429967045784,0.3641725480556488,-0.06497357785701752,0.12743371725082397,0.0725010484457016,0.19782651960849762,0.27901560068130493,-0.16678094863891602,-0.18648509681224823,0.27235913276672363,0.24136461317539215,0.14684082567691803,-0.24394837021827698,-0.2931693494319916,0.1757129728794098,0.44869232177734375,-0.31214556097984314,-0.25275492668151855,-0.024201327934861183,0.08473136276006699,-0.17089718580245972,0.2551063895225525,0.14468012750148773,-0.2975842356681824,-0.04523812234401703,0.006670416798442602,0.2796957194805145,-0.0621943399310112,-0.02873982861638069,-0.06013808399438858,0.4904245138168335,-0.19723127782344818,-0.25966882705688477,-0.1635318100452423,-0.18238532543182373,-0.1312830001115799,0.29933419823646545,0.4001122713088989,-0.1017812043428421,0.2810324430465698,-0.13515669107437134,0.08499152958393097,0.07963204383850098,-0.12393651902675629,-0.24439091980457306,0.00044781158794648945,-0.024821657687425613,0.11278323829174042,0.015914058312773705,0.18951182067394257,-0.13596585392951965,0.29979801177978516,-0.7689909338951111,-0.15585201978683472,0.3062811493873596,0.2601223886013031,0.14691582322120667,-0.07474588602781296,-0.06346845626831055,0.1631147861480713,0.1342255175113678,-0.2347387820482254,0.006312113255262375,-0.0776793584227562,-0.3879168927669525,0.06752507388591766,0.042188823223114014,-0.42530179023742676,-0.0022318975534290075,0.1714133769273758,-0.0554046593606472,0.07985806465148926,-0.07996606081724167,0.19581027328968048,-0.008869607001543045,-0.006369074806571007,-0.11135261505842209,0.14732052385807037,0.09411289542913437,-0.146588996052742,-0.3414094150066376,0.01923399418592453,0.1447449028491974,-0.0966208428144455,-0.17375051975250244,-0.09694388508796692,-0.1426456719636917,-0.01836780644953251,0.057443611323833466,-0.22569797933101654,-0.2238849699497223,