{"version":"0.5.4","metadata":{"date":{"year":2024,"month":12,"day":14,"hour":16,"minute":34,"second":49},"loudness":-18.284168243408203,"gain":0.7935190974922255,"name":"Marshall 1959SLP Jump 57","modeled_by":"RobyRocks","gear_type":"amp_cab","gear_make":"tz-make","gear_model":"tz-model","tone_type":"overdrive","input_level_dbu":null,"output_level_dbu":null,"training":{"settings":{"ignore_checks":false},"data":{"latency":{"manual":null,"calibration":{"algorithm_version":1,"delays":[-2],"safety_factor":1,"recommended":-3,"warnings":{"matches_lookahead":false,"disagreement_too_high":false}}},"checks":{"version":3,"passed":true}},"validation_esr":0.0050321958756740495}},"architecture":"WaveNet","config":{"layers":[{"input_size":1,"condition_size":1,"head_size":8,"channels":16,"kernel_size":3,"dilations":[1,2,4,8,16,32,64,128,256,512],"activation":"Tanh","gated":false,"head_bias":false},{"input_size":16,"condition_size":1,"head_size":1,"channels":8,"kernel_size":3,"dilations":[1,2,4,8,16,32,64,128,256,512],"activation":"Tanh","gated":false,"head_bias":true}],"head":null,"head_scale":0.02},"weights":[-0.021626854315400124,0.6063766479492188,-0.6151889562606812,-0.7690081596374512,-0.3215464949607849,0.11618845164775848,0.002863225294277072,0.9001607298851013,-0.07454714924097061,0.24184328317642212,-0.29256322979927063,-0.08552390336990356,-1.0283440351486206,-0.6336731910705566,-0.48487356305122375,0.007158725988119841,0.11264956742525101,0.05074845254421234,-0.03711684048175812,-0.06667027622461319,0.15812034904956818,0.11574342846870422,-0.028639862313866615,0.00009717278589960188,-0.024096598848700523,0.013960612006485462,0.020057959482073784,-0.13458719849586487,-0.07664135843515396,-0.12991741299629211,-0.041226450353860855,0.09929479658603668,-0.013556602410972118,-0.09246527403593063,-0.057215120643377304,-0.14476928114891052,-0.027218926697969437,0.12321440875530243,0.1753614991903305,0.07371456921100616,0.05827188491821289,-0.12665404379367828,0.08857954293489456,-0.15610761940479279,-0.016838479787111282,-0.09543172270059586,0.10874199867248535,-0.010019045323133469,-0.052493851631879807,0.025983357802033424,0.017937669530510902,0.1829756200313568,0.055854432284832,-0.09305392950773239,0.09193644672632217,-0.08221817016601562,-0.0806453600525856,-0.11108892410993576,-0.0892053171992302,-0.17476896941661835,0.0734366923570633,-0.04879910498857498,-0.157607764005661,-0.08848307281732559,0.02553352154791355,-0.007078164257109165,-0.06720583140850067,0.028455236926674843,0.004038532264530659,0.15923535823822021,-0.10232675820589066,0.035362716764211655,0.040506210178136826,0.12838509678840637,0.2148360162973404,0.11037726700305939,0.025387899950146675,-0.04923404008150101,-0.015673117712140083,-0.07360632717609406,-0.19422726333141327,0.17233049869537354,0.08037031441926956,-0.13577809929847717,-0.008309469558298588,-0.03360293433070183,-0.114527627825737,-0.051287926733493805,0.014367802068591118,-0.049249790608882904,-0.01947743445634842,0.0825483649969101,0.03362260013818741,0.08986888825893402,-0.15056028962135315,-0.020533155649900436,0.040211908519268036,0.002780915703624487,-0.06338337063789368,-0.1400602012872696,0.14719663560390472,0.1896905153989792,-0.07581412047147751,-0.028798578307032585,-0.049299631267786026,-0.019984018057584763,-0.10818929970264435,-0.029586385935544968,-0.03237183392047882,0.06453631818294525,-0.04478731378912926,0.15719573199748993,0.026277335360646248,-0.009662965312600136,0.1744997352361679,-0.22203435003757477,0.1058971956372261,-0.03985114395618439,0.11349291354417801,-0.10822835564613342,0.09451979398727417,0.10420101881027222,-0.21564675867557526,0.11018254607915878,-0.030140195041894913,-0.2138936072587967,0.01960880495607853,-0.1879839152097702,0.06196996942162514,-0.1889224499464035,0.016498617827892303,-0.10845276713371277,-0.0690646842122078,-0.1011398434638977,0.2485891729593277,-0.05277860909700394,0.16154301166534424,-0.10477267950773239,0.15101994574069977,-0.024590034037828445,0.2580510079860687,0.024572504684329033,0.24713148176670074,-0.13748890161514282,-0.07159261405467987,0.06296154111623764,-0.008035522885620594,0.08728961646556854,0.020593129098415375,-0.25684067606925964,-0.09870289266109467,-0.02529308572411537,-0.17032696306705475,0.1217782124876976,0.18279477953910828,-0.2746840715408325,0.1395193189382553,-0.16877156496047974,0.07447018474340439,-0.09236647933721542,0.029661990702152252,0.10736239701509476,-0.21289943158626556,-0.22292296588420868,-0.1716749370098114,0.06834795325994492,0.0358230285346508,0.2043679803609848,-0.18929126858711243,0.09261415153741837,0.279680460691452,-0.12088464945554733,0.21686765551567078,0.1883004903793335,-0.20601460337638855,0.022582970559597015,-0.1345677226781845,0.027271805331110954,0.13145002722740173,-0.009339357726275921,-0.04720282182097435,-0.1343674510717392,-0.0498695969581604,0.09938699007034302,0.11201079189777374,0.14916974306106567,-0.1696469485759735,-0.10984280705451965,-0.2476445883512497,0.16457965970039368,0.19982492923736572,0.2324649840593338,-0.18086139857769012,0.062425412237644196,0.00911168847233057,-0.18662530183792114,0.021450567990541458,0.2040642648935318,-0.14258070290088654,0.09692630171775818,0.15541577339172363,0.03045923262834549,-0.01526694931089878,0.04419656842947006,-0.15381604433059692,0.05830852687358856,-0.12526308000087738,0.2054814249277115,0.0022953727748245,0.12485954910516739,-0.04126943275332451,-0.035122428089380264,-0.14311930537223816,-0.05026823654770851,0.010378598235547543,0.18108443915843964,-0.08994953334331512,-0.06452389061450958,0.28164535760879517,-0.0955260768532753,-0.013621561229228973,0.29102078080177307,0.05841000750660896,0.020060287788510323,-0.2569243013858795,0.08085627853870392,-0.08208383619785309,0.10329367965459824,-0.013170874677598476,-0.03303473815321922,-0.16367760300636292,0.09459979832172394,-0.02911873161792755,0.23732990026474,0.03759505972266197,-0.07989385724067688,-0.07570076733827591,-0.09861418604850769,-0.06734959036111832,0.18878281116485596,0.05240996181964874,0.08147550374269485,0.07907264679670334,-0.023524237796664238,0.08769380301237106,0.027266381308436394,0.13082058727741241,-0.11036995053291321,0.16365660727024078,-0.004329655319452286,-0.07476221024990082,0.17425332963466644,0.13267511129379272,0.032831016927957535,-0.09497319161891937,0.03908368945121765,-0.14650727808475494,-0.009730841033160686,0.0371398851275444,-0.04700954258441925,0.017895715311169624,0.008025535382330418,0.02331780269742012,0.008116532117128372,0.11987382918596268,-0.10165709257125854,-0.14508414268493652,0.11301061511039734,0.07864929735660553,-0.05120192840695381,0.013223960995674133,-0.044556163251399994,-0.06355368345975876,-0.06647305190563202,-0.06038014218211174,-0.17614327371120453,0.21635021269321442,-0.03903764486312866,0.08879826217889786,-0.026201579719781876,0.007126161828637123,-0.1498754471540451,0.021382423117756844,0.1474626064300537,0.10630112886428833,0.0267857164144516,-0.08553991466760635,-0.04495731741189957,0.05307646840810776,-0.018210191279649734,-0.15358294546604156,0.1611049920320511,-0.010493159294128418,-0.10964733362197876,0.033369679003953934,-0.1407046616077423,-0.002453845925629139,-0.037108294665813446,0.014264003373682499,-0.1444845199584961,0.008698134683072567,0.024587290361523628,-0.05454307422041893,-0.06589139252901077,-0.0063597518019378185,-0.18773341178894043,0.18300992250442505,0.1414944976568222,0.15027205646038055,-0.16730499267578125,-0.20196279883384705,-0.11748719215393066,0.19051547348499298,-0.13683591783046722,-0.04207773879170418,0.24070648849010468,-0.1449500471353531,-0.08110900223255157,0.2146683633327484,0.06164095550775528,0.07639048248529434,-0.1515083611011505,-0.12262986600399017,-0.054777760058641434,0.21525710821151733,0.21603886783123016,0.18205475807189941,-0.12188886106014252,0.04483675956726074,-0.11173027753829956,0.09538979828357697,-0.06323221325874329,0.21650971472263336,-0.07637858390808105,-0.16713547706604004,-0.022190535441040993,0.26800283789634705,0.10507816076278687,0.06706540286540985,0.29470255970954895,-0.12056785076856613,-0.14925527572631836,0.2581060528755188,-0.0013638957170769572,-0.1809646338224411,0.2737102508544922,-0.005937241483479738,-0.008981244638562202,0.06164861470460892,0.05749207362532616,-0.0338737815618515,-0.04359200596809387,-0.29903918504714966,0.03402557224035263,0.15559083223342896,0.4321649968624115,0.005433638580143452,-0.0752403736114502,-0.465420126914978,-0.021402927115559578,0.04381400719285011,-0.5147055387496948,-0.1729077398777008,0.255923330783844,-0.2784572243690491,0.0876622349023819,0.2622329592704773,0.201198011636734,-0.06588064879179001,-0.17852036654949188,-0.07834889739751816,0.26956743001937866,0.12073880434036255,0.30542781949043274,-0.08083444088697433,-0.22268502414226532,-0.20920740067958832,0.09882394224405289,0.2815069258213043,0.4656234383583069,0.16999033093452454,-0.1920318901538849,-0.2958675026893616,0.08308859169483185,0.19878660142421722,-0.18196552991867065,0.04021245986223221,0.24212083220481873,-0.4272690415382385,0.009178278967738152,0.15541717410087585,-0.40431278944015503,-0.13815240561962128,0.05888973921537399,-0.4806940257549286,0.04385010525584221,0.24934332072734833,0.0695924460887909,-0.20340858399868011,-0.11069238185882568,0.07912573218345642,-0.10871780663728714,-0.0351254940032959,0.1654713749885559,0.17575277388095856,-0.11037835478782654,0.10121376067399979,-0.00849808007478714,-0.05921798571944237,0.04411299526691437,-0.20244362950325012,-0.02601245976984501,0.10059119760990143,-0.09838633239269257,-0.09145879000425339,-0.04119161143898964,0.04837240278720856,-0.055357664823532104,-0.03146413341164589,0.009294985793530941,0.018398422747850418,-0.05115003511309624,0.12829875946044922,0.07743440568447113,0.09312349557876587,-0.1986977607011795,0.048363182693719864,-0.09256518632173538,0.03558726608753204,0.03135582059621811,-0.12268563359975815,-0.049978211522102356,0.13308671116828918,0.014476710930466652,-0.17665597796440125,-0.004765406250953674,-0.008058649487793446,-0.23230403661727905,0.0620366632938385,-0.16545599699020386,-0.2558705508708954,-0.14325007796287537,-0.05661456286907196,-0.01326272264122963,-0.13254329562187195,0.15539772808551788,0.022566569969058037,0.03657481074333191,-0.03603719174861908,-0.1241324245929718,0.19464823603630066,0.19467611610889435,0.1524394452571869,0.025959104299545288,-0.21463264524936676,0.10855851322412491,0.04883766546845436,-0.05210339277982712,-0.12833358347415924,0.0014273591805249453,-0.249139204621315,-0.05740823224186897,0.08437128365039825,-0.025703223422169685,0.03187001496553421,0.007171190343797207,0.14072321355342865,0.010232354514300823,0.053225550800561905,0.07846719771623611,0.07662471383810043,0.10194053500890732,0.01821940578520298,0.020831655710935593,0.15565712749958038,-0.041325442492961884,-0.13046111166477203,0.0033183193299919367,-0.18730933964252472,0.07244262099266052,-0.043825749307870865,-0.1472790241241455,-0.0989079549908638,0.15734337270259857,-0.13858941197395325,0.09606380760669708,0.1278262883424759,-0.03906543552875519,-0.006553879007697105,-0.0014472032198682427,-0.14539553225040436,0.014280609786510468,0.12134312838315964,0.05169220641255379,0.19283947348594666,0.01962488703429699,-0.14794592559337616,-0.2187008410692215,0.2168632596731186,0.21545499563217163,0.05014634504914284,0.03444800153374672,-0.01434310432523489,-0.0990828201174736,0.18269747495651245,-0.1648336797952652,-0.14113935828208923,0.12230932712554932,-0.11496192961931229,-0.12201213836669922,0.03450886160135269,0.143520787358284,0.11057718098163605,-0.1455179899930954,0.0664234533905983,-0.016603311523795128,0.020748885348439217,0.10177033394575119,0.27163755893707275,-0.07562579959630966,0.016896747052669525,-0.16334763169288635,0.18211422860622406,-0.03941839188337326,0.07845939695835114,-0.1597856730222702,0.06297538429498672,-0.20629800856113434,0.0810464471578598,-0.11296766251325607,0.00082688924157992,0.24341851472854614,-0.19959422945976257,-0.3068477213382721,-0.0509205162525177,-0.08601809293031693,-0.22061288356781006,-0.030676348134875298,-0.1314198076725006,-0.15216432511806488,-0.004617400001734495,0.048787813633680344,0.04754696041345596,-0.15932129323482513,0.18631872534751892,0.3797115385532379,-0.28665482997894287,-0.18347203731536865,-0.31110382080078125,0.3576902747154236,0.05489227920770645,0.11732162535190582,-0.06418317556381226,0.10321919620037079,0.2884242832660675,-0.22362129390239716,0.1455281525850296,0.20984111726284027,-0.1294880211353302,-0.14879532158374786,-0.3606151342391968,0.14740711450576782,-0.03574259206652641,0.13667595386505127,-0.35876718163490295,-0.05941095948219299,-0.292940616607666,0.18235185742378235,0.24249456822872162,0.2768527567386627,-0.16164202988147736,-0.08542469888925552,-0.27786415815353394,0.13882189989089966,0.1643066108226776,0.35965102910995483,-0.2740217447280884,0.01549046766012907,0.2787306308746338,-0.10051574558019638,0.15690283477306366,0.14249570667743683,-0.33719420433044434,0.22699792683124542,0.2445581555366516,-0.28334566950798035,0.21388623118400574,0.3067227602005005,-0.1038450300693512,-0.010411958210170269,-0.17937767505645752,0.04282009229063988,-0.14180532097816467,0.11809556931257248,0.2427530735731125,0.16749495267868042,-0.07584575563669205,-0.030524782836437225,0.027937108650803566,0.07767874747514725,0.03279152885079384,-0.16349034011363983,-0.15201619267463684,0.2965545058250427,-0.1566752940416336,-0.10565976053476334,0.24527095258235931,0.01505905482918024,-0.03940794989466667,-0.18615008890628815,-0.11202534288167953,-0.23431119322776794,0.13255496323108673,0.046125900000333786,0.10392981767654419,-0.031712427735328674,0.0208173505961895,0.015286188572645187,0.34393781423568726,0.10592186450958252,-0.036209966987371445,-0.0441114641726017,-0.05839838460087776,-0.17797528207302094,0.1309879571199417,-0.17250150442123413,0.0954451858997345,0.15731322765350342,-0.24334336817264557,-0.06314095109701157,0.24570326507091522,-0.06885366141796112,-0.004219925031065941,0.17321918904781342,-0.046345122158527374,-0.0790943130850792,0.1090887263417244,-0.05519943684339523,-0.06763601303100586,-0.042034149169921875,-0.11666698753833771,0.12352035194635391,0.0431198887526989,0.031039755791425705,-0.2052007019519806,0.11222967505455017,-0.1016598790884018,0.23145313560962677,-0.08400238305330276,-0.051651276648044586,0.1936742514371872,-0.029371552169322968,0.0898473784327507,-0.0005815121112391353,-0.10652568191289902,-0.019553426653146744,-0.058264825493097305,0.13497084379196167,-0.05524524301290512,0.16445039212703705,-0.004502907395362854,-0.014750429429113865,-0.010217156261205673,-0.14583174884319305,-0.05212738737463951,0.19909249246120453,-0.05728849768638611,0.14940664172172546,-0.13827210664749146,0.10768184065818787,-0.1736641377210617,0.07811414450407028,-0.00921466015279293,-0.010395549237728119,0.12870481610298157,0.08952407538890839,-0.03663821518421173,0.11196599900722504,0.13422469794750214,-0.058491598814725876,0.23900093138217926,-0.06704603880643845,-0.041879795491695404,0.09828595072031021,0.08678993582725525,0.11517086625099182,-0.08138694614171982,-0.1358576864004135,0.1933748424053192,-0.04553567245602608,0.019475897774100304,-0.18169303238391876,0.20986874401569366,0.22151575982570648,0.09887382388114929,-0.2536723017692566,0.013097841292619705,-0.019132375717163086,-0.08775783330202103,-0.06757880747318268,0.03387738764286041,-0.052781522274017334,-0.20049947500228882,-0.08057818561792374,-0.005801162216812372,0.036015063524246216,0.08289654552936554,0.03401254862546921,-0.12688377499580383,0.005687760654836893,0.10416784137487411,0.023370927199721336,0.0176220890134573,-0.19659191370010376,0.12109428644180298,-0.1448121964931488,0.10512064397335052,0.10344889014959335,0.20014669001102448,0.01695084571838379,0.0436868742108345,0.019722094759345055,-0.09944690763950348,-0.11952545493841171,0.003499515587463975,-0.08937617391347885,0.04222407564520836,-0.02565230429172516,-0.03019695356488228,-0.1604568213224411,0.0701197162270546,0.0037617271300405264,-0.11228334903717041,-0.10344196856021881,-0.10645962506532669,0.1148165687918663,0.0020845544058829546,-0.024527983739972115,0.06194281578063965,-0.038589611649513245,-0.12945438921451569,0.06741945445537567,0.04743257910013199,-0.030372153967618942,0.006825622171163559,0.055556200444698334,0.10610219836235046,-0.13815924525260925,-0.07339157909154892,-0.025154655799269676,-0.16664636135101318,0.03960905224084854,0.07292249798774719,0.15254755318164825,0.09405431896448135,0.1400272101163864,0.008486534468829632,0.17779047787189484,-0.06896460801362991,-0.03532971441745758,0.001294220332056284,0.14617431163787842,-0.1407650113105774,0.1797889620065689,0.023386767134070396,-0.05772663652896881,-0.08402486890554428,0.1483873575925827,-0.15996460616588593,-0.0714116096496582,0.09193362295627594,-0.14417436718940735,0.008683050982654095,0.08232709020376205,0.0231990497559309,-0.15920427441596985,0.15383096039295197,-0.14730897545814514,0.08402946591377258,-0.12051638960838318,-0.18396925926208496,0.02504870668053627,-0.13611316680908203,-0.08426187932491302,-0.21781811118125916,-0.11947908252477646,-0.04905370622873306,-0.36398598551750183,0.06970295310020447,0.1594524085521698,0.05393186956644058,-0.07150133699178696,0.20831264555454254,0.16012100875377655,-0.007731063291430473,0.010178380645811558,-0.11995705962181091,-0.19462355971336365,0.06793884187936783,0.03152576833963394,0.46122634410858154,-0.4249372184276581,0.774175226688385,-0.6579169631004333,-0.03615573048591614,0.8453708291053772,0.8677517771720886,-0.7103559374809265,0.20097561180591583,0.0907527431845665,-0.5152245759963989,-0.1521735042333603,0.12760919332504272,-0.7426105737686157,0.2700289189815521,0.5087605714797974,-0.14720307290554047,0.24419721961021423,-0.10087615996599197,0.14258843660354614,0.2815043032169342,-0.13824611902236938,0.06268695741891861,-0.07283278554677963,-0.0599365308880806,-0.11996706575155258,0.01710796169936657,-0.07805785536766052,0.013410771265625954,0.02512025088071823,0.07252645492553711,-0.12897688150405884,0.1580907255411148,-0.26846104860305786,-0.020489592105150223,-0.07358178496360779,-0.025464320555329323,0.1329139769077301,0.023552823811769485,0.05190920829772949,0.09911683946847916,0.24904659390449524,-0.13314563035964966,0.1298399716615677,0.09633942693471909,-0.2802511751651764,0.2451775223016739,0.35431724786758423,0.040187768638134,0.12183932960033417,-0.020856337621808052,0.34928765892982483,-0.03480362147092819,-0.19334937632083893,0.027519725263118744,-0.2877231538295746,-0.0896020457148552,-0.19230423867702484,0.13323616981506348,-0.18293675780296326,0.11418168991804123,0.3171384930610657,0.027833880856633186,-0.03160654008388519,0.24772122502326965,-0.08662638813257217,-0.03668766841292381,0.021846475079655647,-0.01863671839237213,0.011489748023450375,0.03528234362602234,0.02130378782749176,-0.27501925826072693,0.009841875173151493,-0.021393097937107086,-0.035755496472120285,0.20320259034633636,0.2585911154747009,-0.17337508499622345,-0.030657153576612473,-0.05495276302099228,-0.2767826020717621,-0.17711229622364044,0.1311311274766922,0.0672856867313385,0.10906917601823807,0.28549349308013916,0.19828246533870697,0.10888834297657013,0.38099661469459534,0.09126254916191101,-0.11446093767881393,0.26529231667518616,0.18034711480140686,-0.0771031454205513,-0.0012762532569468021,-0.27534452080726624,-0.08250690251588821,0.0977792739868164,-0.036981817334890366,0.2227959930896759,0.2741970121860504,0.24665474891662598,0.11220365017652512,0.24061258137226105,0.019081486389040947,-0.2101854532957077,-0.04977872967720032,-0.06821509450674057,-0.1938997358083725,0.11254923790693283,0.08972372114658356,0.09553458541631699,0.10804558545351028,0.38750502467155457,0.22545954585075378,-0.2541773021221161,-0.16635608673095703,0.03264402598142624,-0.3713521361351013,0.053689926862716675,-0.3115459680557251,-0.27068331837654114,0.23559370636940002,0.08397400379180908,-0.2606242895126343,0.19292007386684418,-0.16702494025230408,0.3360074460506439,-0.0764625295996666,0.4241814613342285,-0.4588450789451599,-0.4089035391807556,0.3169943392276764,0.3980610966682434,0.2899836599826813,0.332287073135376,-0.049694739282131195,0.3369872570037842,-0.3788226544857025,0.20367522537708282,-0.3256140947341919,0.0796169564127922,0.17537209391593933,-0.1713312417268753,0.06258586049079895,-0.27990543842315674,-0.17964474856853485,0.21820497512817383,-0.13786211609840393,-0.1960420310497284,-0.16683028638362885,-0.25297531485557556,-0.271365761756897,0.04390007257461548,0.1469069868326187,0.01777965947985649,-0.04191591963171959,-0.03748985752463341,-0.11714649945497513,-0.14076471328735352,-0.06117108464241028,0.2658572793006897,-0.3142516016960144,-0.27938112616539,0.06822896748781204,0.21799705922603607,-0.07139309495687485,0.11281856894493103,0.26249754428863525,0.1314157247543335,0.03952418640255928,0.22753570973873138,0.06740446388721466,-0.07286641746759415,0.10079135000705719,0.13096722960472107,0.2448466420173645,-0.31646645069122314,0.23438693583011627,0.012900344096124172,-0.24828262627124786,-0.003939501475542784,-0.09787099808454514,-0.034935977309942245,-0.2037196308374405,-0.2541719377040863,0.08225259184837341,-0.10283051431179047,0.18634825944900513,-0.015555152669548988,0.23636120557785034,0.06457943469285965,0.012272469699382782,0.22310787439346313,0.11987952142953873,-0.015785710886120796,-0.17946016788482666,-0.08519900590181351,-0.1401846706867218,-0.051661983132362366,-0.3409871757030487,0.11096707731485367,-0.3122527301311493,-0.09100120514631271,0.12665608525276184,-0.16090519726276398,-0.36656710505485535,-0.1468672901391983,0.06063221022486687,-0.1370711475610733,0.17314095795154572,0.2573026418685913,-0.2948967516422272,-0.15417273342609406,0.11259612441062927,0.08579239249229431,-0.16424672305583954,-0.220023050904274,0.15814337134361267,0.07347892969846725,0.014921351335942745,-0.24400925636291504,-0.0005911049665883183,-0.006023600231856108,-0.17366482317447662,-0.1039842963218689,0.008676026947796345,-0.21067816019058228,0.1606551706790924,0.2762182652950287,0.3943353593349457,0.017940545454621315,-0.08323218673467636,0.2539249062538147,-0.2350131869316101,0.005777769722044468,-0.04533727839589119,-0.16187874972820282,-0.01822087913751602,-0.20527784526348114,0.2873838245868683,-0.26936784386634827,-0.09015215933322906,0.16285569965839386,-0.0914149135351181,0.14835654199123383,0.5273758769035339,-0.3103518486022949,0.1507294625043869,0.13883845508098602,-0.21828711032867432,0.2522219717502594,0.3412909507751465,-0.2960161864757538,-0.11131329089403152,0.3891873061656952,0.04381052032113075,0.35322779417037964,-0.17524085938930511,-0.3262752890586853,0.2570238709449768,0.22522148489952087,0.5462735891342163,-0.048390310257673264,-0.13402509689331055,0.23234990239143372,-0.36513397097587585,0.3145333230495453,0.12935303151607513,0.1866314560174942,0.032157596200704575,0.1714058667421341,-0.1340382695198059,0.20140065252780914,-0.2184349000453949,-0.240135058760643,0.11925500631332397,0.12340061366558075,-0.08431272953748703,0.09657804667949677,-0.1901044100522995,0.02075975574553013,-0.06411617249250412,0.05686057358980179,0.00933933351188898,0.07177756726741791,-0.33544009923934937,0.11932490766048431,0.043187547475099564,0.10717583447694778,0.002489544916898012,-0.17219460010528564,-0.07798440009355545,0.049285899847745895,0.04289189353585243,0.10950944572687149,-0.18750923871994019,-0.025431714951992035,-0.014241168275475502,-0.185408353805542,-0.14375810325145721,0.0314268060028553,0.058903325349092484,-0.17042045295238495,0.015081812627613544,0.2038109004497528,0.0841955691576004,0.10508266091346741,-0.038126301020383835,-0.1544017642736435,-0.26864850521087646,0.10010229796171188,0.2100566178560257,0.07141949981451035,-0.20278885960578918,-0.09054015576839447,-0.28635817766189575,-0.09161641448736191,0.043552465736866,0.11943399906158447,-0.0855368822813034,-0.015528128482401371,0.020996510982513428,-0.004001132678240538,0.12645360827445984,0.11480451375246048,-0.18287776410579681,0.017914684489369392,-0.09241657704114914,-0.18284210562705994,0.12593886256217957,0.18992465734481812,-0.03061242587864399,-0.24510347843170166,-0.32795485854148865,-0.08867913484573364,-0.10143038630485535,0.34385743737220764,0.007358086295425892,0.06440169364213943,-0.25897637009620667,-0.30792269110679626,-0.0877012237906456,0.41201817989349365,-0.17753970623016357,0.03757113963365555,0.1281910538673401,0.22091181576251984,-0.23188915848731995,0.10734821856021881,-0.009854600764811039,-0.085640087723732,-0.2083940953016281,-0.2715569734573364,-0.22398728132247925,-0.32757219672203064,0.2094363123178482,0.0779697597026825,-0.2057279348373413,-0.21792083978652954,-0.19283859431743622,0.12327984720468521,0.16066668927669525,0.1484631597995758,-0.3196337819099426,-0.0621115118265152,-0.09126372635364532,0.19791877269744873,-0.18628300726413727,-0.16773532330989838,0.3658185601234436,-0.26550254225730896,-0.11084607243537903,0.2461526095867157,0.062172017991542816,0.0020980818662792444,0.41577577590942383,-0.016428837552666664,-0.12238802760839462,0.42966747283935547,0.006045715883374214,0.362033873796463,-0.21453621983528137,-0.04658669978380203,-0.08808522671461105,0.09516729414463043,0.1433274745941162,0.1377181112766266,-0.15551501512527466,-0.08185799419879913,0.07936345785856247,0.09091228246688843,0.03652109205722809,0.06484158337116241,-0.06798148155212402,-0.016533832997083664,0.0909990668296814,0.04175626486539841,-0.03412938863039017,-0.0446435809135437,0.008064485155045986,0.26661524176597595,-0.24254238605499268,0.10634297132492065,-0.05642937123775482,-0.004591329954564571,0.07748980820178986,0.03305301442742348,-0.18087555468082428,0.03251963108778,-0.07225523144006729,0.12404841929674149,-0.19574007391929626,-0.10742510110139847,-0.1780807375907898,0.17726153135299683,0.05283039063215256,0.061409857124090195,0.15858785808086395,-0.007160111330449581,0.024995893239974976,-0.04098872095346451,-0.277741938829422,0.28147807717323303,-0.026412272825837135,-0.26189124584198,0.23061153292655945,0.04857815429568291,-0.17123201489448547,0.3298165202140808,0.04757562279701233,-0.0649958997964859,-0.09109415858983994,-0.14201530814170837,-0.18953964114189148,0.06393352895975113,0.1605236530303955,0.23483164608478546,-0.17243199050426483,-0.2869327962398529,0.2653998136520386,0.10421138256788254,-0.12954764068126678,0.14123688638210297,0.2178107500076294,0.0749543234705925,-0.2280970960855484,0.12039778381586075,0.11944300681352615,0.006460083648562431,0.0015322037506848574,0.05067654699087143,-0.3070928752422333,-0.01563260145485401,0.12065033614635468,0.18299733102321625,-0.11606589704751968,-0.041051242500543594,0.05055268108844757,-0.10085692256689072,0.10494565218687057,0.27964118123054504,-0.06913550198078156,-0.051575493067502975,0.14428846538066864,0.15982654690742493,-0.047143831849098206,0.2912212908267975,0.05232822149991989,-0.1014816164970398,0.3565026819705963,0.20053160190582275,-0.19566990435123444,0.1727273017168045,-0.027862900868058205,0.028830962255597115,0.07612873613834381,0.016878766939044,0.2111651450395584,-0.18198008835315704,-0.0985831767320633,-0.013628748245537281,0.07983417063951492,0.11837801337242126,-0.07414655387401581,-0.1587163507938385,0.05090596526861191,-0.03887920454144478,-0.05897074565291405,0.23267793655395508,0.261382520198822,0.0847582295536995,0.14016321301460266,0.053436748683452606,-0.19470812380313873,-0.11324778199195862,-0.26781484484672546,0.08276605606079102,-0.05720124393701553,0.07847588509321213,0.04338206723332405,0.10345594584941864,0.08810882270336151,0.0701032280921936,-0.004272785037755966,-0.07488474994897842,-0.038502324372529984,-0.10401104390621185,-0.001420066924765706,0.1324603110551834,0.005011338274925947,0.07768964022397995,-0.0868428498506546,0.19911688566207886,0.2529270052909851,-0.28059548139572144,-0.1409369707107544,0.09951333701610565,-0.1161593422293663,-0.01997998356819153,-0.036873895674943924,-0.12471402436494827,-0.03335407003760338,-0.08584490418434143,0.16534508764743805,0.25777411460876465,0.12583941221237183,-0.0736917182803154,-0.03163447603583336,-0.18824303150177002,-0.10732164978981018,0.05530501902103424,0.14972364902496338,0.02275484800338745,-0.01861492358148098,-0.0975702628493309,0.022078610956668854,0.07359839230775833,-0.03746090456843376,-0.21951670944690704,0.14259588718414307,0.1015988364815712,0.11851635575294495,0.01759246736764908,0.2132052779197693,0.16521476209163666,-0.2774342894554138,-0.2824666500091553,0.10227812081575394,-0.2191668450832367,0.19615031778812408,0.09642768651247025,0.24835065007209778,-0.10540862381458282,0.15821491181850433,-0.14439724385738373,0.02671463042497635,0.0582474060356617,0.1346941441297531,-0.02674507163465023,0.227243110537529,-0.11459852755069733,-0.13610365986824036,0.14576108753681183,0.13292014598846436,-0.025706039741635323,0.07261431217193604,-0.15013737976551056,0.08648738265037537,-0.0956113189458847,0.09928622841835022,-0.21595227718353271,0.05812447518110275,-0.2130255401134491,0.05625781789422035,0.014981715008616447,0.005900893826037645,0.05803277716040611,0.0712706595659256,0.2327890843153,-0.10857050120830536,-0.10868862271308899,-0.07775158435106277,0.19952280819416046,0.13636329770088196,0.017648272216320038,0.0642252117395401,0.05920586362481117,0.034679945558309555,0.06899026781320572,0.1443002074956894,0.027889041230082512,-0.036531928926706314,0.1332889199256897,0.15967229008674622,0.21004556119441986,-0.015021947212517262,0.1624424308538437,-0.06316497176885605,0.00006370565824909136,-0.18054057657718658,-0.09590736776590347,0.05884251371026039,0.07582380622625351,-0.024379905313253403,0.09205412864685059,-0.07216392457485199,0.14316512644290924,-0.08532102406024933,-0.030851585790514946,0.13969126343727112,-0.014162634499371052,0.06525260210037231,0.10067912936210632,-0.11912152916193008,-0.2438754439353943,-0.1275893896818161,-0.10992176830768585,-0.10727371275424957,-0.015237041749060154,-0.10489106923341751,0.09141512960195541,-0.07453745603561401,-0.13436579704284668,0.02649138867855072,0.2282603234052658,0.20202064514160156,0.054913267493247986,-0.1342189610004425,-0.303101509809494,-0.08551385253667831,0.13455063104629517,-0.5265427231788635,-0.36254262924194336,-0.16094468533992767,-0.052314531058073044,-0.3061772882938385,-0.29901355504989624,0.6165708899497986,0.2579704523086548,0.12141448259353638,-0.21906812489032745,-0.21515238285064697,-0.008777235634624958,0.20123983919620514,0.08911225199699402,-0.02658727392554283,-0.033276863396167755,-0.1873953938484192,0.19584687054157257,0.1905517727136612,0.1711607128381729,-0.08019426465034485,-0.09595801681280136,-0.27713391184806824,-0.031730156391859055,-0.4608600437641144,-0.4181317389011383,-0.012845185585319996,-0.23653876781463623,-0.10127320140600204,-0.027944352477788925,-0.052696939557790756,-0.08596871048212051,-0.035627953708171844,-0.03680993244051933,-0.02697235532104969,0.1289457082748413,-0.15492315590381622,-0.013860362581908703,-0.12904512882232666,0.18881621956825256,0.3552955687046051,-0.05934039503335953,-0.15358395874500275,-0.2969675362110138,-0.05852438509464264,0.1952052116394043,0.12178508937358856,0.0785285010933876,0.10819684714078903,0.026325924322009087,-0.09176212549209595,-0.011904964223504066,-0.02174311690032482,0.009459883905947208,-0.15717731416225433,-0.020894048735499382,4.978738843419706e-7,0.011020402424037457,0.4218113422393799,-0.21364009380340576,0.003149252850562334,-0.3590773344039917,0.1844121366739273,-0.07939906418323517,0.2512461841106415,0.0838923379778862,0.08405914157629013,-0.18766339123249054,-0.06806553900241852,-0.09951562434434891,0.2002718299627304,-0.18469499051570892,0.048735395073890686,0.08102702349424362,0.09310949593782425,0.05815532058477402,0.23753637075424194,0.08181523531675339,0.2843880355358124,-0.31915807723999023,0.0659298375248909,0.03380396217107773,-0.09503048658370972,0.1261642426252365,0.020853441208600998,-0.44966650009155273,-0.03376270458102226,0.22498704493045807,-0.04597589001059532,-0.18154564499855042,-0.22143606841564178,0.1733369678258896,0.21636201441287994,0.0851542204618454,-0.10989563912153244,-0.11206573247909546,0.07986031472682953,0.0062840585596859455,-0.10142485797405243,0.02668990194797516,0.04076894372701645,0.12087718397378922,-0.20497481524944305,0.1116185337305069,0.20986798405647278,0.3959178328514099,-0.030527085065841675,-0.08805067837238312,-0.3776129484176636,0.07355815917253494,0.1780572384595871,0.1718568056821823,0.03728782758116722,-0.12570659816265106,-0.3154451847076416,0.041422586888074875,0.1692948192358017,0.18538807332515717,-0.04492991045117378,0.03965463116765022,0.043228890746831894,-0.2046501636505127,-0.1501072198152542,0.17696943879127502,-0.21409988403320312,-0.13927032053470612,-0.39707013964653015,-0.11469018459320068,0.20186789333820343,0.06787746399641037,-0.3618910610675812,0.037668824195861816,-0.2064656764268875,0.061531830579042435,0.07752490043640137,-0.0922071561217308,0.03730040416121483,-0.10492920130491257,-0.10095016658306122,0.08185768872499466,-0.1366792768239975,-0.10072916001081467,0.037770889699459076,0.20944267511367798,-0.1106528639793396,-0.010846284218132496,0.12253843992948532,0.10821468383073807,-0.07072767615318298,-0.10311640053987503,0.09067147225141525,0.01124882884323597,-0.13374342024326324,-0.35056084394454956,0.31193745136260986,0.322664737701416,0.06437314301729202,0.13723787665367126,0.08729918301105499,-0.1374945491552353,-0.06662017852067947,0.1125686839222908,0.011305836960673332,-0.09622041136026382,-0.03708831965923309,0.024829616770148277,-0.0725795328617096,-0.06325514614582062,0.06812723726034164,0.05532361939549446,0.14692293107509613,0.015006449073553085,0.007143567316234112,0.0835912898182869,0.1584838181734085,-0.15767551958560944,0.23599044978618622,0.2578521966934204,0.01375229749828577,0.017981484532356262,0.12536418437957764,-0.033544108271598816,0.069950170814991,0.021721772849559784,0.008600066415965557,-0.09515386819839478,0.06186792254447937,0.03197965770959854,-0.1286090761423111,-0.23781445622444153,0.09306032210588455,0.11678821593523026,-0.0015180674381554127,0.055289436131715775,0.11265114694833755,0.03210856765508652,-0.08836837857961655,-0.06829817593097687,0.010585777461528778,0.03479340299963951,-0.09700890630483627,-0.23258672654628754,0.07043261080980301,0.01784680411219597,0.19791246950626373,0.04233318567276001,0.017330413684248924,0.05119654908776283,-0.050911400467157364,-0.09686307609081268,-0.07103987783193588,0.03960254043340683,-0.016166381537914276,-0.1383201777935028,0.16395466029644012,-0.022917307913303375,-0.13937431573867798,-0.00944578554481268,0.14771248400211334,-0.1625816524028778,-0.06829581409692764,0.08821817487478256,-0.022506428882479668,-0.5089737176895142,0.02638501115143299,0.05353616923093796,-0.04650628939270973,-0.047547850757837296,-0.07835757732391357,-0.07679896056652069,0.07098440825939178,-0.032074663788080215,0.04922649636864662,-0.15656942129135132,0.04931582883000374,0.04017842933535576,-0.0022610954474657774,0.21497361361980438,0.09696970880031586,-0.11602989584207535,0.07317163795232773,0.0043240925297141075,-0.09428615868091583,0.1814376264810562,-0.0035374071449041367,-0.1338469386100769,-0.09239621460437775,-0.04336906969547272,0.2835705876350403,-0.11455065757036209,-0.05346401780843735,-0.13084858655929565,-0.15819868445396423,-0.10183176398277283,0.07250146567821503,-0.09532561898231506,0.0882762148976326,0.08335938304662704,-0.05340227484703064,0.05830001085996628,-0.07485207170248032,0.1404942125082016,0.09898599237203598,-0.027602771297097206,0.19119560718536377,-0.0957050621509552,-0.1496371328830719,0.1680341362953186,-0.12543745338916779,0.11590836942195892,0.23821794986724854,0.13326424360275269,-0.040698107331991196,0.21940571069717407,-0.13911767303943634,0.019878679886460304,0.13823732733726501,0.06883988529443741,0.09060648828744888,-0.04970182105898857,-0.105071060359478,0.10812008380889893,0.01754145137965679,0.2545927166938782,0.08215941488742828,0.07192396372556686,-0.18188023567199707,0.12204195559024811,-0.008823475800454617,-0.13305842876434326,0.06941185891628265,0.1449812352657318,-0.09411165118217468,0.27334579825401306,-0.06321074068546295,0.10651282966136932,-0.12947525084018707,-0.39278340339660645,0.43766680359840393,-0.20302091538906097,0.06320460885763168,0.03930189833045006,-0.058337949216365814,0.06137094274163246,-0.04558233544230461,0.10443805903196335,0.04668981954455376,-0.09881584346294403,0.11179928481578827,0.01602971740067005,0.018455060198903084,-0.017779601737856865,-0.015911996364593506,-0.07228567451238632,0.011630448512732983,-0.06187533587217331,-0.10496419668197632,0.0691380649805069,0.3113939166069031,-0.3929874002933502,0.10400384664535522,0.16415467858314514,-0.37008190155029297,0.07786240428686142,-0.08146917819976807,-0.14676544070243835,0.07174396514892578,-0.023533519357442856,-0.045728180557489395,0.06337468326091766,-0.01620754972100258,0.1995444893836975,-0.16877435147762299,-0.10730858147144318,0.08324915170669556,0.16852101683616638,-0.10084163397550583,-0.10661773383617401,0.05929701775312424,0.03583696112036705,0.008334051817655563,-0.035642288625240326,0.19840259850025177,-0.03127410262823105,-0.16569912433624268,0.04386306554079056,0.08052682131528854,0.2748042941093445,-0.003508075373247266,0.18214553594589233,-0.17319680750370026,0.13115206360816956,-0.25700613856315613,0.07211998105049133,-0.17259804904460907,0.006938986014574766,0.00938230101019144,0.05346090719103813,-0.03866672143340111,0.2211725115776062,0.002478006761521101,-0.008033120073378086,0.14094947278499603,-0.03234754130244255,-0.0260208360850811,0.06470906734466553,-0.2146836370229721,-0.020631974563002586,0.0381099097430706,-0.1824721246957779,-0.041063062846660614,-0.10334882885217667,0.028967808932065964,0.20461256802082062,-0.07826583087444305,-0.10846510529518127,0.08683236688375473,-0.26740139722824097,-0.022467277944087982,-0.05132158473134041,0.09976521134376526,0.17486850917339325,0.1892491728067398,0.09768519550561905,0.8160895109176636,0.9403660893440247,0.36765381693840027,0.12757915258407593,0.2303360253572464,0.2159072458744049,-0.533697783946991,-0.6637141108512878,-0.3283112049102783,0.082187220454216,0.09425409883260727,-0.12400312721729279,-0.095147043466568,-0.33526989817619324,-0.17776262760162354,-0.058522388339042664,0.039556317031383514,-0.05397472158074379,-0.19673126935958862,0.010632815770804882,0.15679937601089478,0.1773088574409485,0.3133518099784851,-0.028779763728380203,0.3605574071407318,0.3516707420349121,0.20449528098106384,0.07493822276592255,0.027500677853822708,0.05656915530562401,0.3437573313713074,0.3212629556655884,-0.09601617604494095,0.19704699516296387,0.08868759870529175,0.03799853473901749,0.1185368150472641,0.15770959854125977,0.2736729681491852,0.2167390137910843,0.03625735267996788,-0.0524100661277771,0.060803886502981186,-0.29977935552597046,0.15260078012943268,0.08008105307817459,0.31347572803497314,-0.029692567884922028,-0.09790968894958496,0.01598716713488102,0.028227394446730614,0.12890037894248962,0.06626985222101212,0.08497513830661774,-0.3605252206325531,-0.3598070740699768,-0.03609677404165268,0.5347985029220581,-0.6752408742904663,0.2722160518169403,-0.7774621844291687,-0.16010288894176483,-0.2814047932624817,0.8737133741378784,-1.1467978954315186,-0.7250305414199829,-0.8476613163948059,-0.014098754152655602,-0.9781273007392883,0.40516844391822815,-0.9428468346595764,-0.21940508484840393,-0.12430969625711441,-0.10234808176755905,0.3034117817878723,0.07414624094963074,0.17030413448810577,-0.1432356834411621,-0.06581592559814453,-0.20500393211841583,0.12133771926164627,-0.030216170474886894,0.10880961269140244,0.10457541793584824,0.238751620054245,-0.23276850581169128,-0.017547905445098877,0.07783158868551254,-0.13663725554943085,-0.14034971594810486,0.011282302439212799,-0.2742083668708801,0.1417866200208664,-0.15241199731826782,-0.3419685959815979,0.24110472202301025,-0.26444554328918457,-0.022039109840989113,0.005488802213221788,0.2504931688308716,0.1797998994588852,-0.02000085636973381,0.13399147987365723,-0.15840080380439758,-0.17781133949756622,-0.1321936398744583,0.259093314409256,-0.05606860667467117,0.3420692980289459,-0.16372700035572052,-0.05362037196755409,0.039929479360580444,0.005151158198714256,-0.23314397037029266,-0.19828346371650696,0.08010433614253998,-0.3186390995979309,-0.13313445448875427,0.19064632058143616,0.035043761134147644,0.306021511554718,-0.09982682764530182,-0.396241694688797,-0.1559436023235321,0.001877273665741086,0.06647545844316483,0.0881776288151741,0.08995459228754044,-0.03624371811747551,0.03575829789042473,0.3156077265739441,-0.11299260705709457,0.016685228794813156,0.04699665307998657,0.002390996553003788,0.3311081528663635,0.28598445653915405,0.033275436609983444,-0.3612269461154938,0.29923129081726074,-0.16712069511413574,-0.10955112427473068,0.3612692058086395,0.3402009904384613,-0.3688133955001831,0.1668497771024704,0.26013341546058655,-0.1956198513507843,-0.2861804962158203,-0.10982584208250046,-0.3164709806442261,-0.2620479166507721,-0.05511200428009033,-0.23628906905651093,-0.01997256837785244,0.16911917924880981,-0.23197180032730103,0.07545645534992218,-0.05243174359202385,-0.11616477370262146,0.3312569558620453,0.11114572733640671,0.06105784326791763,-0.1523803323507309,0.036472443491220474,0.1517793983221054,0.34413695335388184,0.15242929756641388,0.03201993182301521,0.20782385766506195,-0.13239748775959015,0.045217059552669525,0.25033238530158997,0.02411462366580963,-0.18636538088321686,0.2259114682674408,0.05495621636509895,-0.1139666736125946,0.14366182684898376,-0.1926852911710739,-0.16380231082439423,0.0328829288482666,0.2416541874408722,0.06396349519491196,0.07481682300567627,0.1204119473695755,0.09240802377462387,0.23605293035507202,-0.3463146388530731,0.21470919251441956,0.1995006650686264,-0.07585117220878601,0.2044961005449295,-0.05151674896478653,0.07911376655101776,-0.16509830951690674,0.08384185284376144,0.26388540863990784,-0.16023114323616028,0.07098820060491562,0.1356123387813568,-0.22818180918693542,-0.00988713838160038,-0.3352859914302826,-0.03456396609544754,0.10119441151618958,-0.16772741079330444,0.09601627290248871,0.17560485005378723,0.28532037138938904,0.03954426199197769,-0.13068905472755432,0.1345711201429367,-0.003040741430595517,0.3756757080554962,0.05738447979092598,0.14386750757694244,0.09747815877199173,0.03426693379878998,0.07757928967475891,-0.31218186020851135,0.15270081162452698,0.09471921622753143,-0.025085290893912315,-0.061875637620687485,0.0581883005797863,0.10158418118953705,0.038598138839006424,-0.1870362013578415,0.2500254511833191,-0.20950886607170105,0.06800750643014908,-0.2165362536907196,-0.24421967566013336,0.23391848802566528,-0.021660400554537773,0.0503595694899559,-0.1225721687078476,-0.15914911031723022,0.26822954416275024,0.28784507513046265,-0.2984486222267151,-0.08230025321245193,0.19792139530181885,-0.018655333667993546,-0.09664936363697052,0.12175445258617401,0.10881216078996658,0.4312569200992584,-0.15423083305358887,0.03514837101101875,-0.32959356904029846,-0.1581876128911972,0.20444637537002563,0.18623638153076172,-0.19946900010108948,0.1955355852842331,0.2088373750448227,-0.23439450562000275,-0.0953187644481659,-0.10667648911476135,0.1900399923324585,-0.19695225358009338,-0.2754453122615814,-0.2960103154182434,-0.11173156648874283,0.28181564807891846,-0.07355327159166336,0.07950647920370102,-0.13354119658470154,0.07617136090993881,-0.3080689311027527,0.07049122452735901,-0.23421989381313324,-0.10925357043743134,0.1373731940984726,-0.23838859796524048,-0.056781698018312454,0.027975425124168396,0.12081384658813477,0.00430644303560257,-0.27010205388069153,0.45105406641960144,-0.36084744334220886,0.1373259276151657,-0.12542445957660675,-0.2589953541755676,0.06740112602710724,0.3706204295158386,-0.10811536014080048,-0.20964805781841278,0.28150394558906555,-0.009789889678359032,-0.09849893301725388,-0.22899127006530762,0.015359602868556976,0.31841152906417847,0.15326938033103943,-0.2560068666934967,-0.09366320073604584,-0.1552155315876007,0.23853839933872223,0.24544622004032135,-0.12695707380771637,-0.019593244418501854,0.10770406574010849,0.19469784200191498,-0.32992303371429443,0.28144383430480957,0.24342502653598785,0.05738046392798424,0.33195924758911133,-0.3989209234714508,-0.08661244809627533,0.16813546419143677,-0.3353264629840851,0.1267259120941162,-0.09091642498970032,0.13638275861740112,0.124689981341362,-0.043561048805713654,-0.28050434589385986,-0.16478216648101807,-0.10397626459598541,-0.15430350601673126,-0.15377947688102722,-0.2619992792606354,-0.040344372391700745,0.03531986102461815,0.14806312322616577,-0.0028503520879894495,-0.3471696078777313,0.0958159863948822,0.19671772420406342,-0.0192292220890522,0.20535925030708313,-0.06381143629550934,0.06572553515434265,-0.22057455778121948,0.07870036363601685,-0.2941146790981293,-0.14759880304336548,-0.33829808235168457,-0.06716188043355942,-0.16255740821361542,-0.12816332280635834,0.2776673138141632,0.07018781453371048,-0.13567259907722473,-0.1408061385154724,-0.03915316238999367,0.06730884313583374,-0.03609428554773331,-0.06937173008918762,0.08274057507514954,0.27400824427604675,0.01941705495119095,-0.12545146048069,0.14845222234725952,0.07947507500648499,-0.14105552434921265,-0.1340962052345276,0.04052120819687843,0.1783849447965622,0.13907726109027863,0.14700381457805634,-0.21607160568237305,-0.08850589394569397,0.17667798697948456,0.19108036160469055,0.10429507493972778,0.030441969633102417,-0.17825180292129517,-0.20198844373226166,0.009330258704721928,0.01925254613161087,-0.25981444120407104,-0.037140294909477234,0.15976721048355103,-0.2623201906681061,-0.18784785270690918,0.09637437760829926,-0.056922268122434616,0.16811558604240417,0.06959772855043411,0.03104693442583084,0.03930729255080223,0.004841609392315149,0.12819404900074005,0.011570379137992859,-0.020459996536374092,-0.012897648848593235,-0.11037671566009521,0.1808532476425171,-0.020153405144810677,0.3194441497325897,-0.24184802174568176,0.2188872992992401,0.08762764185667038,0.1904633790254593,-0.04762803390622139,-0.13723962008953094,-0.17432871460914612,0.07851096987724304,0.1755959689617157,-0.09001235663890839,-0.05718700960278511,0.08912939578294754,0.04014381766319275,0.23744797706604004,-0.08823338150978088,0.15906091034412384,-0.15383851528167725,-0.06884155422449112,-0.1169838234782219,0.12040535360574722,-0.03582986444234848,-0.10211624205112457,0.0737256109714508,0.15372782945632935,0.025733400136232376,0.294766366481781,0.15147683024406433,0.09686660766601562,0.09072080254554749,-0.16300904750823975,-0.13550393283367157,-0.06664232909679413,-0.08132446557283401,-0.02218783088028431,-0.03034256026148796,0.025891676545143127,-0.1885940581560135,-0.05338909849524498,-0.06978315114974976,0.07668975740671158,0.23800639808177948,0.2746785283088684,-0.2651980221271515,0.33598485589027405,0.02759285643696785,0.06140129640698433,-0.24292585253715515,-0.14614351093769073,-0.12533269822597504,0.23221763968467712,0.07182732969522476,0.025793753564357758,0.09027751535177231,0.1365988850593567,-0.2071732133626938,0.09103018790483475,-0.0622246116399765,0.0700531005859375,-0.0075316475704312325,-0.06567878276109695,0.057369574904441833,0.11660318076610565,0.25002825260162354,-0.054129768162965775,-0.16377350687980652,0.03830711543560028,0.22097547352313995,0.1097046285867691,-0.013299468904733658,-0.14259743690490723,-0.028991973027586937,0.06504443287849426,0.049263469874858856,-0.027493564411997795,0.08583113551139832,-0.09931974858045578,0.013787397183477879,0.004722557496279478,-0.0009484734036959708,0.14956699311733246,0.06081104651093483,-0.05194835364818573,0.03981846570968628,-0.1388629674911499,0.06830856204032898,0.4097578525543213,-0.19337332248687744,-0.07766703516244888,-0.2719663381576538,-0.31804025173187256,0.26983457803726196,-0.0029851170256733894,-0.09297339618206024,0.25154319405555725,-0.06368258595466614,0.6752232313156128,-0.17286734282970428,0.1700461059808731,0.15175165235996246,-0.17172902822494507,0.22967834770679474,-0.06518086045980453,-0.2349151223897934,0.03268250823020935,-0.04789866507053375,-0.20348301529884338,-0.08048830926418304,-0.002053122268989682,0.24009089171886444,0.31255343556404114,0.11531621217727661,-0.1727820485830307,-0.11061976104974747,0.11938895285129547,0.22520576417446136,0.08505047857761383,-0.05371754616498947,-0.09105291962623596,-0.1252128928899765,-0.005225825123488903,0.025943413376808167,0.16460661590099335,0.08379679918289185,-0.07418465614318848,0.2960682511329651,-0.42073988914489746,-0.12667609751224518,0.032577209174633026,-0.09589707106351852,-0.09374793618917465,0.23553107678890228,-0.05496237426996231,0.015145272016525269,-0.07504362612962723,-0.8408182263374329,0.19741515815258026,-0.07556628435850143,0.27682510018348694,0.2199430614709854,-0.12901124358177185,-0.1822366863489151,0.017087655141949654,0.11827173829078674,0.04575848951935768,0.1558629423379898,-0.11599081754684448,0.07273228466510773,0.023401742801070213,-0.08372224122285843,0.1723536252975464,-0.10351023077964783,0.07713432610034943,-0.0011883348925039172,-0.2753625810146332,0.031716011464595795,0.07641810923814774,-0.03600043058395386,-0.30085182189941406,-0.10300885140895844,0.1685992032289505,0.07092662900686264,-0.14331896603107452,-0.008231982588768005,-0.062550388276577,-0.07035564631223679,0.2093854546546936,0.1362392008304596,0.027716368436813354,-0.09223302453756332,-0.22221924364566803,-0.04497672617435455,0.14583751559257507,-0.08899283409118652,0.08647509664297104,-0.20444099605083466,-0.24270443618297577,0.027177495881915092,0.08624377846717834,-0.16545288264751434,-0.07028921693563461,0.2506311237812042,0.028950897976756096,0.1561790108680725,-0.003530399175360799,0.16786716878414154,-0.13933534920215607,-0.17709819972515106,0.14180432260036469,0.0413183718919754,-0.248981773853302,0.07278001308441162,0.0463903471827507,0.3776892125606537,-0.03805738314986229,-0.09829334169626236,-0.15097559988498688,-0.037323299795389175,-0.07148765027523041,-0.05405978113412857,0.08807156980037689,-0.11818039417266846,-0.01982354186475277,-0.19438603520393372,-0.13116644322872162,-0.010918419808149338,0.022964883595705032,0.14350664615631104,-0.006450172048062086,-0.02885878086090088,0.003486298257485032,0.3803700804710388,0.08587577939033508,-0.00861035194247961,-0.29678234457969666,-0.06900793313980103,0.052299726754426956,0.15917997062206268,0.09007428586483002,0.03661159425973892,-0.10763265937566757,0.060662418603897095,0.5254533290863037,0.13656660914421082,0.02064317837357521,-0.024179400876164436,-0.04728676751255989,0.021570896729826927,0.08203628659248352,0.029052723199129105,-0.0007116663618944585,-0.1455681324005127,-0.4005967676639557,0.2526976466178894,0.029065657407045364,0.3975096344947815,-0.19300813972949982,-0.08845753967761993,0.05578209087252617,0.39950335025787354,0.04145359992980957,0.239116832613945,-0.011612924747169018,-0.07271285355091095,0.04886752367019653,-0.04337260127067566,0.23108439147472382,0.2943069040775299,-0.07720707356929779,-0.2293815165758133,-0.07632006704807281,-0.04515061154961586,0.11018996685743332,-0.14164525270462036,-0.14646612107753754,-0.08630669862031937,0.013044591061770916,0.21705779433250427,0.11819655448198318,-0.244425967335701,-0.18955597281455994,-0.03295064717531204,0.22359952330589294,-0.019213842228055,0.12934115529060364,-0.2341608703136444,-0.27084800601005554,0.01817624643445015,0.004545678850263357,-0.09944058209657669,0.09434472024440765,0.05746602639555931,-0.22029206156730652,-0.09590034931898117,0.25679391622543335,0.021693062037229538,0.10560213029384613,0.20181483030319214,-0.2814793884754181,0.08535830676555634,-0.14877408742904663,0.10166263580322266,0.1151387169957161,0.10620549321174622,0.05773494765162468,0.18500974774360657,-0.24570666253566742,0.11139059066772461,0.2328076809644699,0.1698928326368332,-0.09480385482311249,0.20720335841178894,-0.06332432478666306,-0.20852404832839966,-0.01405900064855814,0.05183376744389534,-0.03719320148229599,-0.06207410246133804,0.039824288338422775,0.10448803752660751,0.021076185628771782,-0.0316568985581398,0.08812376856803894,0.14476752281188965,0.12455496937036514,0.014751404523849487,0.10902407020330429,0.09521815180778503,0.031672775745391846,0.18715901672840118,-0.07681252807378769,-0.11481428891420364,-0.04744187742471695,-0.1391448825597763,0.04640055075287819,-0.08230239152908325,-0.06549636274576187,-0.45627832412719727,-0.14210179448127747,-0.20451544225215912,-0.07459017634391785,0.129572793841362,0.14926768839359283,-0.21389201283454895,0.10577894002199173,0.11736442893743515,0.29687994718551636,0.27921730279922485,0.16054953634738922,-0.2599413990974426,-0.12201674282550812,0.06344997137784958,-0.16731254756450653,-0.13640055060386658,-0.12683331966400146,0.2362547367811203,0.25323158502578735,0.44074776768684387,-0.20076651871204376,0.1254957765340805,0.04462525621056557,-0.3052181601524353,0.09995190054178238,0.5187811851501465,-0.13950760662555695,0.0763297975063324,0.07651709020137787,0.18984928727149963,-0.11054948717355728,-0.25378820300102234,-0.18179650604724884,-0.05641791969537735,0.16403798758983612,0.24382027983665466,-0.1309804469347,-0.24480636417865753,-0.12496504187583923,-0.04815952107310295,0.22505779564380646,0.148175448179245,0.0017460675444453955,-0.09438878297805786,-0.14369016885757446,0.0770711898803711,-0.002632059622555971,-0.10592789202928543,0.0029400866478681564,-0.03941204026341438,-0.29025501012802124,0.07154835760593414,-0.0022859361488372087,-0.14582370221614838,0.19091011583805084,0.15814852714538574,0.07383794337511063,0.12864476442337036,-0.04964155703783035,0.1806226670742035,0.6825400590896606,0.045921824872493744,-0.31849879026412964,-0.07548162341117859,-0.10503361374139786,0.11515527218580246,-0.1622496396303177,0.25740644335746765,-0.10601357370615005,-0.00764871621504426,0.17942266166210175,-0.06005128473043442,0.029015110805630684,-0.05970323085784912,0.2727937400341034,0.0026699830777943134,-0.09444022178649902,-0.03833615407347679,-0.0025547295808792114,-0.08615393936634064,-0.2635036110877991,-0.04242553189396858,-0.08577398210763931,0.10568775236606598,-0.21516761183738708,-0.18316732347011566,-0.14607688784599304,-0.12662780284881592,0.16589732468128204,0.18959622085094452,-0.10230299830436707,-0.06752263754606247,-0.06691353023052216,0.002624453278258443,0.022740112617611885,-0.16109779477119446,0.25981998443603516,-0.20329460501670837,-0.18253199756145477,-0.0335366353392601,0.017733046784996986,-0.14434678852558136,-0.11644911766052246,0.12054815888404846,0.10243284702301025,0.49541234970092773,-0.23673535883426666,0.17550009489059448,-0.051912155002355576,-0.11928572505712509,-0.27718183398246765,-0.2863791882991791,-0.20318888127803802,0.06264353543519974,0.26895543932914734,0.035888709127902985,-0.0139119578525424,-0.09131015092134476,0.08438925445079803,0.06413142383098602,0.01737823337316513,0.1644447296857834,0.19965647161006927,-0.026035897433757782,0.07234667241573334,-0.012800919823348522,0.07668805867433548,-0.1305776685476303,0.14120300114154816,0.07958301156759262,-0.027006857097148895,0.15310533344745636,0.2910498082637787,0.03954669088125229,0.05273733288049698,0.06813658028841019,0.09807582199573517,0.03775819391012192,0.12827999889850616,0.052816327661275864,0.03620701655745506,-0.0926196426153183,0.05344201251864433,0.3651408851146698,-0.1205027773976326,0.17170414328575134,-0.09982877224683762,-0.16852670907974243,-0.06242285296320915,0.19953611493110657,-0.1952981948852539,-0.10926024615764618,-0.057373907417058945,-0.06364226341247559,-0.07939198613166809,0.017883921042084694,-0.11867669224739075,-0.12027192860841751,0.19615067541599274,-0.012548653408885002,0.0015113300178200006,0.05891747772693634,-0.27834004163742065,0.3219928443431854,0.13143257796764374,-0.13775597512722015,0.10025017708539963,-0.06494348496198654,-0.14771533012390137,0.05936335772275925,-0.1183372288942337,-0.07578782737255096,0.0939774438738823,-0.21438701450824738,-0.09099835157394409,0.058589763939380646,-0.02068488486111164,-0.2612456679344177,0.10165727138519287,-0.0790216401219368,-0.011271351017057896,-0.18120437860488892,-0.08142157644033432,-0.01233620848506689,-0.15143874287605286,-0.2729514241218567,-0.0114462710916996,-0.16097280383110046,-0.030115947127342224,-0.1335066258907318,-0.0826062560081482,0.0828733891248703,0.2701778709888458,-0.12485859543085098,0.2472793161869049,-0.02422153763473034,0.02634725533425808,-0.08452178537845612,0.18549783527851105,-0.041030511260032654,-0.1612350195646286,0.12699998915195465,-0.0028670805040746927,-0.1408512145280838,0.2039928138256073,-0.3530254364013672,-0.3713015615940094,-0.4317152798175812,0.01696493662893772,0.3296968936920166,0.3738968074321747,-0.041622430086135864,-0.07181166112422943,-0.3539033830165863,-0.0018691526493057609,-0.07170627266168594,-0.16793808341026306,0.06725357472896576,0.05172647163271904,0.35223349928855896,0.4348156452178955,-0.04725611209869385,0.01873851753771305,-0.17763559520244598,-0.060069262981414795,0.07888823002576828,0.020895348861813545,0.1977068930864334,0.1851467788219452,-0.02847139537334442,-0.007672310806810856,-0.355584055185318,0.09925135970115662,-0.0014826318947598338,0.26889654994010925,-0.05735138803720474,0.14356327056884766,0.06216951832175255,0.14117419719696045,0.23862193524837494,-0.15528155863285065,0.14777876436710358,-0.288544237613678,-0.3483339250087738,-0.3560519218444824,0.1392182856798172,0.06560087203979492,0.15530923008918762,-0.007735203020274639,-0.07780672609806061,0.01656283251941204,0.4124196171760559,0.46896255016326904,0.7864316701889038,0.13512806594371796,-0.03020757995545864,0.01953134313225746,-0.31927424669265747,0.04335928335785866,-0.18355004489421844,0.25321128964424133,0.022220687940716743,-0.12842535972595215,-0.06875235587358475,-0.161014586687088,0.05353539064526558,-0.33657106757164,0.014535542577505112,0.09227821975946426,-0.0715123638510704,-0.0030878568068146706,-0.047970447689294815,0.14587043225765228,0.013744673691689968,-0.013085936196148396,-0.09760106354951859,0.07751595228910446,-0.03175918757915497,0.1195414811372757,-0.023410024121403694,-0.06864786893129349,-0.07046143710613251,0.0016297365073114634,0.18739129602909088,0.1511719822883606,-0.026864608749747276,-0.1432744264602661,0.1534336358308792,-0.023707976564764977,0.07647936791181564,0.1130378395318985,0.07873755693435669,-0.10053694993257523,0.161619633436203,-0.02471386454999447,-0.17050115764141083,-0.05998452752828598,-0.4947148561477661,0.009366397745907307,-0.30060335993766785,-0.3224286139011383,0.045988328754901886,0.10415145754814148,0.10614944994449615,0.28084108233451843,0.0431598424911499,-0.02531863935291767,-0.2036500871181488,-0.08798658847808838,-0.14811809360980988,0.2101219743490219,-0.09163625538349152,-0.27590763568878174,0.10113165527582169,-0.026531057432293892,-0.11605023592710495,-0.20273369550704956,-0.002222555223852396,0.04054239019751549,-0.5171641111373901,-0.06439010053873062,-0.08550053089857101,0.04273883253335953,0.018837202340364456,0.25359877943992615,-0.11769653111696243,0.04687678813934326,-0.31214067339897156,0.15952269732952118,0.11614678055047989,0.15380939841270447,-0.1711357831954956,-0.07420825213193893,-0.04291777312755585,0.19480887055397034,0.07019196450710297,0.2900226414203644,0.07064835727214813,-0.21672601997852325,-0.18301251530647278,0.10824374109506607,-0.042377643287181854,-0.10968892276287079,0.2260141223669052,0.052078280597925186,-0.27089953422546387,0.0995984897017479,-0.16382676362991333,0.1790921986103058,0.517516553401947,-0.2722737193107605,-0.014792750589549541,0.0150183429941535,0.048620522022247314,-0.3246542513370514,0.32525941729545593,-0.18762172758579254,0.07826077938079834,0.1471923440694809,-0.06580254435539246,0.12700733542442322,0.12474118173122406,0.34862020611763,0.14165574312210083,0.05066322535276413,0.060524191707372665,-0.08491096645593643,-0.16164031624794006,-0.01133545208722353,-0.05519206449389458,0.09043999016284943,0.09547483921051025,0.02825165167450905,0.07654670625925064,-0.02003823220729828,0.017874429002404213,0.07268316298723221,-0.058977141976356506,-0.03764276206493378,-0.1137796938419342,-0.14512963593006134,-0.16780893504619598,0.09299387782812119,-0.17293086647987366,0.2956429719924927,-0.09941429644823074,-0.2502027153968811,0.1614656299352646,-0.006162888836115599,-0.1321338564157486,0.14098772406578064,0.08224860578775406,0.4126136302947998,0.437144935131073,-0.12734505534172058,-0.022639507427811623,-0.055912651121616364,0.22802235186100006,0.1706835776567459,0.03889371082186699,-0.02226947993040085,-0.17097796499729156,0.155565544962883,-0.05283709987998009,-0.11222841590642929,-0.06592663377523422,0.01803828775882721,0.04727398231625557,0.39438557624816895,-0.012967859394848347,-0.28493553400039673,0.0981568768620491,-0.12270116806030273,0.03758903965353966,-0.18392124772071838,-0.41961339116096497,0.8136081099510193,0.4323256015777588,-0.4387633502483368,0.7122185826301575,-0.23532865941524506,-0.06602411717176437,0.35890519618988037,-0.8148312568664551,1.2395490407943726,0.7094667553901672,0.09083671867847443,-0.48992621898651123,0.3523598313331604,-0.6675859689712524,0.1260218471288681,-0.08686891198158264,-0.07689239829778671,-0.39546728134155273,0.1071242243051529,0.037099096924066544,0.23894952237606049,0.05233316868543625,0.25455138087272644,0.21913792192935944,0.034282851964235306,0.09046043455600739,-0.27771979570388794,-0.11486507207155228,-0.04820920154452324,-0.05607511103153229,0.17445969581604004,0.12691868841648102,0.2444484978914261,0.1292579472064972,0.12841647863388062,0.12998519837856293,-0.08298971503973007,0.08190854638814926,-0.43215876817703247,0.022270921617746353,-0.11476267129182816,-0.028502855449914932,0.25681352615356445,0.18651261925697327,0.17855997383594513,-0.02380153350532055,-0.1765907257795334,-0.2061394453048706,-0.20539318025112152,-0.28374114632606506,0.17196838557720184,-0.12684066593647003,0.052383482456207275,-0.05722033232450485,-0.1298869401216507,-0.05012091249227524,-0.2557567358016968,0.42289528250694275,0.30920958518981934,-0.049008388072252274,0.0270895566791296,-0.049934230744838715,0.2121635377407074,-0.01191481202840805,0.10472045838832855,0.032879605889320374,-0.27549850940704346,-0.028436381369829178,-0.34327760338783264,0.02796497754752636,0.5603663921356201,-0.24563774466514587,-0.08393457531929016,-0.10028374940156937,0.2249191254377365,0.013622140511870384,0.31857287883758545,-0.2289898693561554,0.19604986906051636,-0.2615629732608795,0.056717582046985626,-0.05185876786708832,0.24608568847179413,-0.08826315402984619,0.2924891710281372,-0.017130320891737938,0.23168392479419708,-0.014981314539909363,0.012850094586610794,0.10311994701623917,-0.39681777358055115,0.11580228060483932,0.3229791224002838,-0.2727352976799011,-0.024827992543578148,-0.2867957055568695,0.15603597462177277,-0.028277570381760597,-0.12241816520690918,0.18591094017028809,0.15558107197284698,0.169717475771904,-0.29665589332580566,-0.1836230456829071,0.0150531604886055,0.09024562686681747,0.28162917494773865,0.2093692570924759,0.2667313516139984,0.08919589966535568,0.04586516320705414,0.12294170260429382,-0.04660684987902641,-0.16796110570430756,0.18888166546821594,-0.13232280313968658,0.1282498836517334,-0.15880748629570007,-0.177166149020195,0.201847106218338,0.09137728065252304,-0.16172842681407928,-0.09028445184230804,0.29188546538352966,0.21116666495800018,-0.018156830221414566,0.19217096269130707,0.3365240693092346,-0.16486606001853943,-0.04919390752911568,0.29985782504081726,-0.19846554100513458,0.08632256090641022,-0.2012484073638916,0.1875142753124237,0.2194957286119461,0.07187703996896744,0.23016458749771118,-0.2552218437194824,0.09479562193155289,0.10085814446210861,-0.18451358377933502,-0.2606998383998871,0.15909454226493835,-0.2845378518104553,0.16500547528266907,0.10610099881887436,0.06807540357112885,-0.04831157997250557,-0.04406524822115898,0.0865730419754982,0.15615908801555634,-0.07217111438512802,0.04697138071060181,-0.0663197785615921,0.16627632081508636,-0.020770421251654625,-0.003785938024520874,0.367461234331131,-0.21239356696605682,-0.15280775725841522,0.11698848009109497,0.07889119535684586,0.2598826587200165,0.09034305065870285,-0.21250276267528534,0.0647866502404213,0.01102801226079464,0.21045167744159698,-0.023994268849492073,-0.007083980366587639,-0.10703650116920471,0.4551604688167572,-0.10465652495622635,0.291654109954834,-0.23265355825424194,-0.2056204229593277,-0.5242161750793457,0.20898523926734924,-0.2002539336681366,0.25538772344589233,-0.04286082834005356,0.3708212077617645,0.19744227826595306,-0.29168522357940674,0.13047413527965546,0.05058302730321884,-0.3355053961277008,0.15989333391189575,0.30770933628082275,0.027014130726456642,-0.03342562913894653,-0.02880997397005558,0.11121279001235962,-0.1759166568517685,0.17445752024650574,0.32296377420425415,0.14675624668598175,0.11412592232227325,-0.1347924917936325,-0.0853772982954979,0.45411092042922974,-0.5064589977264404,-0.49736759066581726,0.10213277488946915,0.10863734036684036,-0.4339594542980194,-0.2185327112674713,0.22357137501239777,-0.09493730962276459,0.06230514124035835,0.05945684760808945,-0.47014692425727844,-0.11385711282491684,-0.36056509613990784,-0.1334865242242813,-0.0859958603978157,-0.0453723780810833,0.1467628926038742,0.14181245863437653,-0.12610657513141632,-0.19097939133644104,-0.2989174425601959,0.21830050647258759,-0.04545639082789421,0.009598401375114918,-0.11987550556659698,-0.1633068323135376,-0.017202667891979218,-0.1162681058049202,0.09016545116901398,-0.016143154352903366,0.13967157900333405,-0.3236938714981079,0.09842319786548615,0.0990321934223175,-0.1837654709815979,0.03176650032401085,-0.027749720960855484,0.09556439518928528,-0.15699729323387146,0.20910656452178955,-0.14768226444721222,0.04028834402561188,0.10874763876199722,-0.1565386801958084,0.02921464666724205,0.04144289344549179,0.19843003153800964,0.22229473292827606,-0.03083697333931923,0.15723557770252228,0.06844819337129593,-0.24442264437675476,-0.13870009779930115,0.030062366276979446,0.04222762957215309,-0.13274820148944855,-0.25927120447158813,-0.027497392147779465,-0.051337435841560364,-0.2608562707901001,-0.002954635303467512,0.10797977447509766,0.3836708664894104,0.11761542409658432,-0.535447359085083,-0.035901717841625214,-0.17727237939834595,0.1287212371826172,0.02761748991906643,0.1231589987874031,0.12169525772333145,0.11967258900403976,-0.11628251522779465,0.1862058937549591,0.14502756297588348,-0.13535769283771515,-0.045927222818136215,-0.26544034481048584,0.04546583816409111,0.10568929463624954,0.2176772952079773,0.05501970648765564,0.025842968374490738,-0.22837364673614502,-0.2955770790576935,-0.21437497437000275,-0.38681140542030334,-0.028693940490484238,0.3210642635822296,0.0773097425699234,0.2131805121898651,0.10592097789049149,-0.2142411768436432,-0.08686435222625732,0.0905357152223587,0.10746105015277863,-0.24532964825630188,-0.3213314414024353,0.010897462256252766,-0.03877926617860794,-0.05800055339932442,0.21470588445663452,0.22287742793560028,0.02492334693670273,-0.1342000663280487,-0.34465742111206055,-0.017433641478419304,0.211398646235466,0.21101336181163788,-0.04357311129570007,-0.20733340084552765,-0.16279961168766022,0.04168161749839783,0.14524401724338531,-0.12259470671415329,-0.0914129987359047,-0.1710488647222519,0.017650825902819633,-0.28601908683776855,-0.022629952058196068,-0.1397751271724701,-0.13535787165164948,-0.4738352596759796,0.13826973736286163,0.028707195073366165,-0.340066522359848,-0.023617558181285858,-0.6228558421134949,0.42269366979599,-0.02256610617041588,-0.05870971083641052,0.02939647249877453,-0.06960766017436981,0.07225637882947922,0.022735705599188805,0.16607998311519623,-0.1313701719045639,-0.12367600947618484,0.08138968795537949,-0.05235349386930466,-0.026208048686385155,0.09117551147937775,0.4687016010284424,-0.08549363911151886,-0.06649162620306015,0.06696468591690063,0.3496406376361847,0.11356011778116226,-0.13362286984920502,-0.0027543462347239256,-0.11498771607875824,0.09994279593229294,-0.12775379419326782,-0.30788731575012207,-0.29635533690452576,-0.05628367140889168,0.07194548100233078,0.15967391431331635,-0.1388176530599594,-0.05736347287893295,0.1550241857767105,0.2595727741718292,-0.02408512867987156,0.17006218433380127,0.08669774979352951,0.05051069334149361,0.01601155288517475,0.10784073919057846,0.09339988976716995,-0.036136697977781296,-0.09837141633033752,-0.06105031818151474,0.125554621219635,-0.23382973670959473,-0.0700797364115715,0.5495999455451965,-0.0786580741405487,-0.13646848499774933,-0.16082842648029327,-0.045006684958934784,-0.024418611079454422,0.17660769820213318,-0.3319271504878998,-0.26825976371765137,-0.612917423248291,0.2496686577796936,-0.06800146400928497,0.26045510172843933,-0.3469785451889038,-0.261126309633255,0.3171273171901703,-0.2234141081571579,0.320802241563797,0.21898293495178223,-0.36750680208206177,-0.23520302772521973,-0.29693886637687683,0.08326416462659836,0.04263196513056755,0.2574712038040161,-0.34587180614471436,0.0519464872777462,-0.10275150090456009,0.16981279850006104,-0.04860689491033554,0.113852858543396,-0.042188260704278946,0.08082848787307739,-0.10636095702648163,0.18712474405765533,0.29842934012413025,0.7545116543769836,-0.6416038870811462,0.02076980657875538,0.01142476312816143,-0.2070215791463852,-0.08630383759737015,-0.010116349905729294,0.133670374751091,-0.19489231705665588,0.04023747891187668,-0.058085210621356964,0.1316760629415512,-0.07360263913869858,0.15726488828659058,-0.1330847442150116,0.0014013532781973481,0.18162010610103607,0.14194361865520477,0.17163987457752228,-0.28827834129333496,-0.38234743475914,-0.04726133868098259,0.3471843898296356,0.21708641946315765,0.09562847018241882,-0.2688787877559662,0.035755228251218796,0.23569603264331818,-0.2267693132162094,0.2228378802537918,-0.03146590664982796,-0.24181099236011505,-0.12492015957832336,-0.20941907167434692,0.1690811961889267,0.20233900845050812,0.031146259978413582,-0.10875008255243301,-0.06459592282772064,-0.06397561728954315,0.24990247189998627,0.12831290066242218,-0.08474763482809067,-0.2682347297668457,-0.24348121881484985,-0.06397533416748047,0.25370049476623535,0.18046510219573975,0.29278725385665894,-0.2792961299419403,0.32948434352874756,0.1003212034702301,0.010706687346100807,-0.006495821755379438,0.21931065618991852,-0.19886665046215057,0.06295052915811539,0.15156012773513794,-0.23984868824481964,0.10907876491546631,-0.08923491090536118,-0.2096552699804306,-0.13926950097084045,-0.08151403069496155,-0.2628355920314789,0.12937723100185394,0.0707961693406105,-0.2859742045402527,0.20598143339157104,-0.00469476543366909,0.1554344892501831,-0.19029845297336578,0.2136533111333847,-0.04795654118061066,-0.16617639362812042,-0.09614596515893936,0.045822422951459885,0.008861354552209377,-0.20690833032131195,-0.3437172472476959,0.013320294208824635,0.1562034636735916,0.17105944454669952,-0.10201333463191986,-0.016943227499723434,-0.06557045131921768,0.24902735650539398,-0.011618556454777718,-0.12613075971603394,-0.2151445746421814,0.12772664427757263,-0.02006540261209011,-0.0360540933907032,-0.0914945900440216,-0.07614722847938538,0.07963648438453674,0.255979061126709,-0.1657552272081375,-0.005039914511144161,0.008906037546694279,-0.23172245919704437,-0.21411192417144775,0.07083520293235779,0.12831427156925201,-0.19062194228172302,-0.04431069642305374,0.09524940699338913,0.11714794486761093,0.13339577615261078,0.26882606744766235,-0.20428943634033203,-0.27009040117263794,0.06753869354724884,-0.20128227770328522,-0.0850205197930336,-0.15996955335140228,0.13197393715381622,-0.026573751121759415,-0.19817380607128143,-0.11790221184492111,0.038872744888067245,0.239782452583313,-0.22827118635177612,0.1551397740840912,0.011758139356970787,0.23191094398498535,-0.15280607342720032,-0.2208067774772644,-0.055877942591905594,-0.06112893298268318,-0.06199825927615166,-0.19778843224048615,-0.14293918013572693,-0.04282375052571297,0.26181960105895996,-0.06531590968370438,-0.29407334327697754,-0.2936774790287018,0.034292276948690414,-0.0029493861366063356,0.04392746090888977,0.060659319162368774,-0.19947654008865356,-0.1211603656411171,-0.05829216167330742,-0.09374284744262695,-0.07867196202278137,-0.06424714624881744,0.16038580238819122,-0.24584010243415833,-0.15977074205875397,-0.022011054679751396,-0.11509635299444199,-0.050707340240478516,0.003847790416330099,-0.08064554631710052,-0.006034219171851873,0.09844640642404556,0.030279504135251045,0.12502920627593994,0.25275060534477234,0.033133622258901596,0.15708346664905548,-0.2542192339897156,-0.2756292521953583,-0.3123542070388794,-0.16114875674247742,-0.27193617820739746,-0.06437449157238007,-0.07884199172258377,-0.2893383502960205,-0.08874499797821045,-0.5231746435165405,-0.13072453439235687,0.14036965370178223,-0.04207450523972511,-0.4122169315814972,-0.16868014633655548,0.15619851648807526,-0.07578231394290924,-0.030411604791879654,-0.06781689077615738,0.10026992857456207,-0.09243325889110565,-0.3030380606651306,-0.05681842193007469,0.13104170560836792,0.1026863381266594,0.0859324038028717,0.1011681780219078,-0.00037804595194756985,0.01212837640196085,0.011023389175534248,-0.12652331590652466,0.313192754983902,0.13678701221942902,0.025885025039315224,-0.03899716958403587,-0.08171845972537994,0.04230707883834839,-0.11864624172449112,0.030240541324019432,-0.186922088265419,0.1315620392560959,0.0345815010368824,-0.03384501114487648,0.6229907870292664,0.5461937189102173,-0.04019548371434212,-0.18154746294021606,-0.06755926460027695,0.07226061075925827,-0.04202195256948471,-0.07764078676700592,0.104070745408535,-0.004302375018596649,-0.029608875513076782,0.12342960387468338,-0.1502358317375183,0.10214702785015106,-0.19550596177577972,-0.15020768344402313,-0.010458176024258137,-0.019887732341885567,-0.14735917747020721,-0.09254658222198486,0.022460998967289925,0.09587287902832031,-0.08073261380195618,0.1032286211848259,-0.24979616701602936,0.014339087530970573,0.04738747701048851,0.20241300761699677,0.04021880403161049,0.008512268774211407,-0.17741744220256805,-0.11243336647748947,0.08023189008235931,-0.06185433268547058,-0.05057165026664734,-0.15039657056331635,-0.15492767095565796,0.04476834833621979,0.12443406879901886,0.27829301357269287,-0.0037290698383003473,0.13764721155166626,0.21888983249664307,-0.14830312132835388,-0.2077072709798813,0.2865436375141144,-0.014666764996945858,0.11795099079608917,0.32031604647636414,-0.0798223540186882,-0.49917227029800415,-0.028656577691435814,0.22256849706172943,-0.13077761232852936,0.001309267245233059,0.13589276373386383,0.2803514897823334,0.1544264853000641,0.19033432006835938,0.02399122714996338,0.10448288172483444,-0.00014055999054107815,0.13996145129203796,-0.031574539840221405,-0.1120806410908699,0.1662970930337906,0.15058250725269318,0.1388557255268097,0.06373219192028046,0.0922367051243782,0.07296422123908997,-0.09158880263566971,-0.46526145935058594,-0.20147940516471863,-0.06271630525588989,0.015195123851299286,-0.06562799215316772,-0.21811656653881073,0.10736972093582153,0.16617527604103088,0.14557024836540222,0.15328726172447205,0.04685765504837036,-0.07952920347452164,0.3391759395599365,-0.6069560647010803,-0.3487253487110138,0.26693305373191833,0.19009211659431458,-0.27101653814315796,-0.11478565633296967,0.10211647301912308,-0.04024956002831459,-0.08569667488336563,-0.05018437281250954,0.1526978611946106,-0.161844864487648,-0.2934463620185852,-0.0965302437543869,-0.09047075361013412,0.14883099496364594,0.1630876213312149,0.0863276794552803,-0.11375042796134949,-0.14350463449954987,0.024171093478798866,-0.07010208070278168,-0.06598015129566193,0.1005401685833931,-0.17054392397403717,-0.23207160830497742,0.1950370967388153,0.11060400307178497,0.20728737115859985,-0.1221332848072052,-0.054658692330121994,-0.041543032974004745,-0.017922217026352882,-0.05518871173262596,0.05044391378760338,-0.10477413237094879,0.09047164767980576,0.24069997668266296,0.11361123621463776,0.04654460400342941,-0.048918720334768295,-0.13290737569332123,0.07855268567800522,0.152043417096138,-0.02884417027235031,0.25745949149131775,0.07502260059118271,0.12650591135025024,0.02086329273879528,-0.17689557373523712,-0.15559375286102295,-0.2587328553199768,-0.3291136622428894,-0.0292791947722435,0.16262489557266235,-0.16947796940803528,0.0893697738647461,-0.00006371576455421746,-0.03774300590157509,0.2128814160823822,0.188292995095253,0.12643598020076752,-0.03662124276161194,0.06005479022860527,0.30448445677757263,0.34685754776000977,-0.14479276537895203,0.2086447924375534,-0.17920564115047455,-0.17785024642944336,0.27557215094566345,-0.031239597126841545,-0.05405936390161514,-0.09912589192390442,0.13971498608589172,-0.015375831164419651,-0.428814172744751,0.15229235589504242,0.08766597509384155,-0.03864068165421486,0.055874790996313095,0.08866699784994125,0.008790469728410244,0.23072531819343567,0.16452530026435852,-0.023924073204398155,-0.13560554385185242,-0.006326083559542894,0.20283059775829315,0.059600360691547394,0.126710906624794,-0.1100662350654602,-0.04406057670712471,0.04885227978229523,0.07533097267150879,-0.31388795375823975,0.1656649112701416,-0.43315616250038147,-0.0467233844101429,-0.18063749372959137,0.2409275472164154,-0.01820133626461029,-0.0633435994386673,0.21040935814380646,-0.11614453792572021,0.10263783484697342,-0.268062561750412,0.0991748496890068,0.3521095812320709,0.011787568219006062,-0.15477751195430756,-0.12384996563196182,0.25102078914642334,0.11383013427257538,0.1883726865053177,-0.4375474452972412,0.04536666348576546,-0.02875599078834057,0.0889323502779007,0.15132001042366028,-0.09823856502771378,0.024639716371893883,-0.3564103841781616,-0.2554636299610138,0.18778583407402039,-0.13100536167621613,-0.127611443400383,-0.04384475573897362,0.03805937245488167,-0.11076804250478745,-0.16622167825698853,-0.09372209012508392,-0.017065154388546944,0.22030019760131836,0.04110357165336609,-0.05845172330737114,-0.07009782642126083,-0.14569270610809326,0.1358450949192047,0.2708970904350281,0.0822548046708107,-0.36335912346839905,0.07665073126554489,-0.0019142546225339174,-0.35708847641944885,0.24382202327251434,0.14615964889526367,0.20280662178993225,-0.26217639446258545,0.21759331226348877,-0.050730690360069275,-0.09800785034894943,0.061107177287340164,-0.12046342343091965,-0.2088431566953659,0.1666470319032669,-0.031354110687971115,0.19655641913414001,-0.08737590163946152,-0.0608457587659359,-0.24347323179244995,-0.016337977722287178,0.0413677804172039,0.3173030912876129,0.3916483223438263,0.015924720093607903,-0.3082364797592163,-0.0021109411027282476,-0.07967652380466461,-0.3517224192619324,-0.08340451866388321,0.11107920110225677,0.3221275508403778,0.007631707936525345,-0.16751928627490997,-0.1262366771697998,0.04774623364210129,0.1318282037973404,-0.021201904863119125,-0.17548143863677979,0.11775083094835281,0.3755307197570801,0.056898847222328186,0.13772612810134888,-0.3351316750049591,-0.2963479161262512,0.07386264204978943,0.14902019500732422,-0.039992548525333405,-0.047499872744083405,-0.2575804591178894,0.06801050901412964,0.05526457354426384,0.2573947310447693,0.40294474363327026,0.11633986979722977,-0.1285400390625,0.21219263970851898,0.09108508378267288,-0.057889439165592194,0.21589349210262299,0.028780072927474976,0.5025203824043274,-0.1764974594116211,0.06221828982234001,0.2664567828178406,0.045703817158937454,-0.09809189289808273,0.13790898025035858,-0.10727709531784058,-0.149825781583786,0.08724720031023026,-0.07587773352861404,0.05267908424139023,0.10408973693847656,0.4177161753177643,0.5018139481544495,0.021692568436264992,0.13855668902397156,0.0593726672232151,0.19729527831077576,0.007681806106120348,0.08824750781059265,0.2776649594306946,-0.17586806416511536,0.055502165108919144,0.06633605062961578,-0.2055116444826126,-0.30366870760917664,-0.11486620455980301,-0.09493670612573624,0.046811845153570175,-0.06191674992442131,0.01281690038740635,-0.10827925056219101,0.2154480665922165,0.05034593865275383,-0.09655632823705673,0.049768656492233276,-0.026674503460526466,0.06508927047252655,-0.5117420554161072,0.09136652201414108,0.07375553250312805,-0.07847817987203598,-0.004605835769325495,-0.06413791328668594,-0.047566644847393036,0.07181186228990555,0.30178701877593994,-0.01660705916583538,0.13008634746074677,-0.031078636646270752,-0.37721991539001465,0.0002536405227147043,-0.13026073575019836,-0.04430149868130684,-0.16968244314193726,0.1253744214773178,0.03302876278758049,-0.11107141524553299,0.004104853607714176,0.06428414583206177,0.06219666451215744,-0.0410786010324955,0.05626019090414047,-0.028719989582896233,-0.006047260016202927,-0.015323540195822716,0.03019905835390091,-0.03975798562169075,-0.09648328274488449,0.06801741570234299,-0.17132605612277985,0.202776700258255,0.12793241441249847,0.12307021766901016,-0.007247765548527241,-0.0960613489151001,0.0009130027028732002,0.1822090446949005,-0.018654348328709602,0.049158189445734024,-0.17677032947540283,0.04295910894870758,-0.2360582798719406,-0.05394987016916275,0.024523556232452393,0.008725838735699654,-0.137481689453125,-0.36883544921875,-0.060186244547367096,0.09183862060308456,-0.08860412240028381,0.09338191896677017,0.0856284499168396,-0.2349444180727005,-0.2166406810283661,-0.17106568813323975,0.048959117382764816,-0.055255111306905746,0.14913688600063324,-0.1176539734005928,0.08284951001405716,0.15863551199436188,-0.11140846461057663,-0.06940119713544846,0.16339710354804993,-0.00017300547915510833,0.011879464611411095,-0.21264953911304474,0.16464437544345856,0.18072302639484406,-0.16557489335536957,-0.220431387424469,-0.049176182597875595,0.025262001901865005,-0.2752460539340973,-0.10938183218240738,0.16809482872486115,0.10996268689632416,0.04828617721796036,-0.13914386928081512,-0.3012593686580658,0.005641806870698929,0.06768658757209778,0.2612881660461426,0.023775020614266396,-0.15525232255458832,-0.2835978865623474,-0.11548314988613129,0.26539599895477295,-0.035205401480197906,0.10046559572219849,-0.23653703927993774,0.18151842057704926,-0.12485688179731369,-0.16213452816009521,0.017831210047006607,-0.042481549084186554,-0.062271106988191605,0.016896700486540794,0.05865653231739998,-0.07667474448680878,-0.24098753929138184,0.09339551627635956,-0.38717690110206604,0.01229754090309143,-0.2532232701778412,0.03725086525082588,-0.04617544263601303,0.0288418959826231,0.10712393373250961,-0.11819212138652802,0.20286345481872559,-0.18356789648532867,-0.01864374428987503,-0.0008132372749969363,0.0388072207570076,0.09168903529644012,0.05828990414738655,-0.17706018686294556,0.3314063251018524,0.044444359838962555,-0.0098122488707304,0.06787686794996262,0.8631537556648254,0.13976658880710602,0.7945941090583801,-0.7769151329994202,-0.5327370762825012,-0.021852390840649605,0.016231520101428032,-0.10427141189575195,0.13397705554962158,0.2710975408554077,-0.8691827654838562,0.5417360663414001,0.05442936718463898,-0.7580358386039734,0.21716128289699554,-0.06349466741085052,-0.10688558220863342,-0.23297101259231567,0.12807732820510864,-0.1421574503183365,0.1565825492143631,0.08278769999742508,-0.2292952537536621,-0.11014392971992493,-0.09147978574037552,-0.09019477665424347,-0.11745191365480423,-0.048821307718753815,-0.15788882970809937,-0.2849101722240448,0.10390271246433258,-0.17838799953460693,0.028002582490444183,0.045452091842889786,0.019973084330558777,-0.001142918597906828,-0.24333250522613525,0.14193886518478394,0.7354629039764404,-0.18885712325572968,-0.5640662908554077,-0.22101670503616333,-0.3223806321620941,0.3233477473258972,0.08826982975006104,0.17163826525211334,0.10451336950063705,0.10095109790563583,-0.09789066016674042,0.2794732451438904,-0.16689501702785492,-0.0777822732925415,-0.008940407074987888,-0.10629374533891678,-0.19944778084754944,-0.066068135201931,0.36925074458122253,-0.24237464368343353,-0.13013628125190735,-0.004997292999178171,0.09855084866285324,0.024114008992910385,-0.049277547746896744,0.199214905500412,-0.12322809547185898,0.07627654075622559,0.21881331503391266,0.28143614530563354,0.30712950229644775,0.207602396607399,0.3387676477432251,0.0714724063873291,-0.1510375291109085,0.018794488161802292,-0.045736465603113174,-0.32479149103164673,0.15698054432868958,0.058388445526361465,0.07583214342594147,-0.21671846508979797,-0.00845024548470974,-0.2233748435974121,0.03784064203500748,0.021931655704975128,0.21942254900932312,-0.12646302580833435,0.1913766711950302,-0.2805840075016022,0.3010023534297943,0.029197610914707184,0.25916025042533875,-0.2636078894138336,-0.30424144864082336,-0.00804841797798872,-0.27118608355522156,-0.2492799311876297,-0.2865336239337921,0.3179568350315094,0.1485283374786377,0.2784155011177063,-0.2232062816619873,0.2328301966190338,-0.0763256624341011,-0.08248448371887207,-0.02328937128186226,0.040372882038354874,-0.30884942412376404,0.2934316098690033,-0.08605160564184189,-0.009876429103314877,-0.37742653489112854,0.18981656432151794,-0.13651390373706818,-0.10833363980054855,-0.08658531308174133,-0.2471378594636917,-0.08796948194503784,-0.07335057109594345,0.2518882155418396,0.1171177551150322,-0.0937865599989891,-0.16881214082241058,0.06853790581226349,-0.09191776067018509,0.06657758355140686,0.20151947438716888,0.19809691607952118,-0.22262069582939148,-0.28011178970336914,0.23428741097450256,-0.09057383239269257,0.1507861316204071,0.06096750870347023,-0.3313678205013275,0.04503892734646797,0.3002553880214691,0.053023919463157654,0.24139827489852905,0.1377638578414917,0.05346288904547691,-0.2935641407966614,0.05416933074593544,-0.07341335713863373,-0.001987005118280649,-0.36090975999832153,-0.01662350445985794,-0.10135463625192642,0.07960321009159088,0.22390106320381165,0.05874519422650337,-0.4728742241859436,-0.11563961952924728,0.044782835990190506,-0.040198009461164474,0.050395213067531586,-0.19127966463565826,0.2750522494316101,0.07996748387813568,-0.226560577750206,0.14914895594120026,0.14470548927783966,0.06970283389091492,0.21075443923473358,-0.0342804379761219,-0.15675365924835205,0.16100242733955383,-0.13771405816078186,-0.021767640486359596,-0.23848940432071686,-0.20911024510860443,0.0008426072890870273,-0.170625239610672,0.19662196934223175,-0.1410427838563919,0.26278987526893616,0.01049910206347704,-0.08055619150400162,0.1438693404197693,-0.2777869403362274,-0.1616164594888687,-0.12230703979730606,0.09676308929920197,0.1344006508588791,-0.20610487461090088,0.10629227757453918,0.0028384814504534006,-0.1396644562482834,0.04329870641231537,-0.08525817841291428,-0.05316586792469025,-0.027141498401761055,-0.12239931523799896,0.3258056044578552,0.09819840639829636,-0.06438659876585007,-0.05437936633825302,-0.18389426171779633,-0.4070271849632263,-0.1111261323094368,0.23812860250473022,-0.09083063155412674,0.24754983186721802,0.24065685272216797,0.28583788871765137,-0.4913029372692108,0.18888859450817108,-0.29147133231163025,-0.28529536724090576,0.11486603319644928,0.427791565656662,0.13337309658527374,0.17102213203907013,0.1255735456943512,0.17011034488677979,0.15479132533073425,-0.06434226036071777,0.07310550659894943,0.3317793607711792,-0.11803312599658966,0.025768304243683815,-0.12488586455583572,-0.03227086365222931,-0.2637563645839691,-0.15608568489551544,-0.12829264998435974,0.2756471633911133,0.271838903427124,0.2509087324142456,0.115641288459301,-0.08158241212368011,0.03338785469532013,0.14563223719596863,-0.15441353619098663,0.13942407071590424,0.19142796099185944,-0.2547288239002228,-0.3895151615142822,-0.060926493257284164,-0.07630293816328049,0.044286150485277176,0.354184091091156,-0.07265139371156693,0.1640566736459732,0.05882691219449043,-0.41154131293296814,-0.19911402463912964,0.03050544112920761,0.23707282543182373,-0.1003553569316864,0.014653545804321766,-0.23624396324157715,0.16232998669147491,0.1387397199869156,0.09034217149019241,0.20566101372241974,0.2958236038684845,-0.06087927520275116,-0.061072878539562225,0.12283476442098618,0.08960746228694916,-0.2528570294380188,-0.8034154176712036,0.20652057230472565,0.434140682220459,-0.0025217272341251373,0.128446564078331,0.029283588752150536,0.1895110160112381,-0.02446831576526165,0.056803006678819656,0.06469956785440445,0.1858084797859192,-0.17324617505073547,0.22137296199798584,0.12511654198169708,-0.007652733009308577,-0.0014361897483468056,-0.08214224129915237,0.07127805054187775,0.044653598219156265,-0.19567197561264038,0.0540476068854332,0.09023553878068924,0.04790905490517616,0.08987853676080704,-0.17723645269870758,-0.10836946964263916,-0.10196235030889511,0.07071050256490707,-0.08333729207515717,-0.15634113550186157,0.23351873457431793,0.04657232016324997,-0.006686967331916094,-0.24942387640476227,0.1110980212688446,-0.08919115364551544,0.015045508742332458,-0.018667705357074738,-0.04387359693646431,0.03228503838181496,0.004669953137636185,-0.22161050140857697,0.004343121778219938,0.045034054666757584,0.022519363090395927,0.03259794041514397,-0.027837326750159264,0.1715553253889084,-0.03956969827413559,0.25344040989875793,0.20255506038665771,-0.15693120658397675,-0.012851187959313393,-0.014950837008655071,0.18456724286079407,-0.06418495625257492,0.0018972833640873432,-0.08109589666128159,0.018699392676353455,0.011335634626448154,-0.03773229569196701,-0.3619820177555084,-0.05188201367855072,-0.08103819191455841,0.06733060628175735,0.04897472634911537,-0.26204052567481995,-0.12173978239297867,0.02423020452260971,-0.20151911675930023,-0.03616980090737343,0.04358009621500969,-0.48224467039108276,0.07942064851522446,0.1030687764286995,0.04364929720759392,-0.04268212988972664,0.2888749837875366,0.2089688926935196,-0.09003991633653641,-0.011194867081940174,-0.25595903396606445,-0.08552543818950653,0.1892184466123581,-0.07210125029087067,0.04837232083082199,0.14047184586524963,0.206365168094635,0.08834321051836014,-0.04832080379128456,0.10749261826276779,-0.031312596052885056,-0.32837575674057007,-0.16755835711956024,0.08832485228776932,0.2971635162830353,0.0901615172624588,0.1515573114156723,-0.3318614065647125,-0.1614685356616974,-0.0067216986790299416,0.297664076089859,0.09628641605377197,0.10741820186376572,-0.13652026653289795,0.022927675396203995,-0.10821361094713211,0.4562658369541168,-0.04706195369362831,-0.26922622323036194,0.08070215582847595,-0.04840979352593422,-0.2070073038339615,0.010767384432256222,-0.08829621225595474,-0.12241601198911667,0.18996748328208923,-0.13355092704296112,-0.06872528791427612,-0.185169517993927,-0.15422116219997406,-0.0667555034160614,-0.012179883196949959,0.18129636347293854,0.05418064072728157,-0.04083436354994774,-0.13806354999542236,0.12166295200586319,-0.429550439119339,-0.32536381483078003,-0.26704588532447815,0.23053693771362305,-0.2246510088443756,-0.16072477400302887,-0.2461877018213272,0.055211517959833145,-0.139801487326622,-0.4993995726108551,0.21576738357543945,0.3027336895465851,0.17263364791870117,-0.23313644528388977,-0.2686169445514679,-0.15208259224891663,-0.23905901610851288,-0.20216919481754303,-0.6848581433296204,-0.029977228492498398,-0.28307682275772095,0.03914138674736023,0.11600140482187271,0.056888941675424576,-0.21303203701972961,-0.06981106102466583,0.016730671748518944,0.06908486783504486,0.1345287561416626,0.09748575836420059,-0.014739553444087505,-0.14964383840560913,-0.3223583698272705,0.16882556676864624,0.07152342051267624,-0.06385158747434616,0.14678911864757538,-0.030262969434261322,0.12701302766799927,0.2673672139644623,-0.08317458629608154,-0.07938787341117859,0.44974198937416077,-0.2311866283416748,-0.18237736821174622,0.5083465576171875,-0.08136357367038727,0.07957139611244202,-0.14814512431621552,0.20958644151687622,0.09730224311351776,-0.2560568153858185,0.10707670450210571,0.03999634459614754,0.17122189700603485,-0.11241991817951202,0.03541628643870354,0.45972755551338196,-0.06466583907604218,-0.0419418141245842,0.25679290294647217,0.15267309546470642,-0.021422257646918297,0.07289799302816391,-0.0808907300233841,-0.1479216367006302,0.1384686976671219,0.14773455262184143,0.04978334158658981,-0.12281171977519989,-0.23990465700626373,0.02342374436557293,0.26351404190063477,0.1302514374256134,0.14053092896938324,-0.025396263226866722,-0.09456706792116165,-0.07145524770021439,0.1409403383731842,0.08926966786384583,0.08685782551765442,-0.17325088381767273,0.14078372716903687,0.10248903930187225,-0.16569405794143677,0.2070133239030838,0.05181778222322464,-0.016961390152573586,0.31647777557373047,-0.09453257918357849,0.1528712958097458,0.03084666095674038,0.061996154487133026,-0.2196824699640274,0.04077354446053505,-0.19528745114803314,0.1822003722190857,-0.11170786619186401,0.1521526575088501,0.21913108229637146,-0.11678701639175415,-0.0631418451666832,0.09800618141889572,0.218597412109375,0.06366687268018723,-0.09319379180669785,0.263741135597229,0.11401154100894928,-0.20665952563285828,0.03523590788245201,-0.2549358606338501,-0.003439660184085369,0.3086877167224884,0.09755255281925201,-0.004169096238911152,-0.15347900986671448,0.10016456246376038,0.3206993043422699,0.20993153750896454,0.14234940707683563,-0.08064812421798706,-0.17034155130386353,-0.01826208271086216,-0.008123802952468395,0.09899865090847015,-0.22756324708461761,0.015843579545617104,-0.10982458293437958,0.06388413906097412,-0.048623837530612946,-0.09439589828252792,-0.11265313625335693,-0.034390948712825775,-0.08697821944952011,0.031109748408198357,0.3916344940662384,-0.11192873865365982,0.198781356215477,0.5458808541297913,-0.3161601424217224,-0.08671525865793228,-0.05148698389530182,-0.21302703022956848,0.17883741855621338,0.08201339095830917,0.2260129600763321,-0.08972029387950897,0.02060040272772312,-0.1876276433467865,-0.3232209384441376,0.05979333072900772,-0.35433629155158997,-0.11409123241901398,-0.008252851665019989,-0.12429489940404892,-0.09766378253698349,-0.07389570772647858,0.14059793949127197,-0.028950776904821396,0.01102487463504076,-0.0028661892283707857,0.2323550581932068,-0.008998722769320011,0.03145890310406685,-0.3184833824634552,0.1391889750957489,-0.11481102555990219,0.2896503210067749,-0.2901604175567627,-0.04749380052089691,-0.10830122232437134,-0.043207164853811264,-0.10825924575328827,0.09416873008012772,0.03563573956489563,0.017467206344008446,-0.5550709962844849,0.005928697995841503,0.05610327050089836,-0.4047374725341797,0.007287497166544199,0.06132487952709198,0.36219358444213867,-0.10572033375501633,0.31257861852645874,0.1890992522239685,-0.12916557490825653,0.01877928338944912,0.008562156930565834,0.0703982263803482,-0.010858019813895226,-0.025076212361454964,0.23626111447811127,-0.1516316831111908,-0.1894836574792862,0.12256759405136108,-0.13640999794006348,-0.2213810384273529,0.11713133007287979,0.23169168829917908,0.16136863827705383,-0.24559324979782104,0.1670105755329132,0.1716253161430359,0.05896603688597679,-0.04691505432128906,0.07429897040128708,0.10968557745218277,0.07710708677768707,-0.02039409801363945,-0.305059552192688,-0.1404547542333603,-0.1297014057636261,0.3374752700328827,0.12295921891927719,0.15460017323493958,-0.22689694166183472,-0.1470457762479782,0.09009253978729248,0.129694864153862,-0.0010020791087299585,-0.02410576306283474,0.008144046179950237,-0.22924648225307465,-0.07539063692092896,0.3250869810581207,-0.07011085748672485,0.027971439063549042,0.30932027101516724,-0.18298104405403137,0.1655161827802658,-0.17257475852966309,-0.037002503871917725,0.01429782249033451,0.08175046741962433,0.2818091809749603,0.49875298142433167,0.07177621126174927,0.09731414169073105,-0.4538218379020691,0.036742813885211945,-0.02570263482630253,0.05891593173146248,0.20379765331745148,0.07950225472450256,0.14439980685710907,0.31209155917167664,0.35054391622543335,0.118592269718647,0.13029789924621582,-0.12747028470039368,-0.2750416696071625,-0.22809255123138428,-0.08180978149175644,0.07894935458898544,-0.06991469860076904,0.1922784149646759,-0.06905101239681244,-0.2298227995634079,-0.1608969271183014,0.03311211243271828,0.277170330286026,0.05383845791220665,-0.05780720338225365,-0.20855681598186493,-0.10134265571832657,0.17385201156139374,0.16391175985336304,-0.1631520539522171,-0.028928156942129135,-0.09922146797180176,0.19810178875923157,0.10326879471540451,0.3026353716850281,-0.255561888217926,-0.046547628939151764,0.12376469373703003,-0.20703768730163574,-0.15895242989063263,-0.2124725729227066,-0.29051393270492554,-0.10918310284614563,0.1001092940568924,-0.05235859006643295,-0.056716784834861755,0.1295527219772339,-0.29041755199432373,-0.255122572183609,0.33458229899406433,-0.03314785659313202,-0.13347333669662476,-0.23513612151145935,0.07425125688314438,0.09750588238239288,0.01984715834259987,0.006705042906105518,-0.08732233196496964,0.4605344235897064,-0.15919961035251617,-0.08580150455236435,0.12188596278429031,0.07295791804790497,-0.0006131092086434364,-0.0717596635222435,0.18173055350780487,0.11978786438703537,0.0474323071539402,0.3119088113307953,0.15029844641685486,-0.19009365141391754,-0.09208986163139343,-0.17328952252864838,0.4521269202232361,0.0008702252525836229,0.0063998703844845295,-0.07463499903678894,0.0769035816192627,-0.1897164285182953,-0.33201417326927185,-0.0703858956694603,-0.20369064807891846,-0.3066917359828949,0.06641676276922226,-0.025354832410812378,0.02754809521138668,0.1733594834804535,-0.06767988950014114,-0.20042818784713745,0.5189259648323059,0.2184041440486908,0.04642174765467644,-0.05243610218167305,-0.16263502836227417,0.013129573315382004,0.05724305287003517,-0.18523862957954407,-0.17597520351409912,0.19360698759555817,0.12006554752588272,-0.20048215985298157,0.030310925096273422,-0.054781921207904816,-0.1497669667005539,-0.11520402133464813,-0.006451915018260479,0.08500484377145767,0.056953851133584976,0.027596473693847656,0.012995414435863495,0.04106126353144646,0.012725744396448135,-0.052763719111680984,-0.23817609250545502,0.1829751580953598,0.1457546353340149,0.186730295419693,0.2208179086446762,0.02134360745549202,-0.10120893269777298,-0.20886723697185516,-0.04830086976289749,0.12190316617488861,-0.030983082950115204,-0.07377939671278,0.036864396184682846,0.08751783519983292,-0.18647363781929016,0.09527462720870972,0.2278021275997162,-0.04804861545562744,-0.040130022913217545,0.09681008756160736,0.027959922328591347,0.17571832239627838,-0.1375531703233719,-0.24079389870166779,-0.2727468013763428,-0.07016067951917648,-0.47332197427749634,-0.0028361286967992783,-0.014688132330775261,-0.2342175543308258,0.3536416292190552,-0.0933413878083229,-0.14106422662734985,0.11964357644319534,0.18676581978797913,-0.2391577512025833,0.11970007419586182,0.016187602654099464,0.3063647747039795,0.1454790234565735,0.05429374426603317,0.5388104319572449,-0.06980541348457336,0.07702833414077759,-0.11175519227981567,0.1792871206998825,-0.1114683449268341,-0.16036781668663025,-0.2836897075176239,0.054853420704603195,0.39313599467277527,0.19622746109962463,-0.02755947783589363,-0.12322751432657242,-0.0810166597366333,0.3406609296798706,0.087248794734478,0.19985611736774445,0.11170551925897598,0.08492995798587799,-0.2535226047039032,-0.3734637498855591,-0.37835580110549927,0.14421860873699188,0.12402775883674622,-0.10946809500455856,-0.27383384108543396,-0.3302854895591736,0.2818019986152649,-0.028762344270944595,-0.6142137050628662,-0.09958802908658981,-0.25374624133110046,-0.41297447681427,0.09663838148117065,-0.10942234843969345,-0.170540913939476,-0.2016260027885437,-0.0846530869603157,0.18631702661514282,-0.12121661752462387,0.08237915486097336,0.3863694965839386,-0.044324349611997604,-0.08936663717031479,-0.06637745350599289,0.0012335935607552528,-0.06750578433275223,-0.15550555288791656,0.11929655820131302,